digraph Tree {
node [shape=box, style="filled", color="black"] ;
0 [label="hour <= -0.729\nmse = 32845.234\nsamples = 8708\nvalue = 192.235", fillcolor="#e581393c"] ;
1 [label="hour <= -0.874\nmse = 1630.596\nsamples = 2511\nvalue = 32.959", fillcolor="#e5813908"] ;
0 -> 1 [labeldistance=2.5, labelangle=45, headlabel="True"] ;
2 [label="hour <= -1.597\nmse = 990.639\nsamples = 2137\nvalue = 25.349", fillcolor="#e5813905"] ;
1 -> 2 ;
3 [label="workingday <= 0.5\nmse = 2050.553\nsamples = 366\nvalue = 56.781", fillcolor="#e5813910"] ;
2 -> 3 ;
4 [label="season <= 1.5\nmse = 2388.211\nsamples = 121\nvalue = 95.934", fillcolor="#e581391c"] ;
3 -> 4 ;
5 [label="mse = 682.793\nsamples = 27\nvalue = 44.148", fillcolor="#e581390c"] ;
4 -> 5 ;
6 [label="year <= 2011.5\nmse = 1886.517\nsamples = 94\nvalue = 110.809", fillcolor="#e5813921"] ;
4 -> 6 ;
7 [label="mse = 997.159\nsamples = 47\nvalue = 88.106", fillcolor="#e581391a"] ;
6 -> 7 ;
8 [label="mse = 1745.101\nsamples = 47\nvalue = 133.511", fillcolor="#e5813929"] ;
6 -> 8 ;
9 [label="mse = 752.818\nsamples = 245\nvalue = 37.445", fillcolor="#e5813909"] ;
3 -> 9 ;
10 [label="workingday <= 0.5\nmse = 525.216\nsamples = 1771\nvalue = 18.853", fillcolor="#e5813903"] ;
2 -> 10 ;
11 [label="temp <= -0.229\nmse = 1034.914\nsamples = 572\nvalue = 33.481", fillcolor="#e5813908"] ;
10 -> 11 ;
12 [label="hour <= -1.307\nmse = 697.419\nsamples = 319\nvalue = 25.085", fillcolor="#e5813905"] ;
11 -> 12 ;
13 [label="mse = 776.708\nsamples = 120\nvalue = 48.775", fillcolor="#e581390d"] ;
12 -> 13 ;
14 [label="mse = 107.095\nsamples = 199\nvalue = 10.799", fillcolor="#e5813901"] ;
12 -> 14 ;
15 [label="hour <= -1.307\nmse = 1259.494\nsamples = 253\nvalue = 44.067", fillcolor="#e581390b"] ;
11 -> 15 ;
16 [label="mse = 721.005\nsamples = 105\nvalue = 78.848", fillcolor="#e5813917"] ;
15 -> 16 ;
17 [label="mse = 174.441\nsamples = 148\nvalue = 19.392", fillcolor="#e5813903"] ;
15 -> 17 ;
18 [label="hour <= -1.018\nmse = 131.285\nsamples = 1199\nvalue = 11.875", fillcolor="#e5813901"] ;
10 -> 18 ;
19 [label="mse = 76.45\nsamples = 956\nvalue = 8.641", fillcolor="#e5813900"] ;
18 -> 19 ;
20 [label="mse = 144.035\nsamples = 243\nvalue = 24.597", fillcolor="#e5813905"] ;
18 -> 20 ;
21 [label="temp <= -0.334\nmse = 3065.418\nsamples = 374\nvalue = 76.444", fillcolor="#e5813916"] ;
1 -> 21 ;
22 [label="workingday <= 0.5\nmse = 2049.148\nsamples = 191\nvalue = 56.613", fillcolor="#e5813910"] ;
21 -> 22 ;
23 [label="mse = 174.526\nsamples = 72\nvalue = 14.458", fillcolor="#e5813902"] ;
22 -> 23 ;
24 [label="year <= 2011.5\nmse = 1457.717\nsamples = 119\nvalue = 82.118", fillcolor="#e5813918"] ;
22 -> 24 ;
25 [label="season <= 2.5\nmse = 893.111\nsamples = 58\nvalue = 56.69", fillcolor="#e5813910"] ;
24 -> 25 ;
26 [label="mse = 386.51\nsamples = 38\nvalue = 39.447", fillcolor="#e581390a"] ;
25 -> 26 ;
27 [label="mse = 217.547\nsamples = 20\nvalue = 89.45", fillcolor="#e581391a"] ;
25 -> 27 ;
28 [label="mse = 795.224\nsamples = 61\nvalue = 106.295", fillcolor="#e5813920"] ;
24 -> 28 ;
29 [label="workingday <= 0.5\nmse = 3287.226\nsamples = 183\nvalue = 97.142", fillcolor="#e581391d"] ;
21 -> 29 ;
30 [label="mse = 398.694\nsamples = 52\nvalue = 28.192", fillcolor="#e5813906"] ;
29 -> 30 ;
31 [label="year <= 2011.5\nmse = 1797.624\nsamples = 131\nvalue = 124.511", fillcolor="#e5813926"] ;
29 -> 31 ;
32 [label="mse = 633.44\nsamples = 68\nvalue = 99.029", fillcolor="#e581391d"] ;
31 -> 32 ;
33 [label="mse = 1596.841\nsamples = 63\nvalue = 152.016", fillcolor="#e581392f"] ;
31 -> 33 ;
34 [label="temp <= -0.018\nmse = 31048.766\nsamples = 6197\nvalue = 256.773", fillcolor="#e5813950"] ;
0 -> 34 [labeldistance=2.5, labelangle=-45, headlabel="False"] ;
35 [label="year <= 2011.5\nmse = 19269.868\nsamples = 2800\nvalue = 184.169", fillcolor="#e5813939"] ;
34 -> 35 ;
36 [label="season <= 2.5\nmse = 9298.453\nsamples = 1441\nvalue = 130.795", fillcolor="#e5813928"] ;
35 -> 36 ;
37 [label="hour <= 1.151\nmse = 5207.94\nsamples = 938\nvalue = 102.287", fillcolor="#e581391e"] ;
36 -> 37 ;
38 [label="temp <= -0.439\nmse = 5689.552\nsamples = 708\nvalue = 116.607", fillcolor="#e5813923"] ;
37 -> 38 ;
39 [label="hour <= 0.717\nmse = 3781.284\nsamples = 562\nvalue = 102.569", fillcolor="#e581391e"] ;
38 -> 39 ;
40 [label="hour <= -0.295\nmse = 3321.03\nsamples = 441\nvalue = 93.163", fillcolor="#e581391b"] ;
39 -> 40 ;
41 [label="hour <= -0.584\nmse = 6103.612\nsamples = 162\nvalue = 111.259", fillcolor="#e5813921"] ;
40 -> 41 ;
42 [label="workingday <= 0.5\nmse = 3405.659\nsamples = 57\nvalue = 77.246", fillcolor="#e5813916"] ;
41 -> 42 ;
43 [label="mse = 1009.219\nsamples = 19\nvalue = 18.789", fillcolor="#e5813903"] ;
42 -> 43 ;
44 [label="mse = 2041.039\nsamples = 38\nvalue = 106.474", fillcolor="#e5813920"] ;
42 -> 44 ;
45 [label="workingday <= 0.5\nmse = 6599.228\nsamples = 105\nvalue = 129.724", fillcolor="#e5813927"] ;
41 -> 45 ;
46 [label="mse = 906.669\nsamples = 33\nvalue = 44.424", fillcolor="#e581390c"] ;
45 -> 46 ;
47 [label="hour <= -0.44\nmse = 4345.009\nsamples = 72\nvalue = 168.819", fillcolor="#e5813934"] ;
45 -> 47 ;
48 [label="mse = 3343.948\nsamples = 35\nvalue = 214.771", fillcolor="#e5813943"] ;
47 -> 48 ;
49 [label="mse = 1405.039\nsamples = 37\nvalue = 125.351", fillcolor="#e5813926"] ;
47 -> 49 ;
50 [label="workingday <= 0.5\nmse = 1404.792\nsamples = 279\nvalue = 82.656", fillcolor="#e5813918"] ;
40 -> 50 ;
51 [label="temp <= -1.281\nmse = 2146.848\nsamples = 82\nvalue = 113.134", fillcolor="#e5813922"] ;
50 -> 51 ;
52 [label="mse = 271.543\nsamples = 29\nvalue = 76.207", fillcolor="#e5813916"] ;
51 -> 52 ;
53 [label="season <= 1.5\nmse = 2018.564\nsamples = 53\nvalue = 133.34", fillcolor="#e5813928"] ;
51 -> 53 ;
54 [label="humidity <= 59.5\nmse = 1610.884\nsamples = 41\nvalue = 120.512", fillcolor="#e5813924"] ;
53 -> 54 ;
55 [label="mse = 707.477\nsamples = 29\nvalue = 138.379", fillcolor="#e581392a"] ;
54 -> 55 ;
56 [label="mse = 1158.222\nsamples = 12\nvalue = 77.333", fillcolor="#e5813916"] ;
54 -> 56 ;
57 [label="mse = 928.472\nsamples = 12\nvalue = 177.167", fillcolor="#e5813937"] ;
53 -> 57 ;
58 [label="mse = 548.314\nsamples = 197\nvalue = 69.97", fillcolor="#e5813914"] ;
50 -> 58 ;
59 [label="workingday <= 0.5\nmse = 3961.036\nsamples = 121\nvalue = 136.851", fillcolor="#e581392a"] ;
39 -> 59 ;
60 [label="mse = 2608.937\nsamples = 33\nvalue = 82.182", fillcolor="#e5813918"] ;
59 -> 60 ;
61 [label="hour <= 1.006\nmse = 2927.001\nsamples = 88\nvalue = 157.352", fillcolor="#e5813930"] ;
59 -> 61 ;
62 [label="mse = 2414.566\nsamples = 57\nvalue = 181.825", fillcolor="#e5813938"] ;
61 -> 62 ;
63 [label="mse = 743.261\nsamples = 31\nvalue = 112.355", fillcolor="#e5813922"] ;
61 -> 63 ;
64 [label="humidity <= 91.0\nmse = 9356.572\nsamples = 146\nvalue = 170.644", fillcolor="#e5813935"] ;
38 -> 64 ;
65 [label="humidity <= 8.0\nmse = 8714.709\nsamples = 135\nvalue = 180.711", fillcolor="#e5813938"] ;
64 -> 65 ;
66 [label="mse = 1222.98\nsamples = 7\nvalue = 47.143", fillcolor="#e581390c"] ;
65 -> 66 ;
67 [label="windspeed <= 30.502\nmse = 8095.406\nsamples = 128\nvalue = 188.016", fillcolor="#e581393a"] ;
65 -> 67 ;
68 [label="humidity <= 69.5\nmse = 8119.106\nsamples = 114\nvalue = 196.263", fillcolor="#e581393d"] ;
67 -> 68 ;
69 [label="season <= 1.5\nmse = 7012.716\nsamples = 81\nvalue = 210.272", fillcolor="#e5813941"] ;
68 -> 69 ;
70 [label="mse = 4356.127\nsamples = 42\nvalue = 185.667", fillcolor="#e5813939"] ;
69 -> 70 ;
71 [label="windspeed <= 8.0\nmse = 8519.562\nsamples = 39\nvalue = 236.769", fillcolor="#e581394a"] ;
69 -> 71 ;
72 [label="mse = 7010.484\nsamples = 8\nvalue = 167.375", fillcolor="#e5813933"] ;
71 -> 72 ;
73 [label="mse = 7345.573\nsamples = 31\nvalue = 254.677", fillcolor="#e5813950"] ;
71 -> 73 ;
74 [label="temp <= -0.123\nmse = 9170.834\nsamples = 33\nvalue = 161.879", fillcolor="#e5813932"] ;
68 -> 74 ;
75 [label="mse = 5462.552\nsamples = 26\nvalue = 137.577", fillcolor="#e581392a"] ;
74 -> 75 ;
76 [label="mse = 12603.265\nsamples = 7\nvalue = 252.143", fillcolor="#e581394f"] ;
74 -> 76 ;
77 [label="mse = 2838.265\nsamples = 14\nvalue = 120.857", fillcolor="#e5813924"] ;
67 -> 77 ;
78 [label="mse = 724.81\nsamples = 11\nvalue = 47.091", fillcolor="#e581390c"] ;
64 -> 78 ;
79 [label="temp <= -0.86\nmse = 1150.867\nsamples = 230\nvalue = 58.204", fillcolor="#e5813910"] ;
37 -> 79 ;
80 [label="mse = 492.586\nsamples = 144\nvalue = 45.34", fillcolor="#e581390c"] ;
79 -> 80 ;
81 [label="mse = 1512.051\nsamples = 86\nvalue = 79.744", fillcolor="#e5813917"] ;
79 -> 81 ;
82 [label="hour <= 1.295\nmse = 12584.589\nsamples = 503\nvalue = 183.958", fillcolor="#e5813939"] ;
36 -> 82 ;
83 [label="humidity <= 93.5\nmse = 12739.943\nsamples = 403\nvalue = 206.983", fillcolor="#e5813940"] ;
82 -> 83 ;
84 [label="hour <= 0.572\nmse = 11963.347\nsamples = 371\nvalue = 214.022", fillcolor="#e5813943"] ;
83 -> 84 ;
85 [label="humidity <= 36.5\nmse = 11791.333\nsamples = 247\nvalue = 200.401", fillcolor="#e581393e"] ;
84 -> 85 ;
86 [label="mse = 4374.96\nsamples = 10\nvalue = 297.8", fillcolor="#e581395e"] ;
85 -> 86 ;
87 [label="humidity <= 76.5\nmse = 11687.092\nsamples = 237\nvalue = 196.291", fillcolor="#e581393d"] ;
85 -> 87 ;
88 [label="temp <= -0.755\nmse = 9683.736\nsamples = 192\nvalue = 186.562", fillcolor="#e581393a"] ;
87 -> 88 ;
89 [label="windspeed <= 18.0\nmse = 8222.206\nsamples = 95\nvalue = 157.453", fillcolor="#e5813930"] ;
88 -> 89 ;
90 [label="humidity <= 45.5\nmse = 6864.998\nsamples = 57\nvalue = 135.193", fillcolor="#e5813929"] ;
89 -> 90 ;
91 [label="mse = 5808.889\nsamples = 9\nvalue = 189.0", fillcolor="#e581393b"] ;
90 -> 91 ;
92 [label="mse = 6418.385\nsamples = 48\nvalue = 125.104", fillcolor="#e5813926"] ;
90 -> 92 ;
93 [label="hour <= -0.44\nmse = 8399.922\nsamples = 38\nvalue = 190.842", fillcolor="#e581393b"] ;
89 -> 93 ;
94 [label="mse = 23678.776\nsamples = 7\nvalue = 273.286", fillcolor="#e5813956"] ;
93 -> 94 ;
95 [label="mse = 3068.497\nsamples = 31\nvalue = 172.226", fillcolor="#e5813935"] ;
93 -> 95 ;
96 [label="humidity <= 71.5\nmse = 9472.417\nsamples = 97\nvalue = 215.072", fillcolor="#e5813943"] ;
88 -> 96 ;
97 [label="hour <= -0.44\nmse = 8926.669\nsamples = 87\nvalue = 225.299", fillcolor="#e5813946"] ;
96 -> 97 ;
98 [label="mse = 19581.785\nsamples = 11\nvalue = 310.182", fillcolor="#e5813962"] ;
97 -> 98 ;
99 [label="mse = 6190.697\nsamples = 76\nvalue = 213.013", fillcolor="#e5813942"] ;
97 -> 99 ;
100 [label="mse = 5394.49\nsamples = 10\nvalue = 126.1", fillcolor="#e5813926"] ;
96 -> 100 ;
101 [label="hour <= -0.44\nmse = 18107.938\nsamples = 45\nvalue = 237.8", fillcolor="#e581394a"] ;
87 -> 101 ;
102 [label="hour <= -0.584\nmse = 21448.694\nsamples = 27\nvalue = 281.519", fillcolor="#e5813959"] ;
101 -> 102 ;
103 [label="mse = 12214.243\nsamples = 12\nvalue = 216.417", fillcolor="#e5813943"] ;
102 -> 103 ;
104 [label="mse = 22733.173\nsamples = 15\nvalue = 333.6", fillcolor="#e5813969"] ;
102 -> 104 ;
105 [label="mse = 5929.395\nsamples = 18\nvalue = 172.222", fillcolor="#e5813935"] ;
101 -> 105 ;
106 [label="hour <= 1.006\nmse = 11200.307\nsamples = 124\nvalue = 241.153", fillcolor="#e581394b"] ;
84 -> 106 ;
107 [label="workingday <= 0.5\nmse = 11164.947\nsamples = 69\nvalue = 290.667", fillcolor="#e581395b"] ;
106 -> 107 ;
108 [label="hour <= 0.717\nmse = 3275.004\nsamples = 28\nvalue = 227.321", fillcolor="#e5813947"] ;
107 -> 108 ;
109 [label="mse = 2727.719\nsamples = 11\nvalue = 266.909", fillcolor="#e5813954"] ;
108 -> 109 ;
110 [label="mse = 1958.913\nsamples = 17\nvalue = 201.706", fillcolor="#e581393f"] ;
108 -> 110 ;
111 [label="temp <= -0.439\nmse = 11941.434\nsamples = 41\nvalue = 333.927", fillcolor="#e581396a"] ;
107 -> 111 ;
112 [label="mse = 7247.866\nsamples = 25\nvalue = 300.88", fillcolor="#e581395f"] ;
111 -> 112 ;
113 [label="humidity <= 67.0\nmse = 14902.496\nsamples = 16\nvalue = 385.562", fillcolor="#e581397a"] ;
111 -> 113 ;
114 [label="mse = 5409.432\nsamples = 9\nvalue = 447.889", fillcolor="#e581398f"] ;
113 -> 114 ;
115 [label="mse = 15691.959\nsamples = 7\nvalue = 305.429", fillcolor="#e5813960"] ;
113 -> 115 ;
116 [label="workingday <= 0.5\nmse = 4310.544\nsamples = 55\nvalue = 179.036", fillcolor="#e5813937"] ;
106 -> 116 ;
117 [label="mse = 814.81\nsamples = 17\nvalue = 130.118", fillcolor="#e5813927"] ;
116 -> 117 ;
118 [label="windspeed <= 17.001\nmse = 4324.915\nsamples = 38\nvalue = 200.921", fillcolor="#e581393e"] ;
116 -> 118 ;
119 [label="hour <= 1.151\nmse = 2341.095\nsamples = 31\nvalue = 220.742", fillcolor="#e5813945"] ;
118 -> 119 ;
120 [label="mse = 1594.249\nsamples = 15\nvalue = 256.533", fillcolor="#e5813950"] ;
119 -> 120 ;
121 [label="mse = 714.402\nsamples = 16\nvalue = 187.188", fillcolor="#e581393a"] ;
119 -> 121 ;
122 [label="mse = 3665.551\nsamples = 7\nvalue = 113.143", fillcolor="#e5813922"] ;
118 -> 122 ;
123 [label="hour <= -0.44\nmse = 14509.359\nsamples = 32\nvalue = 125.375", fillcolor="#e5813926"] ;
83 -> 123 ;
124 [label="mse = 24572.688\nsamples = 8\nvalue = 229.25", fillcolor="#e5813948"] ;
123 -> 124 ;
125 [label="hour <= 0.572\nmse = 6359.354\nsamples = 24\nvalue = 90.75", fillcolor="#e581391b"] ;
123 -> 125 ;
126 [label="mse = 2399.121\nsamples = 17\nvalue = 66.765", fillcolor="#e5813913"] ;
125 -> 126 ;
127 [label="mse = 11186.857\nsamples = 7\nvalue = 149.0", fillcolor="#e581392e"] ;
125 -> 127 ;
128 [label="mse = 1212.461\nsamples = 100\nvalue = 91.17", fillcolor="#e581391b"] ;
82 -> 128 ;
129 [label="hour <= 1.151\nmse = 23619.411\nsamples = 1359\nvalue = 240.763", fillcolor="#e581394b"] ;
35 -> 129 ;
130 [label="season <= 1.5\nmse = 24969.28\nsamples = 1026\nvalue = 275.051", fillcolor="#e5813956"] ;
129 -> 130 ;
131 [label="temp <= -0.86\nmse = 16576.82\nsamples = 515\nvalue = 214.534", fillcolor="#e5813943"] ;
130 -> 131 ;
132 [label="workingday <= 0.5\nmse = 12385.104\nsamples = 304\nvalue = 178.967", fillcolor="#e5813937"] ;
131 -> 132 ;
133 [label="temp <= -1.176\nmse = 6489.318\nsamples = 127\nvalue = 146.142", fillcolor="#e581392d"] ;
132 -> 133 ;
134 [label="hour <= -0.295\nmse = 4338.383\nsamples = 90\nvalue = 125.289", fillcolor="#e5813926"] ;
133 -> 134 ;
135 [label="hour <= -0.584\nmse = 1749.139\nsamples = 34\nvalue = 63.088", fillcolor="#e5813912"] ;
134 -> 135 ;
136 [label="mse = 95.775\nsamples = 13\nvalue = 22.615", fillcolor="#e5813905"] ;
135 -> 136 ;
137 [label="mse = 1130.884\nsamples = 21\nvalue = 88.143", fillcolor="#e581391a"] ;
135 -> 137 ;
138 [label="hour <= 0.717\nmse = 2135.265\nsamples = 56\nvalue = 163.054", fillcolor="#e5813932"] ;
134 -> 138 ;
139 [label="mse = 1578.242\nsamples = 39\nvalue = 180.256", fillcolor="#e5813938"] ;
138 -> 139 ;
140 [label="mse = 1176.713\nsamples = 17\nvalue = 123.588", fillcolor="#e5813925"] ;
138 -> 140 ;
141 [label="hour <= -0.151\nmse = 8090.766\nsamples = 37\nvalue = 196.865", fillcolor="#e581393d"] ;
133 -> 141 ;
142 [label="mse = 5374.543\nsamples = 9\nvalue = 107.889", fillcolor="#e5813920"] ;
141 -> 142 ;
143 [label="hour <= 0.862\nmse = 5601.249\nsamples = 28\nvalue = 225.464", fillcolor="#e5813946"] ;
141 -> 143 ;
144 [label="mse = 3539.442\nsamples = 21\nvalue = 254.714", fillcolor="#e5813950"] ;
143 -> 144 ;
145 [label="mse = 1519.918\nsamples = 7\nvalue = 137.714", fillcolor="#e581392a"] ;
143 -> 145 ;
146 [label="hour <= -0.44\nmse = 15287.56\nsamples = 177\nvalue = 202.52", fillcolor="#e581393f"] ;
132 -> 146 ;
147 [label="hour <= -0.584\nmse = 17303.931\nsamples = 44\nvalue = 335.023", fillcolor="#e581396a"] ;
146 -> 147 ;
148 [label="mse = 2652.748\nsamples = 24\nvalue = 239.458", fillcolor="#e581394b"] ;
147 -> 148 ;
149 [label="mse = 10775.41\nsamples = 20\nvalue = 449.7", fillcolor="#e581398f"] ;
147 -> 149 ;
150 [label="hour <= 0.717\nmse = 6890.592\nsamples = 133\nvalue = 158.684", fillcolor="#e5813931"] ;
146 -> 150 ;
151 [label="hour <= -0.295\nmse = 3874.316\nsamples = 109\nvalue = 135.587", fillcolor="#e5813929"] ;
150 -> 151 ;
152 [label="mse = 3044.66\nsamples = 20\nvalue = 230.2", fillcolor="#e5813948"] ;
151 -> 152 ;
153 [label="humidity <= 72.5\nmse = 1597.119\nsamples = 89\nvalue = 114.326", fillcolor="#e5813922"] ;
151 -> 153 ;
154 [label="temp <= -1.597\nmse = 1352.931\nsamples = 76\nvalue = 122.263", fillcolor="#e5813925"] ;
153 -> 154 ;
155 [label="mse = 545.684\nsamples = 16\nvalue = 84.938", fillcolor="#e5813919"] ;
154 -> 155 ;
156 [label="mse = 1097.603\nsamples = 60\nvalue = 132.217", fillcolor="#e5813928"] ;
154 -> 156 ;
157 [label="mse = 503.148\nsamples = 13\nvalue = 67.923", fillcolor="#e5813913"] ;
153 -> 157 ;
158 [label="temp <= -1.386\nmse = 7162.826\nsamples = 24\nvalue = 263.583", fillcolor="#e5813953"] ;
150 -> 158 ;
159 [label="mse = 1987.728\nsamples = 9\nvalue = 205.778", fillcolor="#e5813940"] ;
158 -> 159 ;
160 [label="humidity <= 46.5\nmse = 7060.062\nsamples = 15\nvalue = 298.267", fillcolor="#e581395e"] ;
158 -> 160 ;
161 [label="mse = 1040.688\nsamples = 8\nvalue = 345.25", fillcolor="#e581396d"] ;
160 -> 161 ;
162 [label="mse = 8533.388\nsamples = 7\nvalue = 244.571", fillcolor="#e581394d"] ;
160 -> 162 ;
163 [label="temp <= -0.334\nmse = 18167.633\nsamples = 211\nvalue = 265.777", fillcolor="#e5813953"] ;
131 -> 163 ;
164 [label="humidity <= 43.5\nmse = 15708.17\nsamples = 153\nvalue = 246.0", fillcolor="#e581394d"] ;
163 -> 164 ;
165 [label="workingday <= 0.5\nmse = 12450.848\nsamples = 84\nvalue = 290.762", fillcolor="#e581395c"] ;
164 -> 165 ;
166 [label="mse = 4945.515\nsamples = 21\nvalue = 343.905", fillcolor="#e581396d"] ;
165 -> 166 ;
167 [label="hour <= 0.717\nmse = 13697.442\nsamples = 63\nvalue = 273.048", fillcolor="#e5813956"] ;
165 -> 167 ;
168 [label="hour <= 0.572\nmse = 5518.062\nsamples = 38\nvalue = 199.868", fillcolor="#e581393e"] ;
167 -> 168 ;
169 [label="windspeed <= 23.001\nmse = 5822.066\nsamples = 28\nvalue = 182.071", fillcolor="#e5813938"] ;
168 -> 169 ;
170 [label="mse = 1688.798\nsamples = 19\nvalue = 155.789", fillcolor="#e5813930"] ;
169 -> 170 ;
171 [label="mse = 10011.136\nsamples = 9\nvalue = 237.556", fillcolor="#e581394a"] ;
169 -> 171 ;
172 [label="mse = 1296.81\nsamples = 10\nvalue = 249.7", fillcolor="#e581394e"] ;
168 -> 172 ;
173 [label="hour <= 1.006\nmse = 5617.562\nsamples = 25\nvalue = 384.28", fillcolor="#e581397a"] ;
167 -> 173 ;
174 [label="mse = 1676.125\nsamples = 17\nvalue = 428.588", fillcolor="#e5813988"] ;
173 -> 174 ;
175 [label="mse = 956.109\nsamples = 8\nvalue = 290.125", fillcolor="#e581395b"] ;
173 -> 175 ;
176 [label="hour <= -0.44\nmse = 14264.946\nsamples = 69\nvalue = 191.507", fillcolor="#e581393b"] ;
164 -> 176 ;
177 [label="mse = 48852.16\nsamples = 10\nvalue = 273.8", fillcolor="#e5813956"] ;
176 -> 177 ;
178 [label="hour <= 0.717\nmse = 7060.348\nsamples = 59\nvalue = 177.559", fillcolor="#e5813937"] ;
176 -> 178 ;
179 [label="workingday <= 0.5\nmse = 4841.22\nsamples = 47\nvalue = 163.404", fillcolor="#e5813932"] ;
178 -> 179 ;
180 [label="mse = 5725.021\nsamples = 12\nvalue = 215.75", fillcolor="#e5813943"] ;
179 -> 180 ;
181 [label="mse = 3276.648\nsamples = 35\nvalue = 145.457", fillcolor="#e581392c"] ;
179 -> 181 ;
182 [label="mse = 11893.5\nsamples = 12\nvalue = 233.0", fillcolor="#e5813949"] ;
178 -> 182 ;
183 [label="hour <= -0.223\nmse = 20901.911\nsamples = 58\nvalue = 317.948", fillcolor="#e5813964"] ;
163 -> 183 ;
184 [label="mse = 22936.65\nsamples = 10\nvalue = 432.5", fillcolor="#e581398a"] ;
183 -> 184 ;
185 [label="humidity <= 35.5\nmse = 17174.701\nsamples = 48\nvalue = 294.083", fillcolor="#e581395d"] ;
183 -> 185 ;
186 [label="mse = 10920.889\nsamples = 9\nvalue = 414.333", fillcolor="#e5813984"] ;
185 -> 186 ;
187 [label="workingday <= 0.5\nmse = 14510.889\nsamples = 39\nvalue = 266.333", fillcolor="#e5813954"] ;
185 -> 187 ;
188 [label="mse = 15439.408\nsamples = 13\nvalue = 339.769", fillcolor="#e581396b"] ;
187 -> 188 ;
189 [label="hour <= 0.572\nmse = 10002.006\nsamples = 26\nvalue = 229.615", fillcolor="#e5813948"] ;
187 -> 189 ;
190 [label="mse = 1536.934\nsamples = 16\nvalue = 175.938", fillcolor="#e5813936"] ;
189 -> 190 ;
191 [label="mse = 11559.85\nsamples = 10\nvalue = 315.5", fillcolor="#e5813964"] ;
189 -> 191 ;
192 [label="hour <= 0.572\nmse = 26016.666\nsamples = 511\nvalue = 336.041", fillcolor="#e581396a"] ;
130 -> 192 ;
193 [label="temp <= -0.439\nmse = 25509.724\nsamples = 380\nvalue = 307.603", fillcolor="#e5813961"] ;
192 -> 193 ;
194 [label="humidity <= 35.0\nmse = 23054.771\nsamples = 257\nvalue = 291.498", fillcolor="#e581395c"] ;
193 -> 194 ;
195 [label="mse = 7701.91\nsamples = 12\nvalue = 184.083", fillcolor="#e5813939"] ;
194 -> 195 ;
196 [label="hour <= -0.44\nmse = 23213.946\nsamples = 245\nvalue = 296.759", fillcolor="#e581395d"] ;
194 -> 196 ;
197 [label="workingday <= 0.5\nmse = 48542.783\nsamples = 76\nvalue = 339.921", fillcolor="#e581396b"] ;
196 -> 197 ;
198 [label="hour <= -0.584\nmse = 2032.996\nsamples = 26\nvalue = 95.346", fillcolor="#e581391c"] ;
197 -> 198 ;
199 [label="mse = 391.722\nsamples = 12\nvalue = 55.333", fillcolor="#e581390f"] ;
198 -> 199 ;
200 [label="mse = 891.23\nsamples = 14\nvalue = 129.643", fillcolor="#e5813927"] ;
198 -> 200 ;
201 [label="hour <= -0.584\nmse = 25448.61\nsamples = 50\nvalue = 467.1", fillcolor="#e5813995"] ;
197 -> 201 ;
202 [label="mse = 5472.951\nsamples = 31\nvalue = 354.871", fillcolor="#e5813970"] ;
201 -> 202 ;
203 [label="mse = 3960.693\nsamples = 19\nvalue = 650.211", fillcolor="#e58139d0"] ;
201 -> 203 ;
204 [label="workingday <= 0.5\nmse = 10608.937\nsamples = 169\nvalue = 277.349", fillcolor="#e5813957"] ;
196 -> 204 ;
205 [label="hour <= -0.151\nmse = 11972.373\nsamples = 64\nvalue = 352.453", fillcolor="#e5813970"] ;
204 -> 205 ;
206 [label="humidity <= 84.0\nmse = 5376.2\nsamples = 27\nvalue = 263.852", fillcolor="#e5813953"] ;
205 -> 206 ;
207 [label="mse = 3199.285\nsamples = 19\nvalue = 292.368", fillcolor="#e581395c"] ;
206 -> 207 ;
208 [label="mse = 4028.109\nsamples = 8\nvalue = 196.125", fillcolor="#e581393d"] ;
206 -> 208 ;
209 [label="humidity <= 59.5\nmse = 6877.015\nsamples = 37\nvalue = 417.108", fillcolor="#e5813985"] ;
205 -> 209 ;
210 [label="mse = 675.562\nsamples = 13\nvalue = 461.769", fillcolor="#e5813993"] ;
209 -> 210 ;
211 [label="mse = 8570.493\nsamples = 24\nvalue = 392.917", fillcolor="#e581397d"] ;
209 -> 211 ;
212 [label="hour <= -0.295\nmse = 4244.207\nsamples = 105\nvalue = 231.571", fillcolor="#e5813948"] ;
204 -> 212 ;
213 [label="mse = 2902.386\nsamples = 23\nvalue = 313.696", fillcolor="#e5813963"] ;
212 -> 213 ;
214 [label="hour <= -0.006\nmse = 2198.249\nsamples = 82\nvalue = 208.537", fillcolor="#e5813941"] ;
212 -> 214 ;
215 [label="mse = 1055.585\nsamples = 34\nvalue = 173.941", fillcolor="#e5813936"] ;
214 -> 215 ;
216 [label="mse = 1559.373\nsamples = 48\nvalue = 233.042", fillcolor="#e5813949"] ;
214 -> 216 ;
217 [label="hour <= -0.44\nmse = 28964.985\nsamples = 123\nvalue = 341.252", fillcolor="#e581396c"] ;
193 -> 217 ;
218 [label="windspeed <= 16.0\nmse = 50951.462\nsamples = 30\nvalue = 482.733", fillcolor="#e581399a"] ;
217 -> 218 ;
219 [label="hour <= -0.584\nmse = 58974.331\nsamples = 21\nvalue = 450.381", fillcolor="#e581398f"] ;
218 -> 219 ;
220 [label="mse = 37446.139\nsamples = 12\nvalue = 321.833", fillcolor="#e5813966"] ;
219 -> 220 ;
221 [label="mse = 36269.062\nsamples = 9\nvalue = 621.778", fillcolor="#e58139c7"] ;
219 -> 221 ;
222 [label="mse = 24090.617\nsamples = 9\nvalue = 558.222", fillcolor="#e58139b2"] ;
218 -> 222 ;
223 [label="humidity <= 71.5\nmse = 13332.56\nsamples = 93\nvalue = 295.613", fillcolor="#e581395d"] ;
217 -> 223 ;
224 [label="workingday <= 0.5\nmse = 13349.993\nsamples = 78\nvalue = 307.859", fillcolor="#e5813961"] ;
223 -> 224 ;
225 [label="humidity <= 62.5\nmse = 13598.56\nsamples = 23\nvalue = 427.304", fillcolor="#e5813988"] ;
224 -> 225 ;
226 [label="mse = 12755.484\nsamples = 16\nvalue = 462.375", fillcolor="#e5813993"] ;
225 -> 226 ;
227 [label="mse = 6288.408\nsamples = 7\nvalue = 347.143", fillcolor="#e581396e"] ;
225 -> 227 ;
228 [label="mse = 4784.774\nsamples = 55\nvalue = 257.909", fillcolor="#e5813951"] ;
224 -> 228 ;
229 [label="mse = 8406.996\nsamples = 15\nvalue = 231.933", fillcolor="#e5813948"] ;
223 -> 229 ;
230 [label="workingday <= 0.5\nmse = 18336.066\nsamples = 131\nvalue = 418.534", fillcolor="#e5813985"] ;
192 -> 230 ;
231 [label="humidity <= 71.5\nmse = 10858.721\nsamples = 44\nvalue = 315.773", fillcolor="#e5813964"] ;
230 -> 231 ;
232 [label="temp <= -0.65\nmse = 7601.015\nsamples = 27\nvalue = 355.148", fillcolor="#e5813970"] ;
231 -> 232 ;
233 [label="mse = 3087.859\nsamples = 8\nvalue = 278.875", fillcolor="#e5813958"] ;
232 -> 233 ;
234 [label="mse = 6020.404\nsamples = 19\nvalue = 387.263", fillcolor="#e581397b"] ;
232 -> 234 ;
235 [label="hour <= 0.862\nmse = 9659.356\nsamples = 17\nvalue = 253.235", fillcolor="#e581394f"] ;
231 -> 235 ;
236 [label="mse = 6554.98\nsamples = 7\nvalue = 329.143", fillcolor="#e5813968"] ;
235 -> 236 ;
237 [label="mse = 4975.69\nsamples = 10\nvalue = 200.1", fillcolor="#e581393e"] ;
235 -> 237 ;
238 [label="hour <= 0.717\nmse = 14076.02\nsamples = 87\nvalue = 470.506", fillcolor="#e5813996"] ;
230 -> 238 ;
239 [label="mse = 3310.019\nsamples = 23\nvalue = 355.739", fillcolor="#e5813971"] ;
238 -> 239 ;
240 [label="hour <= 1.006\nmse = 11510.5\nsamples = 64\nvalue = 511.75", fillcolor="#e58139a3"] ;
238 -> 240 ;
241 [label="temp <= -0.439\nmse = 4921.098\nsamples = 41\nvalue = 568.78", fillcolor="#e58139b6"] ;
240 -> 241 ;
242 [label="mse = 2562.658\nsamples = 31\nvalue = 552.71", fillcolor="#e58139b1"] ;
241 -> 242 ;
243 [label="mse = 8949.64\nsamples = 10\nvalue = 618.6", fillcolor="#e58139c6"] ;
241 -> 243 ;
244 [label="temp <= -0.439\nmse = 7123.558\nsamples = 23\nvalue = 410.087", fillcolor="#e5813982"] ;
240 -> 244 ;
245 [label="mse = 1113.129\nsamples = 15\nvalue = 379.733", fillcolor="#e5813978"] ;
244 -> 245 ;
246 [label="mse = 13426.5\nsamples = 8\nvalue = 467.0", fillcolor="#e5813995"] ;
244 -> 246 ;
247 [label="hour <= 1.44\nmse = 4677.679\nsamples = 333\nvalue = 135.12", fillcolor="#e5813929"] ;
129 -> 247 ;
248 [label="season <= 1.5\nmse = 4811.73\nsamples = 161\nvalue = 171.944", fillcolor="#e5813935"] ;
247 -> 248 ;
249 [label="workingday <= 0.5\nmse = 2677.41\nsamples = 78\nvalue = 130.641", fillcolor="#e5813928"] ;
248 -> 249 ;
250 [label="mse = 939.059\nsamples = 26\nvalue = 89.308", fillcolor="#e581391a"] ;
249 -> 250 ;
251 [label="temp <= -0.439\nmse = 2265.251\nsamples = 52\nvalue = 151.308", fillcolor="#e581392e"] ;
249 -> 251 ;
252 [label="mse = 1859.776\nsamples = 45\nvalue = 142.156", fillcolor="#e581392b"] ;
251 -> 252 ;
253 [label="mse = 871.837\nsamples = 7\nvalue = 210.143", fillcolor="#e5813941"] ;
251 -> 253 ;
254 [label="workingday <= 0.5\nmse = 3707.701\nsamples = 83\nvalue = 210.759", fillcolor="#e5813942"] ;
248 -> 254 ;
255 [label="mse = 2212.582\nsamples = 24\nvalue = 162.458", fillcolor="#e5813932"] ;
254 -> 255 ;
256 [label="mse = 2980.851\nsamples = 59\nvalue = 230.407", fillcolor="#e5813948"] ;
254 -> 256 ;
257 [label="season <= 1.5\nmse = 2094.809\nsamples = 172\nvalue = 100.651", fillcolor="#e581391e"] ;
247 -> 257 ;
258 [label="mse = 1068.575\nsamples = 78\nvalue = 73.744", fillcolor="#e5813915"] ;
257 -> 258 ;
259 [label="hour <= 1.585\nmse = 1847.063\nsamples = 94\nvalue = 122.979", fillcolor="#e5813925"] ;
257 -> 259 ;
260 [label="mse = 1354.154\nsamples = 44\nvalue = 144.568", fillcolor="#e581392c"] ;
259 -> 260 ;
261 [label="mse = 1509.7\nsamples = 50\nvalue = 103.98", fillcolor="#e581391f"] ;
259 -> 261 ;
262 [label="year <= 2011.5\nmse = 32831.208\nsamples = 3397\nvalue = 316.618", fillcolor="#e5813964"] ;
34 -> 262 ;
263 [label="humidity <= 72.5\nmse = 17054.092\nsamples = 1619\nvalue = 247.805", fillcolor="#e581394e"] ;
262 -> 263 ;
264 [label="hour <= 0.572\nmse = 17025.201\nsamples = 1171\nvalue = 269.395", fillcolor="#e5813955"] ;
263 -> 264 ;
265 [label="workingday <= 0.5\nmse = 11117.832\nsamples = 640\nvalue = 231.239", fillcolor="#e5813948"] ;
264 -> 265 ;
266 [label="hour <= -0.295\nmse = 8126.909\nsamples = 185\nvalue = 331.708", fillcolor="#e5813969"] ;
265 -> 266 ;
267 [label="windspeed <= 14.0\nmse = 3456.809\nsamples = 23\nvalue = 163.13", fillcolor="#e5813932"] ;
266 -> 267 ;
268 [label="mse = 3208.592\nsamples = 13\nvalue = 130.154", fillcolor="#e5813927"] ;
267 -> 268 ;
269 [label="mse = 528.0\nsamples = 10\nvalue = 206.0", fillcolor="#e5813940"] ;
267 -> 269 ;
270 [label="hour <= -0.151\nmse = 4182.403\nsamples = 162\nvalue = 355.642", fillcolor="#e5813971"] ;
266 -> 270 ;
271 [label="mse = 1287.175\nsamples = 21\nvalue = 282.667", fillcolor="#e5813959"] ;
270 -> 271 ;
272 [label="temp <= 0.298\nmse = 3702.335\nsamples = 141\nvalue = 366.511", fillcolor="#e5813974"] ;
270 -> 272 ;
273 [label="season <= 2.5\nmse = 5989.284\nsamples = 27\nvalue = 307.778", fillcolor="#e5813961"] ;
272 -> 273 ;
274 [label="windspeed <= 22.502\nmse = 6467.495\nsamples = 14\nvalue = 263.929", fillcolor="#e5813953"] ;
273 -> 274 ;
275 [label="mse = 3885.673\nsamples = 7\nvalue = 216.429", fillcolor="#e5813943"] ;
274 -> 275 ;
276 [label="mse = 4536.816\nsamples = 7\nvalue = 311.429", fillcolor="#e5813962"] ;
274 -> 276 ;
277 [label="mse = 1173.692\nsamples = 13\nvalue = 355.0", fillcolor="#e5813970"] ;
273 -> 277 ;
278 [label="mse = 2150.191\nsamples = 114\nvalue = 380.421", fillcolor="#e5813979"] ;
272 -> 278 ;
279 [label="temp <= 1.666\nmse = 6561.029\nsamples = 455\nvalue = 190.389", fillcolor="#e581393b"] ;
265 -> 279 ;
280 [label="hour <= -0.44\nmse = 7307.782\nsamples = 382\nvalue = 197.942", fillcolor="#e581393d"] ;
279 -> 280 ;
281 [label="hour <= -0.584\nmse = 8404.445\nsamples = 47\nvalue = 378.255", fillcolor="#e5813978"] ;
280 -> 281 ;
282 [label="mse = 2285.197\nsamples = 19\nvalue = 293.474", fillcolor="#e581395c"] ;
281 -> 282 ;
283 [label="mse = 4369.526\nsamples = 28\nvalue = 435.786", fillcolor="#e581398b"] ;
281 -> 283 ;
284 [label="temp <= 0.403\nmse = 1952.462\nsamples = 335\nvalue = 172.645", fillcolor="#e5813935"] ;
280 -> 284 ;
285 [label="mse = 1591.396\nsamples = 96\nvalue = 150.177", fillcolor="#e581392e"] ;
284 -> 285 ;
286 [label="hour <= -0.006\nmse = 1813.284\nsamples = 239\nvalue = 181.669", fillcolor="#e5813938"] ;
284 -> 286 ;
287 [label="hour <= -0.295\nmse = 1505.539\nsamples = 89\nvalue = 162.618", fillcolor="#e5813932"] ;
286 -> 287 ;
288 [label="mse = 352.32\nsamples = 28\nvalue = 207.036", fillcolor="#e5813940"] ;
287 -> 288 ;
289 [label="mse = 713.587\nsamples = 61\nvalue = 142.23", fillcolor="#e581392b"] ;
287 -> 289 ;
290 [label="mse = 1652.746\nsamples = 150\nvalue = 192.973", fillcolor="#e581393c"] ;
286 -> 290 ;
291 [label="mse = 792.502\nsamples = 73\nvalue = 150.863", fillcolor="#e581392e"] ;
279 -> 291 ;
292 [label="hour <= 1.151\nmse = 20275.461\nsamples = 531\nvalue = 315.384", fillcolor="#e5813964"] ;
264 -> 292 ;
293 [label="hour <= 0.717\nmse = 13238.282\nsamples = 334\nvalue = 391.401", fillcolor="#e581397c"] ;
292 -> 293 ;
294 [label="workingday <= 0.5\nmse = 5542.045\nsamples = 92\nvalue = 311.598", fillcolor="#e5813962"] ;
293 -> 294 ;
295 [label="mse = 3506.735\nsamples = 26\nvalue = 387.731", fillcolor="#e581397b"] ;
294 -> 295 ;
296 [label="season <= 2.5\nmse = 3160.966\nsamples = 66\nvalue = 281.606", fillcolor="#e5813959"] ;
294 -> 296 ;
297 [label="mse = 3727.407\nsamples = 27\nvalue = 255.667", fillcolor="#e5813950"] ;
296 -> 297 ;
298 [label="mse = 1980.502\nsamples = 39\nvalue = 299.564", fillcolor="#e581395e"] ;
296 -> 298 ;
299 [label="workingday <= 0.5\nmse = 12822.589\nsamples = 242\nvalue = 421.74", fillcolor="#e5813986"] ;
293 -> 299 ;
300 [label="temp <= 0.403\nmse = 5044.966\nsamples = 66\nvalue = 332.136", fillcolor="#e5813969"] ;
299 -> 300 ;
301 [label="mse = 3127.682\nsamples = 18\nvalue = 263.389", fillcolor="#e5813953"] ;
300 -> 301 ;
302 [label="hour <= 0.862\nmse = 3326.993\nsamples = 48\nvalue = 357.917", fillcolor="#e5813971"] ;
300 -> 302 ;
303 [label="mse = 1920.96\nsamples = 20\nvalue = 389.2", fillcolor="#e581397b"] ;
302 -> 303 ;
304 [label="mse = 3132.959\nsamples = 28\nvalue = 335.571", fillcolor="#e581396a"] ;
302 -> 304 ;
305 [label="hour <= 1.006\nmse = 11599.372\nsamples = 176\nvalue = 455.341", fillcolor="#e5813991"] ;
299 -> 305 ;
306 [label="season <= 1.5\nmse = 8797.604\nsamples = 121\nvalue = 500.24", fillcolor="#e581399f"] ;
305 -> 306 ;
307 [label="mse = 2081.714\nsamples = 7\nvalue = 289.0", fillcolor="#e581395b"] ;
306 -> 307 ;
308 [label="temp <= 0.192\nmse = 6301.78\nsamples = 114\nvalue = 513.211", fillcolor="#e58139a4"] ;
306 -> 308 ;
309 [label="mse = 6737.339\nsamples = 11\nvalue = 426.545", fillcolor="#e5813988"] ;
308 -> 309 ;
310 [label="season <= 2.5\nmse = 5367.472\nsamples = 103\nvalue = 522.466", fillcolor="#e58139a7"] ;
308 -> 310 ;
311 [label="mse = 7787.454\nsamples = 46\nvalue = 498.261", fillcolor="#e581399f"] ;
310 -> 311 ;
312 [label="mse = 2560.105\nsamples = 57\nvalue = 542.0", fillcolor="#e58139ad"] ;
310 -> 312 ;
313 [label="temp <= 0.929\nmse = 3571.337\nsamples = 55\nvalue = 356.564", fillcolor="#e5813971"] ;
305 -> 313 ;
314 [label="mse = 4453.357\nsamples = 23\nvalue = 325.652", fillcolor="#e5813967"] ;
313 -> 314 ;
315 [label="mse = 1756.983\nsamples = 32\nvalue = 378.781", fillcolor="#e5813978"] ;
313 -> 315 ;
316 [label="hour <= 1.44\nmse = 5798.839\nsamples = 197\nvalue = 186.503", fillcolor="#e581393a"] ;
292 -> 316 ;
317 [label="temp <= 0.719\nmse = 4228.632\nsamples = 110\nvalue = 230.491", fillcolor="#e5813948"] ;
316 -> 317 ;
318 [label="mse = 2742.324\nsamples = 40\nvalue = 188.775", fillcolor="#e581393a"] ;
317 -> 318 ;
319 [label="hour <= 1.295\nmse = 3515.306\nsamples = 70\nvalue = 254.329", fillcolor="#e5813950"] ;
317 -> 319 ;
320 [label="mse = 2076.229\nsamples = 39\nvalue = 282.231", fillcolor="#e5813959"] ;
319 -> 320 ;
321 [label="mse = 3114.11\nsamples = 31\nvalue = 219.226", fillcolor="#e5813944"] ;
319 -> 321 ;
322 [label="hour <= 1.585\nmse = 2244.332\nsamples = 87\nvalue = 130.885", fillcolor="#e5813928"] ;
316 -> 322 ;
323 [label="mse = 2097.384\nsamples = 50\nvalue = 150.66", fillcolor="#e581392e"] ;
322 -> 323 ;
324 [label="mse = 1200.352\nsamples = 37\nvalue = 104.162", fillcolor="#e581391f"] ;
322 -> 324 ;
325 [label="hour <= 1.295\nmse = 12726.331\nsamples = 448\nvalue = 191.371", fillcolor="#e581393b"] ;
263 -> 325 ;
326 [label="humidity <= 91.5\nmse = 14186.656\nsamples = 325\nvalue = 216.511", fillcolor="#e5813943"] ;
325 -> 326 ;
327 [label="hour <= 0.717\nmse = 14152.766\nsamples = 271\nvalue = 231.694", fillcolor="#e5813948"] ;
326 -> 327 ;
328 [label="hour <= -0.44\nmse = 13793.718\nsamples = 184\nvalue = 212.647", fillcolor="#e5813942"] ;
327 -> 328 ;
329 [label="workingday <= 0.5\nmse = 20673.27\nsamples = 74\nvalue = 252.027", fillcolor="#e581394f"] ;
328 -> 329 ;
330 [label="hour <= -0.584\nmse = 2484.068\nsamples = 22\nvalue = 74.5", fillcolor="#e5813915"] ;
329 -> 330 ;
331 [label="mse = 192.168\nsamples = 14\nvalue = 46.214", fillcolor="#e581390c"] ;
330 -> 331 ;
332 [label="mse = 2644.5\nsamples = 8\nvalue = 124.0", fillcolor="#e5813925"] ;
330 -> 332 ;
333 [label="hour <= -0.584\nmse = 9393.924\nsamples = 52\nvalue = 327.135", fillcolor="#e5813967"] ;
329 -> 333 ;
334 [label="temp <= 0.403\nmse = 6316.547\nsamples = 29\nvalue = 266.931", fillcolor="#e5813954"] ;
333 -> 334 ;
335 [label="mse = 6708.264\nsamples = 11\nvalue = 217.091", fillcolor="#e5813944"] ;
334 -> 335 ;
336 [label="mse = 3631.46\nsamples = 18\nvalue = 297.389", fillcolor="#e581395e"] ;
334 -> 336 ;
337 [label="mse = 2941.955\nsamples = 23\nvalue = 403.043", fillcolor="#e5813980"] ;
333 -> 337 ;
338 [label="humidity <= 81.0\nmse = 7420.549\nsamples = 110\nvalue = 186.155", fillcolor="#e581393a"] ;
328 -> 338 ;
339 [label="workingday <= 0.5\nmse = 6527.441\nsamples = 66\nvalue = 211.727", fillcolor="#e5813942"] ;
338 -> 339 ;
340 [label="hour <= -0.295\nmse = 6373.524\nsamples = 29\nvalue = 263.69", fillcolor="#e5813953"] ;
339 -> 340 ;
341 [label="mse = 553.89\nsamples = 10\nvalue = 194.9", fillcolor="#e581393c"] ;
340 -> 341 ;
342 [label="temp <= 0.877\nmse = 5635.147\nsamples = 19\nvalue = 299.895", fillcolor="#e581395e"] ;
340 -> 342 ;
343 [label="mse = 4277.673\nsamples = 7\nvalue = 354.429", fillcolor="#e5813970"] ;
342 -> 343 ;
344 [label="mse = 3680.243\nsamples = 12\nvalue = 268.083", fillcolor="#e5813954"] ;
342 -> 344 ;
345 [label="mse = 2873.081\nsamples = 37\nvalue = 171.0", fillcolor="#e5813935"] ;
339 -> 345 ;
346 [label="temp <= 0.719\nmse = 6307.845\nsamples = 44\nvalue = 147.795", fillcolor="#e581392d"] ;
338 -> 346 ;
347 [label="hour <= -0.295\nmse = 4182.898\nsamples = 37\nvalue = 136.486", fillcolor="#e5813929"] ;
346 -> 347 ;
348 [label="mse = 915.984\nsamples = 8\nvalue = 197.375", fillcolor="#e581393d"] ;
347 -> 348 ;
349 [label="season <= 2.5\nmse = 3779.249\nsamples = 29\nvalue = 119.69", fillcolor="#e5813924"] ;
347 -> 349 ;
350 [label="mse = 4053.25\nsamples = 18\nvalue = 144.167", fillcolor="#e581392c"] ;
349 -> 350 ;
351 [label="mse = 746.231\nsamples = 11\nvalue = 79.636", fillcolor="#e5813917"] ;
349 -> 351 ;
352 [label="mse = 13290.531\nsamples = 7\nvalue = 207.571", fillcolor="#e5813941"] ;
346 -> 352 ;
353 [label="hour <= 1.006\nmse = 12522.114\nsamples = 87\nvalue = 271.977", fillcolor="#e5813955"] ;
327 -> 353 ;
354 [label="workingday <= 0.5\nmse = 20070.162\nsamples = 33\nvalue = 332.667", fillcolor="#e5813969"] ;
353 -> 354 ;
355 [label="mse = 5667.347\nsamples = 14\nvalue = 216.714", fillcolor="#e5813944"] ;
354 -> 355 ;
356 [label="humidity <= 81.0\nmse = 13476.199\nsamples = 19\nvalue = 418.105", fillcolor="#e5813985"] ;
354 -> 356 ;
357 [label="mse = 2574.5\nsamples = 8\nvalue = 505.5", fillcolor="#e58139a1"] ;
356 -> 357 ;
358 [label="mse = 11810.066\nsamples = 11\nvalue = 354.545", fillcolor="#e5813970"] ;
356 -> 358 ;
359 [label="mse = 4283.025\nsamples = 54\nvalue = 234.889", fillcolor="#e5813949"] ;
353 -> 359 ;
360 [label="hour <= -0.44\nmse = 7394.031\nsamples = 54\nvalue = 140.315", fillcolor="#e581392b"] ;
326 -> 360 ;
361 [label="mse = 10741.56\nsamples = 10\nvalue = 196.8", fillcolor="#e581393d"] ;
360 -> 361 ;
362 [label="season <= 2.5\nmse = 5743.295\nsamples = 44\nvalue = 127.477", fillcolor="#e5813927"] ;
360 -> 362 ;
363 [label="mse = 10842.833\nsamples = 12\nvalue = 172.0", fillcolor="#e5813935"] ;
362 -> 363 ;
364 [label="mse = 2808.858\nsamples = 32\nvalue = 110.781", fillcolor="#e5813921"] ;
362 -> 364 ;
365 [label="hour <= 1.585\nmse = 2785.143\nsamples = 123\nvalue = 124.943", fillcolor="#e5813926"] ;
325 -> 365 ;
366 [label="humidity <= 83.5\nmse = 2518.147\nsamples = 78\nvalue = 145.474", fillcolor="#e581392c"] ;
365 -> 366 ;
367 [label="mse = 1582.957\nsamples = 48\nvalue = 167.292", fillcolor="#e5813933"] ;
366 -> 367 ;
368 [label="mse = 2034.312\nsamples = 30\nvalue = 110.567", fillcolor="#e5813921"] ;
366 -> 368 ;
369 [label="mse = 1250.807\nsamples = 45\nvalue = 89.356", fillcolor="#e581391a"] ;
365 -> 369 ;
370 [label="hour <= 1.295\nmse = 38959.382\nsamples = 1778\nvalue = 379.278", fillcolor="#e5813978"] ;
262 -> 370 ;
371 [label="hour <= 0.572\nmse = 38008.637\nsamples = 1492\nvalue = 413.248", fillcolor="#e5813983"] ;
370 -> 371 ;
372 [label="humidity <= 77.5\nmse = 27039.865\nsamples = 899\nvalue = 341.75", fillcolor="#e581396c"] ;
371 -> 372 ;
373 [label="workingday <= 0.5\nmse = 24528.453\nsamples = 761\nvalue = 352.417", fillcolor="#e5813970"] ;
372 -> 373 ;
374 [label="hour <= -0.295\nmse = 32403.645\nsamples = 239\nvalue = 440.941", fillcolor="#e581398c"] ;
373 -> 374 ;
375 [label="hour <= -0.44\nmse = 9513.741\nsamples = 55\nvalue = 183.509", fillcolor="#e5813939"] ;
374 -> 375 ;
376 [label="mse = 3357.693\nsamples = 34\nvalue = 119.794", fillcolor="#e5813924"] ;
375 -> 376 ;
377 [label="mse = 2266.508\nsamples = 21\nvalue = 286.667", fillcolor="#e581395a"] ;
375 -> 377 ;
378 [label="temp <= 2.192\nmse = 13515.064\nsamples = 184\nvalue = 517.891", fillcolor="#e58139a5"] ;
374 -> 378 ;
379 [label="hour <= -0.151\nmse = 12171.666\nsamples = 171\nvalue = 530.398", fillcolor="#e58139a9"] ;
378 -> 379 ;
380 [label="mse = 4030.972\nsamples = 24\nvalue = 413.167", fillcolor="#e5813983"] ;
379 -> 380 ;
381 [label="humidity <= 55.5\nmse = 10890.657\nsamples = 147\nvalue = 549.537", fillcolor="#e58139af"] ;
379 -> 381 ;
382 [label="temp <= 1.245\nmse = 8116.771\nsamples = 110\nvalue = 572.418", fillcolor="#e58139b7"] ;
381 -> 382 ;
383 [label="mse = 4315.428\nsamples = 63\nvalue = 610.968", fillcolor="#e58139c3"] ;
382 -> 383 ;
384 [label="mse = 8550.02\nsamples = 47\nvalue = 520.745", fillcolor="#e58139a6"] ;
382 -> 384 ;
385 [label="temp <= 0.719\nmse = 12953.655\nsamples = 37\nvalue = 481.514", fillcolor="#e5813999"] ;
381 -> 385 ;
386 [label="mse = 6859.245\nsamples = 14\nvalue = 522.571", fillcolor="#e58139a7"] ;
385 -> 386 ;
387 [label="mse = 15012.597\nsamples = 23\nvalue = 456.522", fillcolor="#e5813991"] ;
385 -> 387 ;
388 [label="mse = 2066.083\nsamples = 13\nvalue = 353.385", fillcolor="#e5813970"] ;
378 -> 388 ;
389 [label="hour <= -0.44\nmse = 15691.914\nsamples = 522\nvalue = 311.885", fillcolor="#e5813962"] ;
373 -> 389 ;
390 [label="hour <= -0.584\nmse = 15558.15\nsamples = 60\nvalue = 594.683", fillcolor="#e58139be"] ;
389 -> 390 ;
391 [label="mse = 3776.241\nsamples = 27\nvalue = 474.407", fillcolor="#e5813997"] ;
390 -> 391 ;
392 [label="humidity <= 57.0\nmse = 3677.78\nsamples = 33\nvalue = 693.091", fillcolor="#e58139de"] ;
390 -> 392 ;
393 [label="mse = 3012.5\nsamples = 8\nvalue = 630.0", fillcolor="#e58139ca"] ;
392 -> 393 ;
394 [label="mse = 2209.322\nsamples = 25\nvalue = 713.28", fillcolor="#e58139e5"] ;
392 -> 394 ;
395 [label="hour <= -0.295\nmse = 3974.064\nsamples = 462\nvalue = 275.158", fillcolor="#e5813956"] ;
389 -> 395 ;
396 [label="mse = 921.097\nsamples = 43\nvalue = 347.86", fillcolor="#e581396e"] ;
395 -> 396 ;
397 [label="hour <= -0.006\nmse = 3689.266\nsamples = 419\nvalue = 267.697", fillcolor="#e5813954"] ;
395 -> 397 ;
398 [label="hour <= -0.151\nmse = 1424.041\nsamples = 117\nvalue = 219.436", fillcolor="#e5813944"] ;
397 -> 398 ;
399 [label="mse = 1065.878\nsamples = 58\nvalue = 198.862", fillcolor="#e581393e"] ;
398 -> 399 ;
400 [label="mse = 950.97\nsamples = 59\nvalue = 239.661", fillcolor="#e581394b"] ;
398 -> 400 ;
401 [label="season <= 3.5\nmse = 3314.928\nsamples = 302\nvalue = 286.394", fillcolor="#e581395a"] ;
397 -> 401 ;
402 [label="humidity <= 67.0\nmse = 2957.711\nsamples = 257\nvalue = 279.031", fillcolor="#e5813958"] ;
401 -> 402 ;
403 [label="mse = 2587.515\nsamples = 235\nvalue = 283.766", fillcolor="#e5813959"] ;
402 -> 403 ;
404 [label="mse = 4114.612\nsamples = 22\nvalue = 228.455", fillcolor="#e5813947"] ;
402 -> 404 ;
405 [label="humidity <= 42.5\nmse = 3277.18\nsamples = 45\nvalue = 328.444", fillcolor="#e5813968"] ;
401 -> 405 ;
406 [label="mse = 3829.621\nsamples = 13\nvalue = 369.615", fillcolor="#e5813975"] ;
405 -> 406 ;
407 [label="mse = 2084.39\nsamples = 32\nvalue = 311.719", fillcolor="#e5813962"] ;
405 -> 407 ;
408 [label="workingday <= 0.5\nmse = 36801.531\nsamples = 138\nvalue = 282.928", fillcolor="#e5813959"] ;
372 -> 408 ;
409 [label="temp <= 1.034\nmse = 15712.274\nsamples = 27\nvalue = 170.852", fillcolor="#e5813935"] ;
408 -> 409 ;
410 [label="mse = 13776.571\nsamples = 18\nvalue = 141.611", fillcolor="#e581392b"] ;
409 -> 410 ;
411 [label="mse = 14453.556\nsamples = 9\nvalue = 229.333", fillcolor="#e5813948"] ;
409 -> 411 ;
412 [label="hour <= -0.295\nmse = 38132.784\nsamples = 111\nvalue = 310.189", fillcolor="#e5813962"] ;
408 -> 412 ;
413 [label="hour <= -0.44\nmse = 33825.21\nsamples = 67\nvalue = 412.881", fillcolor="#e5813983"] ;
412 -> 413 ;
414 [label="humidity <= 90.0\nmse = 39139.17\nsamples = 50\nvalue = 447.48", fillcolor="#e581398e"] ;
413 -> 414 ;
415 [label="hour <= -0.584\nmse = 30829.944\nsamples = 40\nvalue = 491.575", fillcolor="#e581399d"] ;
414 -> 415 ;
416 [label="mse = 13446.628\nsamples = 20\nvalue = 397.65", fillcolor="#e581397e"] ;
415 -> 416 ;
417 [label="temp <= 0.613\nmse = 30569.45\nsamples = 20\nvalue = 585.5", fillcolor="#e58139bb"] ;
415 -> 417 ;
418 [label="mse = 42839.44\nsamples = 10\nvalue = 513.4", fillcolor="#e58139a4"] ;
417 -> 418 ;
419 [label="mse = 7902.64\nsamples = 10\nvalue = 657.6", fillcolor="#e58139d3"] ;
417 -> 419 ;
420 [label="mse = 33488.69\nsamples = 10\nvalue = 271.1", fillcolor="#e5813955"] ;
414 -> 420 ;
421 [label="mse = 4319.28\nsamples = 17\nvalue = 311.118", fillcolor="#e5813962"] ;
413 -> 421 ;
422 [label="mse = 4182.194\nsamples = 44\nvalue = 153.818", fillcolor="#e581392f"] ;
412 -> 422 ;
423 [label="hour <= 1.006\nmse = 35138.615\nsamples = 593\nvalue = 521.641", fillcolor="#e58139a6"] ;
371 -> 423 ;
424 [label="hour <= 0.717\nmse = 34986.895\nsamples = 374\nvalue = 588.139", fillcolor="#e58139bc"] ;
423 -> 424 ;
425 [label="workingday <= 0.5\nmse = 11388.489\nsamples = 124\nvalue = 454.863", fillcolor="#e5813991"] ;
424 -> 425 ;
426 [label="temp <= 1.508\nmse = 13754.201\nsamples = 41\nvalue = 513.512", fillcolor="#e58139a4"] ;
425 -> 426 ;
427 [label="temp <= 0.456\nmse = 13045.84\nsamples = 30\nvalue = 543.4", fillcolor="#e58139ad"] ;
426 -> 427 ;
428 [label="mse = 20638.84\nsamples = 10\nvalue = 483.4", fillcolor="#e581399a"] ;
427 -> 428 ;
429 [label="mse = 6549.34\nsamples = 20\nvalue = 573.4", fillcolor="#e58139b7"] ;
427 -> 429 ;
430 [label="mse = 6605.636\nsamples = 11\nvalue = 432.0", fillcolor="#e5813989"] ;
426 -> 430 ;
431 [label="humidity <= 56.5\nmse = 7681.398\nsamples = 83\nvalue = 425.892", fillcolor="#e5813987"] ;
425 -> 431 ;
432 [label="season <= 1.5\nmse = 4774.346\nsamples = 67\nvalue = 441.836", fillcolor="#e581398d"] ;
431 -> 432 ;
433 [label="mse = 2596.0\nsamples = 7\nvalue = 339.0", fillcolor="#e581396b"] ;
432 -> 433 ;
434 [label="mse = 3650.772\nsamples = 60\nvalue = 453.833", fillcolor="#e5813990"] ;
432 -> 434 ;
435 [label="mse = 14332.359\nsamples = 16\nvalue = 359.125", fillcolor="#e5813972"] ;
431 -> 435 ;
436 [label="humidity <= 76.0\nmse = 33511.624\nsamples = 250\nvalue = 654.244", fillcolor="#e58139d1"] ;
424 -> 436 ;
437 [label="workingday <= 0.5\nmse = 27351.6\nsamples = 234\nvalue = 674.808", fillcolor="#e58139d8"] ;
436 -> 437 ;
438 [label="humidity <= 29.5\nmse = 11192.012\nsamples = 76\nvalue = 490.539", fillcolor="#e581399c"] ;
437 -> 438 ;
439 [label="mse = 9166.139\nsamples = 12\nvalue = 406.833", fillcolor="#e5813981"] ;
438 -> 439 ;
440 [label="humidity <= 37.5\nmse = 10011.773\nsamples = 64\nvalue = 506.234", fillcolor="#e58139a1"] ;
438 -> 440 ;
441 [label="mse = 7348.488\nsamples = 23\nvalue = 563.348", fillcolor="#e58139b4"] ;
440 -> 441 ;
442 [label="hour <= 0.862\nmse = 8649.425\nsamples = 41\nvalue = 474.195", fillcolor="#e5813997"] ;
440 -> 442 ;
443 [label="mse = 8810.947\nsamples = 20\nvalue = 506.55", fillcolor="#e58139a2"] ;
442 -> 443 ;
444 [label="mse = 6549.093\nsamples = 21\nvalue = 443.381", fillcolor="#e581398d"] ;
442 -> 444 ;
445 [label="season <= 1.5\nmse = 10935.664\nsamples = 158\nvalue = 763.443", fillcolor="#e58139f5"] ;
437 -> 445 ;
446 [label="temp <= 0.719\nmse = 7939.149\nsamples = 17\nvalue = 650.706", fillcolor="#e58139d0"] ;
445 -> 446 ;
447 [label="mse = 3145.89\nsamples = 10\nvalue = 588.9", fillcolor="#e58139bc"] ;
446 -> 447 ;
448 [label="mse = 1533.714\nsamples = 7\nvalue = 739.0", fillcolor="#e58139ed"] ;
446 -> 448 ;
449 [label="windspeed <= 23.001\nmse = 9579.821\nsamples = 141\nvalue = 777.035", fillcolor="#e58139f9"] ;
445 -> 449 ;
450 [label="temp <= 1.876\nmse = 8715.866\nsamples = 125\nvalue = 786.32", fillcolor="#e58139fc"] ;
449 -> 450 ;
451 [label="mse = 7944.468\nsamples = 115\nvalue = 794.661", fillcolor="#e58139ff"] ;
450 -> 451 ;
452 [label="mse = 7586.24\nsamples = 10\nvalue = 690.4", fillcolor="#e58139dd"] ;
450 -> 452 ;
453 [label="temp <= 0.877\nmse = 10394.625\nsamples = 16\nvalue = 704.5", fillcolor="#e58139e2"] ;
449 -> 453 ;
454 [label="mse = 9366.444\nsamples = 9\nvalue = 664.0", fillcolor="#e58139d5"] ;
453 -> 454 ;
455 [label="mse = 6896.245\nsamples = 7\nvalue = 756.571", fillcolor="#e58139f3"] ;
453 -> 455 ;
456 [label="temp <= 0.613\nmse = 26970.625\nsamples = 16\nvalue = 353.5", fillcolor="#e5813970"] ;
436 -> 456 ;
457 [label="mse = 15120.099\nsamples = 9\nvalue = 298.111", fillcolor="#e581395e"] ;
456 -> 457 ;
458 [label="mse = 33191.061\nsamples = 7\nvalue = 424.714", fillcolor="#e5813987"] ;
456 -> 458 ;
459 [label="hour <= 1.151\nmse = 14949.368\nsamples = 219\nvalue = 408.078", fillcolor="#e5813982"] ;
423 -> 459 ;
460 [label="humidity <= 75.5\nmse = 15236.307\nsamples = 117\nvalue = 461.017", fillcolor="#e5813993"] ;
459 -> 460 ;
461 [label="workingday <= 0.5\nmse = 10506.484\nsamples = 102\nvalue = 484.922", fillcolor="#e581399b"] ;
460 -> 461 ;
462 [label="temp <= 0.403\nmse = 5717.382\nsamples = 32\nvalue = 383.156", fillcolor="#e5813979"] ;
461 -> 462 ;
463 [label="mse = 3772.49\nsamples = 7\nvalue = 324.714", fillcolor="#e5813967"] ;
462 -> 463 ;
464 [label="mse = 5037.85\nsamples = 25\nvalue = 399.52", fillcolor="#e581397f"] ;
462 -> 464 ;
465 [label="season <= 1.5\nmse = 5797.304\nsamples = 70\nvalue = 531.443", fillcolor="#e58139aa"] ;
461 -> 465 ;
466 [label="mse = 2514.694\nsamples = 7\nvalue = 419.143", fillcolor="#e5813985"] ;
465 -> 466 ;
467 [label="temp <= 0.298\nmse = 4605.089\nsamples = 63\nvalue = 543.921", fillcolor="#e58139ae"] ;
465 -> 467 ;
468 [label="mse = 1676.099\nsamples = 9\nvalue = 487.889", fillcolor="#e581399b"] ;
467 -> 468 ;
469 [label="mse = 4482.785\nsamples = 54\nvalue = 553.259", fillcolor="#e58139b1"] ;
467 -> 469 ;
470 [label="mse = 17090.782\nsamples = 15\nvalue = 298.467", fillcolor="#e581395e"] ;
460 -> 470 ;
471 [label="workingday <= 0.5\nmse = 7718.013\nsamples = 102\nvalue = 347.353", fillcolor="#e581396e"] ;
459 -> 471 ;
472 [label="mse = 3219.843\nsamples = 29\nvalue = 287.138", fillcolor="#e581395a"] ;
471 -> 472 ;
473 [label="temp <= 0.824\nmse = 7492.336\nsamples = 73\nvalue = 371.274", fillcolor="#e5813976"] ;
471 -> 473 ;
474 [label="humidity <= 75.0\nmse = 8303.17\nsamples = 42\nvalue = 334.143", fillcolor="#e581396a"] ;
473 -> 474 ;
475 [label="temp <= 0.298\nmse = 4196.129\nsamples = 34\nvalue = 358.441", fillcolor="#e5813971"] ;
474 -> 475 ;
476 [label="mse = 3117.722\nsamples = 12\nvalue = 315.333", fillcolor="#e5813963"] ;
475 -> 476 ;
477 [label="mse = 3217.862\nsamples = 22\nvalue = 381.955", fillcolor="#e5813979"] ;
475 -> 477 ;
478 [label="mse = 12584.609\nsamples = 8\nvalue = 230.875", fillcolor="#e5813948"] ;
474 -> 478 ;
479 [label="mse = 1995.082\nsamples = 31\nvalue = 421.581", fillcolor="#e5813986"] ;
473 -> 479 ;
480 [label="humidity <= 75.0\nmse = 6494.073\nsamples = 286\nvalue = 202.063", fillcolor="#e581393f"] ;
370 -> 480 ;
481 [label="hour <= 1.585\nmse = 6209.63\nsamples = 207\nvalue = 216.454", fillcolor="#e5813943"] ;
480 -> 481 ;
482 [label="hour <= 1.44\nmse = 4722.326\nsamples = 150\nvalue = 244.233", fillcolor="#e581394c"] ;
481 -> 482 ;
483 [label="temp <= 0.613\nmse = 4375.691\nsamples = 76\nvalue = 274.421", fillcolor="#e5813956"] ;
482 -> 483 ;
484 [label="mse = 2137.741\nsamples = 32\nvalue = 242.406", fillcolor="#e581394c"] ;
483 -> 484 ;
485 [label="mse = 4715.754\nsamples = 44\nvalue = 297.705", fillcolor="#e581395e"] ;
483 -> 485 ;
486 [label="mse = 3181.177\nsamples = 74\nvalue = 213.23", fillcolor="#e5813942"] ;
482 -> 486 ;
487 [label="mse = 2748.754\nsamples = 57\nvalue = 143.351", fillcolor="#e581392c"] ;
481 -> 487 ;
488 [label="hour <= 1.585\nmse = 5274.786\nsamples = 79\nvalue = 164.354", fillcolor="#e5813933"] ;
480 -> 488 ;
489 [label="mse = 5695.474\nsamples = 49\nvalue = 183.51", fillcolor="#e5813939"] ;
488 -> 489 ;
490 [label="mse = 3009.396\nsamples = 30\nvalue = 133.067", fillcolor="#e5813928"] ;
488 -> 490 ;
}