digraph Tree {
node [shape=box, style="filled", color="black"] ;
0 [label="hour <= -0.729\nmse = 32566.621\nsamples = 8708\nvalue = 191.55", fillcolor="#e5813958"] ;
1 [label="hour <= -0.874\nmse = 1606.545\nsamples = 2503\nvalue = 32.777", fillcolor="#e581390e"] ;
0 -> 1 [labeldistance=2.5, labelangle=45, headlabel="True"] ;
2 [label="hour <= -1.452\nmse = 936.347\nsamples = 2142\nvalue = 24.93", fillcolor="#e581390b"] ;
1 -> 2 ;
3 [label="workingday <= 0.5\nmse = 1639.042\nsamples = 725\nvalue = 44.411", fillcolor="#e5813914"] ;
2 -> 3 ;
4 [label="temp <= -0.018\nmse = 1733.493\nsamples = 233\nvalue = 82.906", fillcolor="#e5813925"] ;
3 -> 4 ;
5 [label="season <= 2.5\nmse = 1298.371\nsamples = 140\nvalue = 66.014", fillcolor="#e581391e"] ;
4 -> 5 ;
6 [label="mse = 615.604\nsamples = 76\nvalue = 48.382", fillcolor="#e5813915"] ;
5 -> 6 ;
7 [label="mse = 1301.513\nsamples = 64\nvalue = 86.953", fillcolor="#e5813927"] ;
5 -> 7 ;
8 [label="hour <= -1.597\nmse = 1312.437\nsamples = 93\nvalue = 108.333", fillcolor="#e5813931"] ;
4 -> 8 ;
9 [label="mse = 1393.712\nsamples = 51\nvalue = 123.882", fillcolor="#e5813938"] ;
8 -> 9 ;
10 [label="mse = 563.676\nsamples = 42\nvalue = 89.452", fillcolor="#e5813928"] ;
8 -> 10 ;
11 [label="hour <= -1.597\nmse = 560.213\nsamples = 492\nvalue = 26.181", fillcolor="#e581390b"] ;
3 -> 11 ;
12 [label="season <= 1.5\nmse = 760.568\nsamples = 240\nvalue = 36.625", fillcolor="#e5813910"] ;
11 -> 12 ;
13 [label="mse = 171.513\nsamples = 57\nvalue = 18.491", fillcolor="#e5813908"] ;
12 -> 13 ;
14 [label="mse = 809.718\nsamples = 183\nvalue = 42.273", fillcolor="#e5813913"] ;
12 -> 14 ;
15 [label="temp <= -0.334\nmse = 166.576\nsamples = 252\nvalue = 16.234", fillcolor="#e5813907"] ;
11 -> 15 ;
16 [label="mse = 110.765\nsamples = 107\nvalue = 10.664", fillcolor="#e5813904"] ;
15 -> 16 ;
17 [label="mse = 167.964\nsamples = 145\nvalue = 20.345", fillcolor="#e5813908"] ;
15 -> 17 ;
18 [label="workingday <= 0.5\nmse = 283.279\nsamples = 1417\nvalue = 14.962", fillcolor="#e5813906"] ;
2 -> 18 ;
19 [label="hour <= -1.307\nmse = 533.837\nsamples = 450\nvalue = 24.02", fillcolor="#e581390a"] ;
18 -> 19 ;
20 [label="temp <= -0.334\nmse = 626.036\nsamples = 108\nvalue = 52.963", fillcolor="#e5813918"] ;
19 -> 20 ;
21 [label="mse = 500.56\nsamples = 56\nvalue = 40.607", fillcolor="#e5813912"] ;
20 -> 21 ;
22 [label="mse = 419.697\nsamples = 52\nvalue = 66.269", fillcolor="#e581391e"] ;
20 -> 22 ;
23 [label="hour <= -1.163\nmse = 156.649\nsamples = 342\nvalue = 14.88", fillcolor="#e5813906"] ;
19 -> 23 ;
24 [label="mse = 185.651\nsamples = 118\nvalue = 25.898", fillcolor="#e581390b"] ;
23 -> 24 ;
25 [label="mse = 43.731\nsamples = 224\nvalue = 9.076", fillcolor="#e5813903"] ;
23 -> 25 ;
26 [label="hour <= -1.018\nmse = 110.729\nsamples = 967\nvalue = 10.747", fillcolor="#e5813904"] ;
18 -> 26 ;
27 [label="season <= 1.5\nmse = 27.043\nsamples = 725\nvalue = 6.367", fillcolor="#e5813902"] ;
26 -> 27 ;
28 [label="mse = 7.308\nsamples = 159\nvalue = 3.252", fillcolor="#e5813901"] ;
27 -> 28 ;
29 [label="mse = 29.095\nsamples = 566\nvalue = 7.242", fillcolor="#e5813902"] ;
27 -> 29 ;
30 [label="year <= 2011.5\nmse = 131.809\nsamples = 242\nvalue = 23.868", fillcolor="#e581390a"] ;
26 -> 30 ;
31 [label="mse = 81.658\nsamples = 125\nvalue = 17.496", fillcolor="#e5813907"] ;
30 -> 31 ;
32 [label="mse = 95.672\nsamples = 117\nvalue = 30.675", fillcolor="#e581390d"] ;
30 -> 32 ;
33 [label="workingday <= 0.5\nmse = 3049.334\nsamples = 361\nvalue = 79.343", fillcolor="#e5813924"] ;
1 -> 33 ;
34 [label="season <= 1.5\nmse = 378.293\nsamples = 110\nvalue = 20.718", fillcolor="#e5813909"] ;
33 -> 34 ;
35 [label="temp <= -0.439\nmse = 34.906\nsamples = 25\nvalue = 5.88", fillcolor="#e5813902"] ;
34 -> 35 ;
36 [label="year <= 2011.5\nmse = 11.217\nsamples = 23\nvalue = 5.0", fillcolor="#e5813901"] ;
35 -> 36 ;
37 [label="mse = 2.89\nsamples = 10\nvalue = 2.9", fillcolor="#e5813900"] ;
36 -> 37 ;
38 [label="mse = 11.621\nsamples = 13\nvalue = 6.615", fillcolor="#e5813902"] ;
36 -> 38 ;
39 [label="humidity <= 85.5\nmse = 196.0\nsamples = 2\nvalue = 16.0", fillcolor="#e5813906"] ;
35 -> 39 ;
40 [label="mse = 0.0\nsamples = 1\nvalue = 2.0", fillcolor="#e5813900"] ;
39 -> 40 ;
41 [label="mse = 0.0\nsamples = 1\nvalue = 30.0", fillcolor="#e581390d"] ;
39 -> 41 ;
42 [label="year <= 2011.5\nmse = 395.487\nsamples = 85\nvalue = 25.082", fillcolor="#e581390b"] ;
34 -> 42 ;
43 [label="temp <= -1.281\nmse = 117.178\nsamples = 40\nvalue = 17.65", fillcolor="#e5813907"] ;
42 -> 43 ;
44 [label="mse = 16.25\nsamples = 4\nvalue = 7.5", fillcolor="#e5813903"] ;
43 -> 44 ;
45 [label="mse = 115.673\nsamples = 36\nvalue = 18.778", fillcolor="#e5813908"] ;
43 -> 45 ;
46 [label="season <= 2.5\nmse = 550.125\nsamples = 45\nvalue = 31.689", fillcolor="#e581390e"] ;
42 -> 46 ;
47 [label="mse = 1153.23\nsamples = 14\nvalue = 43.643", fillcolor="#e5813913"] ;
46 -> 47 ;
48 [label="mse = 184.077\nsamples = 31\nvalue = 26.29", fillcolor="#e581390b"] ;
46 -> 48 ;
49 [label="year <= 2011.5\nmse = 2053.588\nsamples = 251\nvalue = 105.036", fillcolor="#e5813930"] ;
33 -> 49 ;
50 [label="season <= 1.5\nmse = 1207.864\nsamples = 119\nvalue = 77.866", fillcolor="#e5813923"] ;
49 -> 50 ;
51 [label="humidity <= 16.0\nmse = 82.506\nsamples = 31\nvalue = 32.452", fillcolor="#e581390e"] ;
50 -> 51 ;
52 [label="mse = 0.0\nsamples = 1\nvalue = 12.0", fillcolor="#e5813905"] ;
51 -> 52 ;
53 [label="mse = 70.849\nsamples = 30\nvalue = 33.133", fillcolor="#e581390e"] ;
51 -> 53 ;
54 [label="humidity <= 91.0\nmse = 621.822\nsamples = 88\nvalue = 93.864", fillcolor="#e581392b"] ;
50 -> 54 ;
55 [label="mse = 448.271\nsamples = 76\nvalue = 98.211", fillcolor="#e581392d"] ;
54 -> 55 ;
56 [label="mse = 843.389\nsamples = 12\nvalue = 66.333", fillcolor="#e581391e"] ;
54 -> 56 ;
57 [label="season <= 1.5\nmse = 1550.522\nsamples = 132\nvalue = 129.53", fillcolor="#e581393b"] ;
49 -> 57 ;
58 [label="temp <= -0.439\nmse = 269.246\nsamples = 32\nvalue = 88.938", fillcolor="#e5813928"] ;
57 -> 58 ;
59 [label="mse = 135.499\nsamples = 26\nvalue = 82.962", fillcolor="#e5813925"] ;
58 -> 59 ;
60 [label="mse = 23.472\nsamples = 6\nvalue = 114.833", fillcolor="#e5813934"] ;
58 -> 60 ;
61 [label="temp <= -0.65\nmse = 1264.51\nsamples = 100\nvalue = 142.52", fillcolor="#e5813941"] ;
57 -> 61 ;
62 [label="mse = 588.989\nsamples = 29\nvalue = 119.103", fillcolor="#e5813936"] ;
61 -> 62 ;
63 [label="mse = 1224.979\nsamples = 71\nvalue = 152.085", fillcolor="#e5813945"] ;
61 -> 63 ;
64 [label="temp <= -0.123\nmse = 30784.66\nsamples = 6205\nvalue = 255.597", fillcolor="#e5813975"] ;
0 -> 64 [labeldistance=2.5, labelangle=-45, headlabel="False"] ;
65 [label="year <= 2011.5\nmse = 19824.564\nsamples = 2740\nvalue = 183.002", fillcolor="#e5813954"] ;
64 -> 65 ;
66 [label="season <= 3.5\nmse = 9076.942\nsamples = 1414\nvalue = 129.47", fillcolor="#e581393b"] ;
65 -> 66 ;
67 [label="hour <= 1.151\nmse = 4753.504\nsamples = 908\nvalue = 98.719", fillcolor="#e581392d"] ;
66 -> 67 ;
68 [label="temp <= -0.229\nmse = 5206.428\nsamples = 682\nvalue = 112.282", fillcolor="#e5813933"] ;
67 -> 68 ;
69 [label="mse = 4425.991\nsamples = 631\nvalue = 105.209", fillcolor="#e5813930"] ;
68 -> 69 ;
70 [label="mse = 6586.836\nsamples = 51\nvalue = 199.784", fillcolor="#e581395c"] ;
68 -> 70 ;
71 [label="temp <= -0.86\nmse = 1156.616\nsamples = 226\nvalue = 57.792", fillcolor="#e581391a"] ;
67 -> 71 ;
72 [label="mse = 458.132\nsamples = 143\nvalue = 45.224", fillcolor="#e5813914"] ;
71 -> 72 ;
73 [label="mse = 1618.994\nsamples = 83\nvalue = 79.446", fillcolor="#e5813924"] ;
71 -> 73 ;
74 [label="hour <= 1.151\nmse = 12093.262\nsamples = 506\nvalue = 184.652", fillcolor="#e5813955"] ;
66 -> 74 ;
75 [label="hour <= 0.717\nmse = 12733.888\nsamples = 381\nvalue = 210.168", fillcolor="#e5813960"] ;
74 -> 75 ;
76 [label="mse = 11401.956\nsamples = 298\nvalue = 193.815", fillcolor="#e5813959"] ;
75 -> 76 ;
77 [label="mse = 13108.877\nsamples = 83\nvalue = 268.88", fillcolor="#e581397c"] ;
75 -> 77 ;
78 [label="hour <= 1.44\nmse = 2107.706\nsamples = 125\nvalue = 106.88", fillcolor="#e5813931"] ;
74 -> 78 ;
79 [label="mse = 1816.508\nsamples = 61\nvalue = 136.18", fillcolor="#e581393e"] ;
78 -> 79 ;
80 [label="mse = 787.076\nsamples = 64\nvalue = 78.953", fillcolor="#e5813924"] ;
78 -> 80 ;
81 [label="hour <= 1.151\nmse = 24971.05\nsamples = 1326\nvalue = 240.086", fillcolor="#e581396e"] ;
65 -> 81 ;
82 [label="season <= 1.5\nmse = 26476.698\nsamples = 988\nvalue = 277.031", fillcolor="#e581397f"] ;
81 -> 82 ;
83 [label="temp <= -0.86\nmse = 16796.03\nsamples = 496\nvalue = 214.121", fillcolor="#e5813962"] ;
82 -> 83 ;
84 [label="mse = 12163.523\nsamples = 293\nvalue = 177.56", fillcolor="#e5813951"] ;
83 -> 84 ;
85 [label="mse = 18768.254\nsamples = 203\nvalue = 266.892", fillcolor="#e581397b"] ;
83 -> 85 ;
86 [label="hour <= 0.572\nmse = 28223.841\nsamples = 492\nvalue = 340.453", fillcolor="#e581399d"] ;
82 -> 86 ;
87 [label="mse = 27600.769\nsamples = 361\nvalue = 310.463", fillcolor="#e581398f"] ;
86 -> 87 ;
88 [label="mse = 20631.891\nsamples = 131\nvalue = 423.099", fillcolor="#e58139c3"] ;
86 -> 88 ;
89 [label="hour <= 1.44\nmse = 4917.273\nsamples = 338\nvalue = 132.092", fillcolor="#e581393c"] ;
81 -> 89 ;
90 [label="season <= 1.5\nmse = 5027.715\nsamples = 161\nvalue = 170.534", fillcolor="#e581394e"] ;
89 -> 90 ;
91 [label="mse = 2449.125\nsamples = 85\nvalue = 132.8", fillcolor="#e581393d"] ;
90 -> 91 ;
92 [label="mse = 4538.115\nsamples = 76\nvalue = 212.737", fillcolor="#e5813962"] ;
90 -> 92 ;
93 [label="season <= 1.5\nmse = 2249.86\nsamples = 177\nvalue = 97.124", fillcolor="#e581392c"] ;
89 -> 93 ;
94 [label="mse = 1228.727\nsamples = 87\nvalue = 72.092", fillcolor="#e5813920"] ;
93 -> 94 ;
95 [label="mse = 2045.685\nsamples = 90\nvalue = 121.322", fillcolor="#e5813937"] ;
93 -> 95 ;
96 [label="year <= 2011.5\nmse = 31988.805\nsamples = 3465\nvalue = 313.002", fillcolor="#e5813990"] ;
64 -> 96 ;
97 [label="hour <= 1.295\nmse = 16956.556\nsamples = 1667\nvalue = 246.536", fillcolor="#e5813971"] ;
96 -> 97 ;
98 [label="hour <= 0.572\nmse = 17011.194\nsamples = 1396\nvalue = 266.839", fillcolor="#e581397b"] ;
97 -> 98 ;
99 [label="workingday <= 0.5\nmse = 12407.885\nsamples = 876\nvalue = 223.24", fillcolor="#e5813966"] ;
98 -> 99 ;
100 [label="mse = 15664.331\nsamples = 253\nvalue = 284.83", fillcolor="#e5813983"] ;
99 -> 100 ;
101 [label="mse = 8919.37\nsamples = 623\nvalue = 198.228", fillcolor="#e581395b"] ;
99 -> 101 ;
102 [label="humidity <= 71.0\nmse = 16169.178\nsamples = 520\nvalue = 340.287", fillcolor="#e581399d"] ;
98 -> 102 ;
103 [label="mse = 13835.76\nsamples = 382\nvalue = 372.448", fillcolor="#e58139ab"] ;
102 -> 103 ;
104 [label="mse = 11839.613\nsamples = 138\nvalue = 251.261", fillcolor="#e5813973"] ;
102 -> 104 ;
105 [label="hour <= 1.585\nmse = 3613.134\nsamples = 271\nvalue = 141.948", fillcolor="#e5813941"] ;
97 -> 105 ;
106 [label="humidity <= 83.5\nmse = 3132.145\nsamples = 185\nvalue = 163.638", fillcolor="#e581394b"] ;
105 -> 106 ;
107 [label="mse = 2533.326\nsamples = 157\nvalue = 174.42", fillcolor="#e5813950"] ;
106 -> 107 ;
108 [label="mse = 2182.575\nsamples = 28\nvalue = 103.179", fillcolor="#e581392f"] ;
106 -> 108 ;
109 [label="temp <= 0.719\nmse = 1458.904\nsamples = 86\nvalue = 95.291", fillcolor="#e581392b"] ;
105 -> 109 ;
110 [label="mse = 1459.204\nsamples = 44\nvalue = 81.477", fillcolor="#e5813925"] ;
109 -> 110 ;
111 [label="mse = 1049.277\nsamples = 42\nvalue = 109.762", fillcolor="#e5813932"] ;
109 -> 111 ;
112 [label="hour <= 1.295\nmse = 38032.447\nsamples = 1798\nvalue = 374.626", fillcolor="#e58139ac"] ;
96 -> 112 ;
113 [label="hour <= 0.572\nmse = 36892.451\nsamples = 1502\nvalue = 409.397", fillcolor="#e58139bd"] ;
112 -> 113 ;
114 [label="workingday <= 0.5\nmse = 27206.667\nsamples = 920\nvalue = 343.89", fillcolor="#e581399e"] ;
113 -> 114 ;
115 [label="mse = 36682.13\nsamples = 281\nvalue = 414.616", fillcolor="#e58139bf"] ;
114 -> 115 ;
116 [label="mse = 19872.868\nsamples = 639\nvalue = 312.789", fillcolor="#e5813990"] ;
114 -> 116 ;
117 [label="hour <= 1.151\nmse = 34697.521\nsamples = 582\nvalue = 512.947", fillcolor="#e58139ed"] ;
113 -> 117 ;
118 [label="mse = 32409.168\nsamples = 470\nvalue = 552.909", fillcolor="#e58139ff"] ;
117 -> 118 ;
119 [label="mse = 9476.777\nsamples = 112\nvalue = 345.25", fillcolor="#e581399f"] ;
117 -> 119 ;
120 [label="hour <= 1.585\nmse = 6551.111\nsamples = 296\nvalue = 198.186", fillcolor="#e581395b"] ;
112 -> 120 ;
121 [label="humidity <= 75.5\nmse = 5391.75\nsamples = 197\nvalue = 230.386", fillcolor="#e581396a"] ;
120 -> 121 ;
122 [label="mse = 4307.588\nsamples = 147\nvalue = 246.844", fillcolor="#e5813971"] ;
121 -> 122 ;
123 [label="mse = 5441.68\nsamples = 50\nvalue = 182.0", fillcolor="#e5813953"] ;
121 -> 123 ;
124 [label="windspeed <= 12.0\nmse = 2689.351\nsamples = 99\nvalue = 134.111", fillcolor="#e581393d"] ;
120 -> 124 ;
125 [label="mse = 2428.131\nsamples = 66\nvalue = 144.258", fillcolor="#e5813942"] ;
124 -> 125 ;
126 [label="mse = 2594.088\nsamples = 33\nvalue = 113.818", fillcolor="#e5813934"] ;
124 -> 126 ;
}