digraph Tree {
node [shape=box, style="filled", color="black"] ;
0 [label="temp <= -0.018\nmse = 32845.234\nsamples = 8708\nvalue = 192.235", fillcolor="#e581393c"] ;
1 [label="hour <= -0.729\nmse = 18683.017\nsamples = 4230\nvalue = 131.09", fillcolor="#e5813928"] ;
0 -> 1 [labeldistance=2.5, labelangle=45, headlabel="True"] ;
2 [label="hour <= -0.874\nmse = 1215.989\nsamples = 1430\nvalue = 27.16", fillcolor="#e5813908"] ;
1 -> 2 ;
3 [label="workingday <= 0.5\nmse = 701.232\nsamples = 1203\nvalue = 20.485", fillcolor="#e5813906"] ;
2 -> 3 ;
4 [label="temp <= -1.071\nmse = 1156.68\nsamples = 415\nvalue = 34.183", fillcolor="#e581390a"] ;
3 -> 4 ;
5 [label="hour <= -1.307\nmse = 624.068\nsamples = 172\nvalue = 21.953", fillcolor="#e5813906"] ;
4 -> 5 ;
6 [label="season <= 3.0\nmse = 731.066\nsamples = 70\nvalue = 42.186", fillcolor="#e581390d"] ;
5 -> 6 ;
7 [label="year <= 2011.5\nmse = 241.79\nsamples = 48\nvalue = 30.208", fillcolor="#e5813909"] ;
6 -> 7 ;
8 [label="humidity <= 53.0\nmse = 91.646\nsamples = 30\nvalue = 23.567", fillcolor="#e5813907"] ;
7 -> 8 ;
9 [label="mse = 44.556\nsamples = 6\nvalue = 16.333", fillcolor="#e5813905"] ;
8 -> 9 ;
10 [label="hour <= -1.452\nmse = 87.068\nsamples = 24\nvalue = 25.375", fillcolor="#e5813907"] ;
8 -> 10 ;
11 [label="windspeed <= 6.502\nmse = 87.849\nsamples = 15\nvalue = 28.867", fillcolor="#e5813909"] ;
10 -> 11 ;
12 [label="mse = 72.859\nsamples = 8\nvalue = 27.125", fillcolor="#e5813908"] ;
11 -> 12 ;
13 [label="mse = 97.551\nsamples = 7\nvalue = 30.857", fillcolor="#e5813909"] ;
11 -> 13 ;
14 [label="mse = 31.58\nsamples = 9\nvalue = 19.556", fillcolor="#e5813906"] ;
10 -> 14 ;
15 [label="temp <= -1.544\nmse = 295.978\nsamples = 18\nvalue = 41.278", fillcolor="#e581390c"] ;
7 -> 15 ;
16 [label="mse = 132.64\nsamples = 10\nvalue = 32.4", fillcolor="#e581390a"] ;
15 -> 16 ;
17 [label="mse = 278.484\nsamples = 8\nvalue = 52.375", fillcolor="#e5813910"] ;
15 -> 17 ;
18 [label="humidity <= 72.5\nmse = 802.671\nsamples = 22\nvalue = 68.318", fillcolor="#e5813915"] ;
6 -> 18 ;
19 [label="windspeed <= 12.0\nmse = 142.222\nsamples = 15\nvalue = 56.667", fillcolor="#e5813911"] ;
18 -> 19 ;
20 [label="mse = 70.914\nsamples = 9\nvalue = 52.556", fillcolor="#e5813910"] ;
19 -> 20 ;
21 [label="mse = 185.806\nsamples = 6\nvalue = 62.833", fillcolor="#e5813913"] ;
19 -> 21 ;
22 [label="mse = 1303.633\nsamples = 7\nvalue = 93.286", fillcolor="#e581391d"] ;
18 -> 22 ;
23 [label="hour <= -1.163\nmse = 76.927\nsamples = 102\nvalue = 8.069", fillcolor="#e5813902"] ;
5 -> 23 ;
24 [label="year <= 2011.5\nmse = 165.04\nsamples = 25\nvalue = 17.2", fillcolor="#e5813905"] ;
23 -> 24 ;
25 [label="season <= 3.0\nmse = 83.109\nsamples = 16\nvalue = 13.375", fillcolor="#e5813904"] ;
24 -> 25 ;
26 [label="mse = 15.333\nsamples = 9\nvalue = 8.667", fillcolor="#e5813902"] ;
25 -> 26 ;
27 [label="mse = 105.102\nsamples = 7\nvalue = 19.429", fillcolor="#e5813906"] ;
25 -> 27 ;
28 [label="mse = 238.444\nsamples = 9\nvalue = 24.0", fillcolor="#e5813907"] ;
24 -> 28 ;
29 [label="year <= 2011.5\nmse = 12.457\nsamples = 77\nvalue = 5.104", fillcolor="#e5813901"] ;
23 -> 29 ;
30 [label="season <= 1.5\nmse = 8.224\nsamples = 43\nvalue = 4.093", fillcolor="#e5813901"] ;
29 -> 30 ;
31 [label="humidity <= 71.5\nmse = 5.34\nsamples = 20\nvalue = 2.4", fillcolor="#e5813900"] ;
30 -> 31 ;
32 [label="windspeed <= 12.0\nmse = 0.402\nsamples = 13\nvalue = 1.462", fillcolor="#e5813900"] ;
31 -> 32 ;
33 [label="mse = 0.531\nsamples = 7\nvalue = 1.571", fillcolor="#e5813900"] ;
32 -> 33 ;
34 [label="mse = 0.222\nsamples = 6\nvalue = 1.333", fillcolor="#e5813900"] ;
32 -> 34 ;
35 [label="mse = 9.837\nsamples = 7\nvalue = 4.143", fillcolor="#e5813901"] ;
31 -> 35 ;
36 [label="windspeed <= 14.0\nmse = 6.072\nsamples = 23\nvalue = 5.565", fillcolor="#e5813901"] ;
30 -> 36 ;
37 [label="hour <= -1.018\nmse = 4.588\nsamples = 17\nvalue = 6.0", fillcolor="#e5813901"] ;
36 -> 37 ;
38 [label="mse = 7.0\nsamples = 8\nvalue = 6.5", fillcolor="#e5813902"] ;
37 -> 38 ;
39 [label="mse = 2.025\nsamples = 9\nvalue = 5.556", fillcolor="#e5813901"] ;
37 -> 39 ;
40 [label="mse = 8.222\nsamples = 6\nvalue = 4.333", fillcolor="#e5813901"] ;
36 -> 40 ;
41 [label="windspeed <= 19.5\nmse = 14.883\nsamples = 34\nvalue = 6.382", fillcolor="#e5813902"] ;
29 -> 41 ;
42 [label="humidity <= 67.5\nmse = 16.515\nsamples = 26\nvalue = 7.154", fillcolor="#e5813902"] ;
41 -> 42 ;
43 [label="mse = 31.347\nsamples = 7\nvalue = 9.286", fillcolor="#e5813902"] ;
42 -> 43 ;
44 [label="season <= 2.5\nmse = 8.759\nsamples = 19\nvalue = 6.368", fillcolor="#e5813902"] ;
42 -> 44 ;
45 [label="mse = 7.21\nsamples = 10\nvalue = 5.3", fillcolor="#e5813901"] ;
44 -> 45 ;
46 [label="mse = 7.802\nsamples = 9\nvalue = 7.556", fillcolor="#e5813902"] ;
44 -> 46 ;
47 [label="mse = 1.359\nsamples = 8\nvalue = 3.875", fillcolor="#e5813901"] ;
41 -> 47 ;
48 [label="hour <= -1.307\nmse = 1352.875\nsamples = 243\nvalue = 42.84", fillcolor="#e581390d"] ;
4 -> 48 ;
49 [label="season <= 2.5\nmse = 1166.851\nsamples = 137\nvalue = 65.102", fillcolor="#e5813914"] ;
48 -> 49 ;
50 [label="year <= 2011.5\nmse = 643.074\nsamples = 66\nvalue = 50.955", fillcolor="#e581390f"] ;
49 -> 50 ;
51 [label="windspeed <= 10.998\nmse = 351.027\nsamples = 30\nvalue = 37.2", fillcolor="#e581390b"] ;
50 -> 51 ;
52 [label="temp <= -0.439\nmse = 453.444\nsamples = 18\nvalue = 43.0", fillcolor="#e581390d"] ;
51 -> 52 ;
53 [label="mse = 82.2\nsamples = 10\nvalue = 33.0", fillcolor="#e581390a"] ;
52 -> 53 ;
54 [label="mse = 636.25\nsamples = 8\nvalue = 55.5", fillcolor="#e5813911"] ;
52 -> 54 ;
55 [label="humidity <= 81.5\nmse = 71.25\nsamples = 12\nvalue = 28.5", fillcolor="#e5813908"] ;
51 -> 55 ;
56 [label="mse = 24.889\nsamples = 6\nvalue = 34.333", fillcolor="#e581390a"] ;
55 -> 56 ;
57 [label="mse = 49.556\nsamples = 6\nvalue = 22.667", fillcolor="#e5813907"] ;
55 -> 57 ;
58 [label="hour <= -1.452\nmse = 597.41\nsamples = 36\nvalue = 62.417", fillcolor="#e5813913"] ;
50 -> 58 ;
59 [label="temp <= -0.65\nmse = 563.889\nsamples = 24\nvalue = 69.333", fillcolor="#e5813915"] ;
58 -> 59 ;
60 [label="mse = 483.884\nsamples = 11\nvalue = 56.455", fillcolor="#e5813911"] ;
59 -> 60 ;
61 [label="humidity <= 43.0\nmse = 372.485\nsamples = 13\nvalue = 80.231", fillcolor="#e5813919"] ;
59 -> 61 ;
62 [label="mse = 294.122\nsamples = 7\nvalue = 75.143", fillcolor="#e5813917"] ;
61 -> 62 ;
63 [label="mse = 398.472\nsamples = 6\nvalue = 86.167", fillcolor="#e581391a"] ;
61 -> 63 ;
64 [label="windspeed <= 13.001\nmse = 377.41\nsamples = 12\nvalue = 48.583", fillcolor="#e581390f"] ;
58 -> 64 ;
65 [label="mse = 247.0\nsamples = 6\nvalue = 58.0", fillcolor="#e5813912"] ;
64 -> 65 ;
66 [label="mse = 330.472\nsamples = 6\nvalue = 39.167", fillcolor="#e581390c"] ;
64 -> 66 ;
67 [label="hour <= -1.597\nmse = 1294.724\nsamples = 71\nvalue = 78.254", fillcolor="#e5813918"] ;
49 -> 67 ;
68 [label="windspeed <= 6.502\nmse = 1410.982\nsamples = 25\nvalue = 104.24", fillcolor="#e5813920"] ;
67 -> 68 ;
69 [label="mse = 2534.776\nsamples = 7\nvalue = 130.286", fillcolor="#e5813928"] ;
68 -> 69 ;
70 [label="windspeed <= 12.0\nmse = 607.543\nsamples = 18\nvalue = 94.111", fillcolor="#e581391d"] ;
68 -> 70 ;
71 [label="mse = 442.628\nsamples = 11\nvalue = 103.909", fillcolor="#e5813920"] ;
70 -> 71 ;
72 [label="mse = 478.776\nsamples = 7\nvalue = 78.714", fillcolor="#e5813918"] ;
70 -> 72 ;
73 [label="year <= 2011.5\nmse = 665.07\nsamples = 46\nvalue = 64.13", fillcolor="#e5813914"] ;
67 -> 73 ;
74 [label="windspeed <= 18.0\nmse = 499.833\nsamples = 24\nvalue = 55.0", fillcolor="#e5813911"] ;
73 -> 74 ;
75 [label="humidity <= 79.5\nmse = 393.384\nsamples = 17\nvalue = 61.294", fillcolor="#e5813913"] ;
74 -> 75 ;
76 [label="mse = 71.728\nsamples = 9\nvalue = 70.222", fillcolor="#e5813915"] ;
75 -> 76 ;
77 [label="mse = 564.688\nsamples = 8\nvalue = 51.25", fillcolor="#e5813910"] ;
75 -> 77 ;
78 [label="mse = 428.49\nsamples = 7\nvalue = 39.714", fillcolor="#e581390c"] ;
74 -> 78 ;
79 [label="hour <= -1.452\nmse = 655.174\nsamples = 22\nvalue = 74.091", fillcolor="#e5813917"] ;
73 -> 79 ;
80 [label="mse = 681.686\nsamples = 11\nvalue = 85.364", fillcolor="#e581391a"] ;
79 -> 80 ;
81 [label="mse = 374.512\nsamples = 11\nvalue = 62.818", fillcolor="#e5813913"] ;
79 -> 81 ;
82 [label="hour <= -1.163\nmse = 124.816\nsamples = 106\nvalue = 14.066", fillcolor="#e5813904"] ;
48 -> 82 ;
83 [label="year <= 2011.5\nmse = 140.264\nsamples = 44\nvalue = 22.909", fillcolor="#e5813907"] ;
82 -> 83 ;
84 [label="temp <= -0.755\nmse = 118.085\nsamples = 22\nvalue = 19.227", fillcolor="#e5813906"] ;
83 -> 84 ;
85 [label="mse = 44.889\nsamples = 6\nvalue = 10.333", fillcolor="#e5813903"] ;
84 -> 85 ;
86 [label="season <= 2.5\nmse = 104.746\nsamples = 16\nvalue = 22.562", fillcolor="#e5813907"] ;
84 -> 86 ;
87 [label="mse = 89.837\nsamples = 7\nvalue = 16.857", fillcolor="#e5813905"] ;
86 -> 87 ;
88 [label="mse = 71.333\nsamples = 9\nvalue = 27.0", fillcolor="#e5813908"] ;
86 -> 88 ;
89 [label="humidity <= 76.5\nmse = 135.333\nsamples = 22\nvalue = 26.591", fillcolor="#e5813908"] ;
83 -> 89 ;
90 [label="mse = 75.64\nsamples = 10\nvalue = 22.4", fillcolor="#e5813907"] ;
89 -> 90 ;
91 [label="temp <= -0.755\nmse = 158.243\nsamples = 12\nvalue = 30.083", fillcolor="#e5813909"] ;
89 -> 91 ;
92 [label="mse = 218.139\nsamples = 6\nvalue = 31.833", fillcolor="#e581390a"] ;
91 -> 92 ;
93 [label="mse = 92.222\nsamples = 6\nvalue = 28.333", fillcolor="#e5813908"] ;
91 -> 93 ;
94 [label="season <= 3.5\nmse = 18.972\nsamples = 62\nvalue = 7.79", fillcolor="#e5813902"] ;
82 -> 94 ;
95 [label="humidity <= 84.5\nmse = 17.188\nsamples = 36\nvalue = 6.25", fillcolor="#e5813902"] ;
94 -> 95 ;
96 [label="windspeed <= 8.0\nmse = 18.045\nsamples = 21\nvalue = 7.619", fillcolor="#e5813902"] ;
95 -> 96 ;
97 [label="humidity <= 76.5\nmse = 16.306\nsamples = 12\nvalue = 9.167", fillcolor="#e5813902"] ;
96 -> 97 ;
98 [label="mse = 15.556\nsamples = 6\nvalue = 10.667", fillcolor="#e5813903"] ;
97 -> 98 ;
99 [label="mse = 12.556\nsamples = 6\nvalue = 7.667", fillcolor="#e5813902"] ;
97 -> 99 ;
100 [label="mse = 12.914\nsamples = 9\nvalue = 5.556", fillcolor="#e5813901"] ;
96 -> 100 ;
101 [label="temp <= -0.544\nmse = 9.689\nsamples = 15\nvalue = 4.333", fillcolor="#e5813901"] ;
95 -> 101 ;
102 [label="mse = 1.728\nsamples = 9\nvalue = 3.222", fillcolor="#e5813901"] ;
101 -> 102 ;
103 [label="mse = 17.0\nsamples = 6\nvalue = 6.0", fillcolor="#e5813901"] ;
101 -> 103 ;
104 [label="humidity <= 57.5\nmse = 13.609\nsamples = 26\nvalue = 9.923", fillcolor="#e5813903"] ;
94 -> 104 ;
105 [label="mse = 5.139\nsamples = 6\nvalue = 11.833", fillcolor="#e5813903"] ;
104 -> 105 ;
106 [label="humidity <= 78.5\nmse = 14.728\nsamples = 20\nvalue = 9.35", fillcolor="#e5813902"] ;
104 -> 106 ;
107 [label="mse = 6.694\nsamples = 7\nvalue = 7.143", fillcolor="#e5813902"] ;
106 -> 107 ;
108 [label="temp <= -0.597\nmse = 15.018\nsamples = 13\nvalue = 10.538", fillcolor="#e5813903"] ;
106 -> 108 ;
109 [label="mse = 5.551\nsamples = 7\nvalue = 9.143", fillcolor="#e5813902"] ;
108 -> 109 ;
110 [label="mse = 21.139\nsamples = 6\nvalue = 12.167", fillcolor="#e5813903"] ;
108 -> 110 ;
111 [label="season <= 1.5\nmse = 310.499\nsamples = 788\nvalue = 13.27", fillcolor="#e5813904"] ;
3 -> 111 ;
112 [label="hour <= -1.597\nmse = 79.575\nsamples = 321\nvalue = 8.355", fillcolor="#e5813902"] ;
111 -> 112 ;
113 [label="temp <= -0.544\nmse = 146.93\nsamples = 57\nvalue = 18.351", fillcolor="#e5813905"] ;
112 -> 113 ;
114 [label="year <= 2011.5\nmse = 96.854\nsamples = 48\nvalue = 15.75", fillcolor="#e5813904"] ;
113 -> 114 ;
115 [label="temp <= -1.386\nmse = 27.282\nsamples = 23\nvalue = 10.609", fillcolor="#e5813903"] ;
114 -> 115 ;
116 [label="humidity <= 61.5\nmse = 18.222\nsamples = 12\nvalue = 8.667", fillcolor="#e5813902"] ;
115 -> 116 ;
117 [label="mse = 10.222\nsamples = 6\nvalue = 10.333", fillcolor="#e5813903"] ;
116 -> 117 ;
118 [label="mse = 20.667\nsamples = 6\nvalue = 7.0", fillcolor="#e5813902"] ;
116 -> 118 ;
119 [label="mse = 28.562\nsamples = 11\nvalue = 12.727", fillcolor="#e5813904"] ;
115 -> 119 ;
120 [label="windspeed <= 12.0\nmse = 114.17\nsamples = 25\nvalue = 20.48", fillcolor="#e5813906"] ;
114 -> 120 ;
121 [label="mse = 98.81\nsamples = 11\nvalue = 26.909", fillcolor="#e5813908"] ;
120 -> 121 ;
122 [label="temp <= -1.386\nmse = 68.245\nsamples = 14\nvalue = 15.429", fillcolor="#e5813904"] ;
120 -> 122 ;
123 [label="mse = 8.917\nsamples = 6\nvalue = 11.5", fillcolor="#e5813903"] ;
122 -> 123 ;
124 [label="mse = 92.484\nsamples = 8\nvalue = 18.375", fillcolor="#e5813905"] ;
122 -> 124 ;
125 [label="mse = 185.506\nsamples = 9\nvalue = 32.222", fillcolor="#e581390a"] ;
113 -> 125 ;
126 [label="hour <= -1.018\nmse = 38.802\nsamples = 264\nvalue = 6.197", fillcolor="#e5813902"] ;
112 -> 126 ;
127 [label="hour <= -1.452\nmse = 14.806\nsamples = 205\nvalue = 4.361", fillcolor="#e5813901"] ;
126 -> 127 ;
128 [label="year <= 2011.5\nmse = 22.448\nsamples = 63\nvalue = 7.111", fillcolor="#e5813902"] ;
127 -> 128 ;
129 [label="temp <= -0.913\nmse = 9.482\nsamples = 35\nvalue = 5.343", fillcolor="#e5813901"] ;
128 -> 129 ;
130 [label="windspeed <= 17.001\nmse = 4.602\nsamples = 28\nvalue = 4.571", fillcolor="#e5813901"] ;
129 -> 130 ;
131 [label="humidity <= 63.0\nmse = 4.027\nsamples = 21\nvalue = 5.143", fillcolor="#e5813901"] ;
130 -> 131 ;
132 [label="mse = 4.609\nsamples = 8\nvalue = 5.875", fillcolor="#e5813901"] ;
131 -> 132 ;
133 [label="humidity <= 71.5\nmse = 3.136\nsamples = 13\nvalue = 4.692", fillcolor="#e5813901"] ;
131 -> 133 ;
134 [label="mse = 3.139\nsamples = 6\nvalue = 3.833", fillcolor="#e5813901"] ;
133 -> 134 ;
135 [label="mse = 1.959\nsamples = 7\nvalue = 5.429", fillcolor="#e5813901"] ;
133 -> 135 ;
136 [label="mse = 2.408\nsamples = 7\nvalue = 2.857", fillcolor="#e5813900"] ;
130 -> 136 ;
137 [label="mse = 17.102\nsamples = 7\nvalue = 8.429", fillcolor="#e5813902"] ;
129 -> 137 ;
138 [label="temp <= -1.176\nmse = 29.861\nsamples = 28\nvalue = 9.321", fillcolor="#e5813902"] ;
128 -> 138 ;
139 [label="mse = 4.876\nsamples = 11\nvalue = 6.182", fillcolor="#e5813902"] ;
138 -> 139 ;
140 [label="humidity <= 64.0\nmse = 35.522\nsamples = 17\nvalue = 11.353", fillcolor="#e5813903"] ;
138 -> 140 ;
141 [label="mse = 36.099\nsamples = 9\nvalue = 12.889", fillcolor="#e5813904"] ;
140 -> 141 ;
142 [label="mse = 29.234\nsamples = 8\nvalue = 9.625", fillcolor="#e5813903"] ;
140 -> 142 ;
143 [label="temp <= -0.65\nmse = 6.572\nsamples = 142\nvalue = 3.141", fillcolor="#e5813901"] ;
127 -> 143 ;
144 [label="temp <= -1.071\nmse = 2.213\nsamples = 114\nvalue = 2.544", fillcolor="#e5813900"] ;
143 -> 144 ;
145 [label="year <= 2011.5\nmse = 1.651\nsamples = 83\nvalue = 2.289", fillcolor="#e5813900"] ;
144 -> 145 ;
146 [label="temp <= -1.386\nmse = 1.415\nsamples = 48\nvalue = 2.042", fillcolor="#e5813900"] ;
145 -> 146 ;
147 [label="hour <= -1.307\nmse = 0.893\nsamples = 37\nvalue = 1.838", fillcolor="#e5813900"] ;
146 -> 147 ;
148 [label="mse = 0.639\nsamples = 13\nvalue = 2.231", fillcolor="#e5813900"] ;
147 -> 148 ;
149 [label="mse = 0.901\nsamples = 24\nvalue = 1.625", fillcolor="#e5813900"] ;
147 -> 149 ;
150 [label="mse = 2.562\nsamples = 11\nvalue = 2.727", fillcolor="#e5813900"] ;
146 -> 150 ;
151 [label="temp <= -1.281\nmse = 1.776\nsamples = 35\nvalue = 2.629", fillcolor="#e5813900"] ;
145 -> 151 ;
152 [label="temp <= -1.913\nmse = 1.754\nsamples = 25\nvalue = 2.92", fillcolor="#e5813900"] ;
151 -> 152 ;
153 [label="mse = 1.139\nsamples = 6\nvalue = 1.833", fillcolor="#e5813900"] ;
152 -> 153 ;
154 [label="mse = 1.457\nsamples = 19\nvalue = 3.263", fillcolor="#e5813901"] ;
152 -> 154 ;
155 [label="mse = 1.09\nsamples = 10\nvalue = 1.9", fillcolor="#e5813900"] ;
151 -> 155 ;
156 [label="hour <= -1.307\nmse = 3.078\nsamples = 31\nvalue = 3.226", fillcolor="#e5813901"] ;
144 -> 156 ;
157 [label="mse = 4.69\nsamples = 10\nvalue = 4.1", fillcolor="#e5813901"] ;
156 -> 157 ;
158 [label="windspeed <= 12.0\nmse = 1.773\nsamples = 21\nvalue = 2.81", fillcolor="#e5813900"] ;
156 -> 158 ;
159 [label="mse = 0.444\nsamples = 9\nvalue = 2.0", fillcolor="#e5813900"] ;
158 -> 159 ;
160 [label="hour <= -1.163\nmse = 1.91\nsamples = 12\nvalue = 3.417", fillcolor="#e5813901"] ;
158 -> 160 ;
161 [label="mse = 2.667\nsamples = 6\nvalue = 4.0", fillcolor="#e5813901"] ;
160 -> 161 ;
162 [label="mse = 0.472\nsamples = 6\nvalue = 2.833", fillcolor="#e5813900"] ;
160 -> 162 ;
163 [label="hour <= -1.307\nmse = 16.959\nsamples = 28\nvalue = 5.571", fillcolor="#e5813901"] ;
143 -> 163 ;
164 [label="mse = 13.339\nsamples = 11\nvalue = 8.455", fillcolor="#e5813902"] ;
163 -> 164 ;
165 [label="windspeed <= 18.0\nmse = 10.443\nsamples = 17\nvalue = 3.706", fillcolor="#e5813901"] ;
163 -> 165 ;
166 [label="mse = 14.083\nsamples = 11\nvalue = 3.909", fillcolor="#e5813901"] ;
165 -> 166 ;
167 [label="mse = 3.556\nsamples = 6\nvalue = 3.333", fillcolor="#e5813901"] ;
165 -> 167 ;
168 [label="year <= 2011.5\nmse = 69.77\nsamples = 59\nvalue = 12.576", fillcolor="#e5813904"] ;
126 -> 168 ;
169 [label="temp <= -1.386\nmse = 9.713\nsamples = 31\nvalue = 5.645", fillcolor="#e5813901"] ;
168 -> 169 ;
170 [label="windspeed <= 16.0\nmse = 4.793\nsamples = 22\nvalue = 4.545", fillcolor="#e5813901"] ;
169 -> 170 ;
171 [label="temp <= -1.807\nmse = 3.776\nsamples = 14\nvalue = 5.286", fillcolor="#e5813901"] ;
170 -> 171 ;
172 [label="mse = 1.889\nsamples = 6\nvalue = 4.667", fillcolor="#e5813901"] ;
171 -> 172 ;
173 [label="mse = 4.688\nsamples = 8\nvalue = 5.75", fillcolor="#e5813901"] ;
171 -> 173 ;
174 [label="mse = 3.938\nsamples = 8\nvalue = 3.25", fillcolor="#e5813901"] ;
170 -> 174 ;
175 [label="mse = 11.556\nsamples = 9\nvalue = 8.333", fillcolor="#e5813902"] ;
169 -> 175 ;
176 [label="temp <= -0.65\nmse = 24.188\nsamples = 28\nvalue = 20.25", fillcolor="#e5813906"] ;
168 -> 176 ;
177 [label="windspeed <= 10.0\nmse = 14.68\nsamples = 21\nvalue = 18.714", fillcolor="#e5813905"] ;
176 -> 177 ;
178 [label="mse = 14.49\nsamples = 10\nvalue = 20.1", fillcolor="#e5813906"] ;
177 -> 178 ;
179 [label="mse = 11.521\nsamples = 11\nvalue = 17.455", fillcolor="#e5813905"] ;
177 -> 179 ;
180 [label="mse = 24.408\nsamples = 7\nvalue = 24.857", fillcolor="#e5813907"] ;
176 -> 180 ;
181 [label="year <= 2011.5\nmse = 441.209\nsamples = 467\nvalue = 16.649", fillcolor="#e5813905"] ;
111 -> 181 ;
182 [label="hour <= -1.597\nmse = 286.549\nsamples = 225\nvalue = 13.142", fillcolor="#e5813904"] ;
181 -> 182 ;
183 [label="temp <= -0.334\nmse = 827.908\nsamples = 33\nvalue = 32.97", fillcolor="#e581390a"] ;
182 -> 183 ;
184 [label="temp <= -0.965\nmse = 120.876\nsamples = 22\nvalue = 24.182", fillcolor="#e5813907"] ;
183 -> 184 ;
185 [label="mse = 59.556\nsamples = 9\nvalue = 20.0", fillcolor="#e5813906"] ;
184 -> 185 ;
186 [label="humidity <= 84.5\nmse = 142.84\nsamples = 13\nvalue = 27.077", fillcolor="#e5813908"] ;
184 -> 186 ;
187 [label="mse = 119.556\nsamples = 6\nvalue = 36.667", fillcolor="#e581390b"] ;
186 -> 187 ;
188 [label="mse = 16.408\nsamples = 7\nvalue = 18.857", fillcolor="#e5813905"] ;
186 -> 188 ;
189 [label="mse = 1778.612\nsamples = 11\nvalue = 50.545", fillcolor="#e581390f"] ;
183 -> 189 ;
190 [label="temp <= -0.439\nmse = 114.32\nsamples = 192\nvalue = 9.734", fillcolor="#e5813903"] ;
182 -> 190 ;
191 [label="hour <= -1.018\nmse = 52.833\nsamples = 130\nvalue = 8.462", fillcolor="#e5813902"] ;
190 -> 191 ;
192 [label="hour <= -1.452\nmse = 14.066\nsamples = 104\nvalue = 5.673", fillcolor="#e5813901"] ;
191 -> 192 ;
193 [label="season <= 3.0\nmse = 15.107\nsamples = 21\nvalue = 9.19", fillcolor="#e5813902"] ;
192 -> 193 ;
194 [label="mse = 15.347\nsamples = 7\nvalue = 6.714", fillcolor="#e5813902"] ;
193 -> 194 ;
195 [label="temp <= -0.965\nmse = 10.388\nsamples = 14\nvalue = 10.429", fillcolor="#e5813903"] ;
193 -> 195 ;
196 [label="mse = 8.694\nsamples = 7\nvalue = 9.143", fillcolor="#e5813902"] ;
195 -> 196 ;
197 [label="mse = 8.776\nsamples = 7\nvalue = 11.714", fillcolor="#e5813903"] ;
195 -> 197 ;
198 [label="hour <= -1.307\nmse = 9.881\nsamples = 83\nvalue = 4.783", fillcolor="#e5813901"] ;
192 -> 198 ;
199 [label="humidity <= 78.0\nmse = 14.423\nsamples = 30\nvalue = 5.9", fillcolor="#e5813901"] ;
198 -> 199 ;
200 [label="temp <= -0.86\nmse = 15.571\nsamples = 18\nvalue = 7.389", fillcolor="#e5813902"] ;
199 -> 200 ;
201 [label="mse = 10.444\nsamples = 9\nvalue = 7.0", fillcolor="#e5813902"] ;
200 -> 201 ;
202 [label="mse = 20.395\nsamples = 9\nvalue = 7.778", fillcolor="#e5813902"] ;
200 -> 202 ;
203 [label="mse = 4.389\nsamples = 12\nvalue = 3.667", fillcolor="#e5813901"] ;
199 -> 203 ;
204 [label="temp <= -0.86\nmse = 6.204\nsamples = 53\nvalue = 4.151", fillcolor="#e5813901"] ;
198 -> 204 ;
205 [label="temp <= -1.123\nmse = 2.766\nsamples = 29\nvalue = 3.31", fillcolor="#e5813901"] ;
204 -> 205 ;
206 [label="mse = 2.498\nsamples = 17\nvalue = 2.824", fillcolor="#e5813900"] ;
205 -> 206 ;
207 [label="mse = 2.333\nsamples = 12\nvalue = 4.0", fillcolor="#e5813901"] ;
205 -> 207 ;
208 [label="season <= 3.5\nmse = 8.472\nsamples = 24\nvalue = 5.167", fillcolor="#e5813901"] ;
204 -> 208 ;
209 [label="mse = 8.438\nsamples = 13\nvalue = 3.846", fillcolor="#e5813901"] ;
208 -> 209 ;
210 [label="mse = 4.017\nsamples = 11\nvalue = 6.727", fillcolor="#e5813902"] ;
208 -> 210 ;
211 [label="season <= 2.5\nmse = 52.391\nsamples = 26\nvalue = 19.615", fillcolor="#e5813906"] ;
191 -> 211 ;
212 [label="mse = 39.29\nsamples = 10\nvalue = 13.1", fillcolor="#e5813904"] ;
211 -> 212 ;
213 [label="temp <= -1.123\nmse = 17.465\nsamples = 16\nvalue = 23.688", fillcolor="#e5813907"] ;
211 -> 213 ;
214 [label="mse = 19.806\nsamples = 6\nvalue = 21.167", fillcolor="#e5813906"] ;
213 -> 214 ;
215 [label="mse = 9.96\nsamples = 10\nvalue = 25.2", fillcolor="#e5813907"] ;
213 -> 215 ;
216 [label="humidity <= 79.5\nmse = 232.725\nsamples = 62\nvalue = 12.403", fillcolor="#e5813903"] ;
190 -> 216 ;
217 [label="hour <= -1.452\nmse = 438.582\nsamples = 25\nvalue = 17.24", fillcolor="#e5813905"] ;
216 -> 217 ;
218 [label="mse = 1233.347\nsamples = 7\nvalue = 28.714", fillcolor="#e5813909"] ;
217 -> 218 ;
219 [label="hour <= -1.018\nmse = 58.395\nsamples = 18\nvalue = 12.778", fillcolor="#e5813904"] ;
217 -> 219 ;
220 [label="mse = 24.222\nsamples = 12\nvalue = 8.333", fillcolor="#e5813902"] ;
219 -> 220 ;
221 [label="mse = 8.222\nsamples = 6\nvalue = 21.667", fillcolor="#e5813906"] ;
219 -> 221 ;
222 [label="hour <= -1.018\nmse = 67.144\nsamples = 37\nvalue = 9.135", fillcolor="#e5813902"] ;
216 -> 222 ;
223 [label="hour <= -1.452\nmse = 17.599\nsamples = 27\nvalue = 5.741", fillcolor="#e5813901"] ;
222 -> 223 ;
224 [label="mse = 25.0\nsamples = 6\nvalue = 11.0", fillcolor="#e5813903"] ;
223 -> 224 ;
225 [label="hour <= -1.163\nmse = 5.324\nsamples = 21\nvalue = 4.238", fillcolor="#e5813901"] ;
223 -> 225 ;
226 [label="windspeed <= 10.0\nmse = 5.633\nsamples = 13\nvalue = 4.538", fillcolor="#e5813901"] ;
225 -> 226 ;
227 [label="mse = 6.531\nsamples = 7\nvalue = 5.429", fillcolor="#e5813901"] ;
226 -> 227 ;
228 [label="mse = 2.583\nsamples = 6\nvalue = 3.5", fillcolor="#e5813901"] ;
226 -> 228 ;
229 [label="mse = 4.438\nsamples = 8\nvalue = 3.75", fillcolor="#e5813901"] ;
225 -> 229 ;
230 [label="mse = 85.81\nsamples = 10\nvalue = 18.3", fillcolor="#e5813905"] ;
222 -> 230 ;
231 [label="hour <= -1.597\nmse = 562.942\nsamples = 242\nvalue = 19.909", fillcolor="#e5813906"] ;
181 -> 231 ;
232 [label="windspeed <= 16.0\nmse = 1829.925\nsamples = 37\nvalue = 46.514", fillcolor="#e581390e"] ;
231 -> 232 ;
233 [label="season <= 3.0\nmse = 316.106\nsamples = 28\nvalue = 40.464", fillcolor="#e581390c"] ;
232 -> 233 ;
234 [label="mse = 564.204\nsamples = 7\nvalue = 47.286", fillcolor="#e581390e"] ;
233 -> 234 ;
235 [label="windspeed <= 8.0\nmse = 212.726\nsamples = 21\nvalue = 38.19", fillcolor="#e581390b"] ;
233 -> 235 ;
236 [label="mse = 174.727\nsamples = 11\nvalue = 44.0", fillcolor="#e581390d"] ;
235 -> 236 ;
237 [label="mse = 176.56\nsamples = 10\nvalue = 31.8", fillcolor="#e5813909"] ;
235 -> 237 ;
238 [label="mse = 6071.556\nsamples = 9\nvalue = 65.333", fillcolor="#e5813914"] ;
232 -> 238 ;
239 [label="hour <= -1.018\nmse = 183.462\nsamples = 205\nvalue = 15.107", fillcolor="#e5813904"] ;
231 -> 239 ;
240 [label="hour <= -1.452\nmse = 123.645\nsamples = 162\nvalue = 10.722", fillcolor="#e5813903"] ;
239 -> 240 ;
241 [label="temp <= -1.071\nmse = 220.694\nsamples = 40\nvalue = 19.575", fillcolor="#e5813906"] ;
240 -> 241 ;
242 [label="mse = 607.188\nsamples = 8\nvalue = 28.75", fillcolor="#e5813909"] ;
241 -> 242 ;
243 [label="windspeed <= 14.0\nmse = 97.765\nsamples = 32\nvalue = 17.281", fillcolor="#e5813905"] ;
241 -> 243 ;
244 [label="humidity <= 76.0\nmse = 113.357\nsamples = 22\nvalue = 19.773", fillcolor="#e5813906"] ;
243 -> 244 ;
245 [label="humidity <= 63.5\nmse = 135.076\nsamples = 12\nvalue = 24.083", fillcolor="#e5813907"] ;
244 -> 245 ;
246 [label="mse = 200.139\nsamples = 6\nvalue = 24.833", fillcolor="#e5813907"] ;
245 -> 246 ;
247 [label="mse = 68.889\nsamples = 6\nvalue = 23.333", fillcolor="#e5813907"] ;
245 -> 247 ;
248 [label="mse = 38.24\nsamples = 10\nvalue = 14.6", fillcolor="#e5813904"] ;
244 -> 248 ;
249 [label="mse = 19.76\nsamples = 10\nvalue = 11.8", fillcolor="#e5813903"] ;
243 -> 249 ;
250 [label="hour <= -1.307\nmse = 57.705\nsamples = 122\nvalue = 7.82", fillcolor="#e5813902"] ;
240 -> 250 ;
251 [label="humidity <= 58.5\nmse = 136.209\nsamples = 40\nvalue = 10.875", fillcolor="#e5813903"] ;
250 -> 251 ;
252 [label="season <= 3.0\nmse = 358.917\nsamples = 12\nvalue = 15.5", fillcolor="#e5813904"] ;
251 -> 252 ;
253 [label="mse = 90.333\nsamples = 6\nvalue = 11.0", fillcolor="#e5813903"] ;
252 -> 253 ;
254 [label="mse = 587.0\nsamples = 6\nvalue = 20.0", fillcolor="#e5813906"] ;
252 -> 254 ;
255 [label="windspeed <= 14.0\nmse = 27.667\nsamples = 28\nvalue = 8.893", fillcolor="#e5813902"] ;
251 -> 255 ;
256 [label="humidity <= 76.5\nmse = 29.38\nsamples = 22\nvalue = 9.727", fillcolor="#e5813903"] ;
255 -> 256 ;
257 [label="mse = 31.207\nsamples = 13\nvalue = 11.154", fillcolor="#e5813903"] ;
256 -> 257 ;
258 [label="mse = 19.556\nsamples = 9\nvalue = 7.667", fillcolor="#e5813902"] ;
256 -> 258 ;
259 [label="mse = 9.472\nsamples = 6\nvalue = 5.833", fillcolor="#e5813901"] ;
255 -> 259 ;
260 [label="season <= 2.5\nmse = 12.635\nsamples = 82\nvalue = 6.329", fillcolor="#e5813902"] ;
250 -> 260 ;
261 [label="temp <= -0.229\nmse = 14.11\nsamples = 27\nvalue = 4.963", fillcolor="#e5813901"] ;
260 -> 261 ;
262 [label="temp <= -0.755\nmse = 6.139\nsamples = 18\nvalue = 3.833", fillcolor="#e5813901"] ;
261 -> 262 ;
263 [label="mse = 11.265\nsamples = 7\nvalue = 4.857", fillcolor="#e5813901"] ;
262 -> 263 ;
264 [label="mse = 1.785\nsamples = 11\nvalue = 3.182", fillcolor="#e5813901"] ;
262 -> 264 ;
265 [label="mse = 22.395\nsamples = 9\nvalue = 7.222", fillcolor="#e5813902"] ;
261 -> 265 ;
266 [label="humidity <= 54.0\nmse = 10.545\nsamples = 55\nvalue = 7.0", fillcolor="#e5813902"] ;
260 -> 266 ;
267 [label="mse = 6.917\nsamples = 6\nvalue = 11.5", fillcolor="#e5813903"] ;
266 -> 267 ;
268 [label="hour <= -1.163\nmse = 8.207\nsamples = 49\nvalue = 6.449", fillcolor="#e5813902"] ;
266 -> 268 ;
269 [label="mse = 10.09\nsamples = 25\nvalue = 5.48", fillcolor="#e5813901"] ;
268 -> 269 ;
270 [label="mse = 4.248\nsamples = 24\nvalue = 7.458", fillcolor="#e5813902"] ;
268 -> 270 ;
271 [label="windspeed <= 6.502\nmse = 63.443\nsamples = 43\nvalue = 31.628", fillcolor="#e5813909"] ;
239 -> 271 ;
272 [label="temp <= -0.334\nmse = 32.379\nsamples = 13\nvalue = 35.923", fillcolor="#e581390b"] ;
271 -> 272 ;
273 [label="mse = 26.122\nsamples = 7\nvalue = 32.857", fillcolor="#e581390a"] ;
272 -> 273 ;
274 [label="mse = 15.917\nsamples = 6\nvalue = 39.5", fillcolor="#e581390c"] ;
272 -> 274 ;
275 [label="season <= 3.0\nmse = 65.446\nsamples = 30\nvalue = 29.767", fillcolor="#e5813909"] ;
271 -> 275 ;
276 [label="windspeed <= 14.0\nmse = 22.495\nsamples = 14\nvalue = 26.071", fillcolor="#e5813908"] ;
275 -> 276 ;
277 [label="mse = 26.359\nsamples = 8\nvalue = 27.875", fillcolor="#e5813908"] ;
276 -> 277 ;
278 [label="mse = 7.222\nsamples = 6\nvalue = 23.667", fillcolor="#e5813907"] ;
276 -> 278 ;
279 [label="humidity <= 68.0\nmse = 80.625\nsamples = 16\nvalue = 33.0", fillcolor="#e581390a"] ;
275 -> 279 ;
280 [label="mse = 60.56\nsamples = 10\nvalue = 35.8", fillcolor="#e581390b"] ;
279 -> 280 ;
281 [label="mse = 79.222\nsamples = 6\nvalue = 28.333", fillcolor="#e5813908"] ;
279 -> 281 ;
282 [label="workingday <= 0.5\nmse = 2456.257\nsamples = 227\nvalue = 62.537", fillcolor="#e5813913"] ;
2 -> 282 ;
283 [label="season <= 1.5\nmse = 184.568\nsamples = 81\nvalue = 15.444", fillcolor="#e5813904"] ;
282 -> 283 ;
284 [label="year <= 2011.5\nmse = 32.407\nsamples = 29\nvalue = 6.276", fillcolor="#e5813902"] ;
283 -> 284 ;
285 [label="windspeed <= 14.0\nmse = 6.249\nsamples = 13\nvalue = 3.462", fillcolor="#e5813901"] ;
284 -> 285 ;
286 [label="mse = 2.472\nsamples = 6\nvalue = 2.833", fillcolor="#e5813900"] ;
285 -> 286 ;
287 [label="mse = 8.857\nsamples = 7\nvalue = 4.0", fillcolor="#e5813901"] ;
285 -> 287 ;
288 [label="humidity <= 53.0\nmse = 41.996\nsamples = 16\nvalue = 8.562", fillcolor="#e5813902"] ;
284 -> 288 ;
289 [label="mse = 12.222\nsamples = 6\nvalue = 5.667", fillcolor="#e5813901"] ;
288 -> 289 ;
290 [label="mse = 51.81\nsamples = 10\nvalue = 10.3", fillcolor="#e5813903"] ;
288 -> 290 ;
291 [label="temp <= -1.176\nmse = 196.401\nsamples = 52\nvalue = 20.558", fillcolor="#e5813906"] ;
283 -> 291 ;
292 [label="windspeed <= 8.0\nmse = 41.689\nsamples = 15\nvalue = 13.333", fillcolor="#e5813904"] ;
291 -> 292 ;
293 [label="mse = 12.484\nsamples = 8\nvalue = 11.375", fillcolor="#e5813903"] ;
292 -> 293 ;
294 [label="mse = 65.673\nsamples = 7\nvalue = 15.571", fillcolor="#e5813904"] ;
292 -> 294 ;
295 [label="year <= 2011.5\nmse = 229.385\nsamples = 37\nvalue = 23.486", fillcolor="#e5813907"] ;
291 -> 295 ;
296 [label="season <= 3.5\nmse = 165.717\nsamples = 19\nvalue = 20.421", fillcolor="#e5813906"] ;
295 -> 296 ;
297 [label="mse = 165.76\nsamples = 10\nvalue = 16.8", fillcolor="#e5813905"] ;
296 -> 297 ;
298 [label="mse = 134.914\nsamples = 9\nvalue = 24.444", fillcolor="#e5813907"] ;
296 -> 298 ;
299 [label="windspeed <= 8.0\nmse = 276.201\nsamples = 18\nvalue = 26.722", fillcolor="#e5813908"] ;
295 -> 299 ;
300 [label="mse = 435.24\nsamples = 10\nvalue = 31.4", fillcolor="#e5813909"] ;
299 -> 300 ;
301 [label="mse = 15.859\nsamples = 8\nvalue = 20.875", fillcolor="#e5813906"] ;
299 -> 301 ;
302 [label="year <= 2011.5\nmse = 1803.565\nsamples = 146\nvalue = 88.664", fillcolor="#e581391b"] ;
282 -> 302 ;
303 [label="temp <= -1.123\nmse = 970.755\nsamples = 71\nvalue = 60.549", fillcolor="#e5813912"] ;
302 -> 303 ;
304 [label="season <= 3.0\nmse = 415.901\nsamples = 33\nvalue = 43.091", fillcolor="#e581390d"] ;
303 -> 304 ;
305 [label="temp <= -1.913\nmse = 79.581\nsamples = 26\nvalue = 33.731", fillcolor="#e581390a"] ;
304 -> 305 ;
306 [label="mse = 62.472\nsamples = 6\nvalue = 28.167", fillcolor="#e5813908"] ;
305 -> 306 ;
307 [label="temp <= -1.386\nmse = 72.64\nsamples = 20\nvalue = 35.4", fillcolor="#e581390b"] ;
305 -> 307 ;
308 [label="windspeed <= 16.0\nmse = 48.714\nsamples = 14\nvalue = 34.0", fillcolor="#e581390a"] ;
307 -> 308 ;
309 [label="mse = 51.5\nsamples = 8\nvalue = 32.0", fillcolor="#e581390a"] ;
308 -> 309 ;
310 [label="mse = 32.556\nsamples = 6\nvalue = 36.667", fillcolor="#e581390b"] ;
308 -> 310 ;
311 [label="mse = 113.222\nsamples = 6\nvalue = 38.667", fillcolor="#e581390c"] ;
307 -> 311 ;
312 [label="mse = 130.98\nsamples = 7\nvalue = 77.857", fillcolor="#e5813918"] ;
304 -> 312 ;
313 [label="windspeed <= 18.0\nmse = 958.048\nsamples = 38\nvalue = 75.711", fillcolor="#e5813917"] ;
303 -> 313 ;
314 [label="season <= 2.5\nmse = 598.418\nsamples = 31\nvalue = 84.968", fillcolor="#e581391a"] ;
313 -> 314 ;
315 [label="temp <= -0.439\nmse = 646.571\nsamples = 14\nvalue = 71.0", fillcolor="#e5813916"] ;
314 -> 315 ;
316 [label="mse = 402.122\nsamples = 7\nvalue = 57.857", fillcolor="#e5813912"] ;
315 -> 316 ;
317 [label="mse = 545.551\nsamples = 7\nvalue = 84.143", fillcolor="#e581391a"] ;
315 -> 317 ;
318 [label="windspeed <= 6.502\nmse = 265.779\nsamples = 17\nvalue = 96.471", fillcolor="#e581391e"] ;
314 -> 318 ;
319 [label="mse = 261.0\nsamples = 8\nvalue = 86.5", fillcolor="#e581391b"] ;
318 -> 319 ;
320 [label="mse = 103.111\nsamples = 9\nvalue = 105.333", fillcolor="#e5813920"] ;
318 -> 320 ;
321 [label="mse = 490.49\nsamples = 7\nvalue = 34.714", fillcolor="#e581390a"] ;
313 -> 321 ;
322 [label="season <= 1.5\nmse = 1135.268\nsamples = 75\nvalue = 115.28", fillcolor="#e5813924"] ;
302 -> 322 ;
323 [label="temp <= -0.597\nmse = 230.628\nsamples = 29\nvalue = 86.69", fillcolor="#e581391b"] ;
322 -> 323 ;
324 [label="humidity <= 71.5\nmse = 143.341\nsamples = 22\nvalue = 82.5", fillcolor="#e5813919"] ;
323 -> 324 ;
325 [label="humidity <= 59.5\nmse = 106.25\nsamples = 12\nvalue = 89.5", fillcolor="#e581391b"] ;
324 -> 325 ;
326 [label="mse = 124.583\nsamples = 6\nvalue = 85.5", fillcolor="#e581391a"] ;
325 -> 326 ;
327 [label="mse = 55.917\nsamples = 6\nvalue = 93.5", fillcolor="#e581391d"] ;
325 -> 327 ;
328 [label="mse = 58.49\nsamples = 10\nvalue = 74.1", fillcolor="#e5813917"] ;
324 -> 328 ;
329 [label="mse = 276.408\nsamples = 7\nvalue = 99.857", fillcolor="#e581391f"] ;
323 -> 329 ;
330 [label="temp <= -0.65\nmse = 865.386\nsamples = 46\nvalue = 133.304", fillcolor="#e5813929"] ;
322 -> 330 ;
331 [label="temp <= -0.86\nmse = 527.418\nsamples = 27\nvalue = 118.63", fillcolor="#e5813925"] ;
330 -> 331 ;
332 [label="humidity <= 56.5\nmse = 524.125\nsamples = 17\nvalue = 111.412", fillcolor="#e5813922"] ;
331 -> 332 ;
333 [label="mse = 104.139\nsamples = 6\nvalue = 120.833", fillcolor="#e5813925"] ;
332 -> 333 ;
334 [label="mse = 678.38\nsamples = 11\nvalue = 106.273", fillcolor="#e5813921"] ;
332 -> 334 ;
335 [label="mse = 293.89\nsamples = 10\nvalue = 130.9", fillcolor="#e5813928"] ;
331 -> 335 ;
336 [label="temp <= -0.334\nmse = 604.765\nsamples = 19\nvalue = 154.158", fillcolor="#e5813930"] ;
330 -> 336 ;
337 [label="mse = 477.959\nsamples = 7\nvalue = 142.429", fillcolor="#e581392c"] ;
336 -> 337 ;
338 [label="windspeed <= 8.0\nmse = 551.667\nsamples = 12\nvalue = 161.0", fillcolor="#e5813932"] ;
336 -> 338 ;
339 [label="mse = 454.0\nsamples = 6\nvalue = 169.0", fillcolor="#e5813934"] ;
338 -> 339 ;
340 [label="mse = 521.333\nsamples = 6\nvalue = 153.0", fillcolor="#e581392f"] ;
338 -> 340 ;
341 [label="year <= 2011.5\nmse = 19269.868\nsamples = 2800\nvalue = 184.169", fillcolor="#e5813939"] ;
1 -> 341 ;
342 [label="season <= 2.5\nmse = 9298.453\nsamples = 1441\nvalue = 130.795", fillcolor="#e5813928"] ;
341 -> 342 ;
343 [label="temp <= -0.439\nmse = 5207.94\nsamples = 938\nvalue = 102.287", fillcolor="#e581391f"] ;
342 -> 343 ;
344 [label="hour <= 1.151\nmse = 3525.498\nsamples = 747\nvalue = 89.573", fillcolor="#e581391c"] ;
343 -> 344 ;
345 [label="hour <= 0.717\nmse = 3781.284\nsamples = 562\nvalue = 102.569", fillcolor="#e5813920"] ;
344 -> 345 ;
346 [label="hour <= -0.295\nmse = 3321.03\nsamples = 441\nvalue = 93.163", fillcolor="#e581391d"] ;
345 -> 346 ;
347 [label="hour <= -0.584\nmse = 6103.612\nsamples = 162\nvalue = 111.259", fillcolor="#e5813922"] ;
346 -> 347 ;
348 [label="workingday <= 0.5\nmse = 3405.659\nsamples = 57\nvalue = 77.246", fillcolor="#e5813918"] ;
347 -> 348 ;
349 [label="temp <= -1.071\nmse = 1009.219\nsamples = 19\nvalue = 18.789", fillcolor="#e5813905"] ;
348 -> 349 ;
350 [label="humidity <= 67.5\nmse = 36.688\nsamples = 12\nvalue = 9.25", fillcolor="#e5813902"] ;
349 -> 350 ;
351 [label="mse = 13.139\nsamples = 6\nvalue = 7.167", fillcolor="#e5813902"] ;
350 -> 351 ;
352 [label="mse = 51.556\nsamples = 6\nvalue = 11.333", fillcolor="#e5813903"] ;
350 -> 352 ;
353 [label="mse = 2252.98\nsamples = 7\nvalue = 35.143", fillcolor="#e581390b"] ;
349 -> 353 ;
354 [label="season <= 1.5\nmse = 2041.039\nsamples = 38\nvalue = 106.474", fillcolor="#e5813921"] ;
348 -> 354 ;
355 [label="temp <= -1.702\nmse = 599.132\nsamples = 29\nvalue = 94.379", fillcolor="#e581391d"] ;
354 -> 355 ;
356 [label="mse = 225.667\nsamples = 12\nvalue = 84.0", fillcolor="#e581391a"] ;
355 -> 356 ;
357 [label="windspeed <= 12.0\nmse = 733.031\nsamples = 17\nvalue = 101.706", fillcolor="#e581391f"] ;
355 -> 357 ;
358 [label="mse = 448.984\nsamples = 8\nvalue = 115.375", fillcolor="#e5813924"] ;
357 -> 358 ;
359 [label="mse = 671.802\nsamples = 9\nvalue = 89.556", fillcolor="#e581391c"] ;
357 -> 359 ;
360 [label="mse = 4697.136\nsamples = 9\nvalue = 145.444", fillcolor="#e581392d"] ;
354 -> 360 ;
361 [label="hour <= -0.44\nmse = 6599.228\nsamples = 105\nvalue = 129.724", fillcolor="#e5813928"] ;
347 -> 361 ;
362 [label="workingday <= 0.5\nmse = 9707.115\nsamples = 52\nvalue = 155.0", fillcolor="#e5813930"] ;
361 -> 362 ;
363 [label="temp <= -1.281\nmse = 308.879\nsamples = 17\nvalue = 31.941", fillcolor="#e581390a"] ;
362 -> 363 ;
364 [label="mse = 49.984\nsamples = 8\nvalue = 17.375", fillcolor="#e5813905"] ;
363 -> 364 ;
365 [label="mse = 182.765\nsamples = 9\nvalue = 44.889", fillcolor="#e581390e"] ;
363 -> 365 ;
366 [label="windspeed <= 18.0\nmse = 3343.948\nsamples = 35\nvalue = 214.771", fillcolor="#e5813943"] ;
362 -> 366 ;
367 [label="temp <= -1.334\nmse = 2265.702\nsamples = 22\nvalue = 231.545", fillcolor="#e5813948"] ;
366 -> 367 ;
368 [label="mse = 858.083\nsamples = 11\nvalue = 204.091", fillcolor="#e581393f"] ;
367 -> 368 ;
369 [label="mse = 2165.818\nsamples = 11\nvalue = 259.0", fillcolor="#e5813950"] ;
367 -> 369 ;
370 [label="temp <= -1.439\nmse = 3886.698\nsamples = 13\nvalue = 186.385", fillcolor="#e581393a"] ;
366 -> 370 ;
371 [label="mse = 567.061\nsamples = 7\nvalue = 198.286", fillcolor="#e581393d"] ;
370 -> 371 ;
372 [label="mse = 7401.583\nsamples = 6\nvalue = 172.5", fillcolor="#e5813935"] ;
370 -> 372 ;
373 [label="humidity <= 90.0\nmse = 2308.145\nsamples = 53\nvalue = 104.925", fillcolor="#e5813920"] ;
361 -> 373 ;
374 [label="workingday <= 0.5\nmse = 2057.793\nsamples = 43\nvalue = 112.791", fillcolor="#e5813923"] ;
373 -> 374 ;
375 [label="mse = 1313.884\nsamples = 11\nvalue = 64.545", fillcolor="#e5813914"] ;
374 -> 375 ;
376 [label="temp <= -1.281\nmse = 1238.359\nsamples = 32\nvalue = 129.375", fillcolor="#e5813928"] ;
374 -> 376 ;
377 [label="mse = 352.316\nsamples = 19\nvalue = 121.0", fillcolor="#e5813925"] ;
376 -> 377 ;
378 [label="mse = 2281.006\nsamples = 13\nvalue = 141.615", fillcolor="#e581392c"] ;
376 -> 378 ;
379 [label="mse = 1974.49\nsamples = 10\nvalue = 71.1", fillcolor="#e5813916"] ;
373 -> 379 ;
380 [label="workingday <= 0.5\nmse = 1404.792\nsamples = 279\nvalue = 82.656", fillcolor="#e5813919"] ;
346 -> 380 ;
381 [label="temp <= -1.281\nmse = 2146.848\nsamples = 82\nvalue = 113.134", fillcolor="#e5813923"] ;
380 -> 381 ;
382 [label="hour <= -0.006\nmse = 271.543\nsamples = 29\nvalue = 76.207", fillcolor="#e5813917"] ;
381 -> 382 ;
383 [label="mse = 213.653\nsamples = 11\nvalue = 64.727", fillcolor="#e5813914"] ;
382 -> 383 ;
384 [label="windspeed <= 13.001\nmse = 177.173\nsamples = 18\nvalue = 83.222", fillcolor="#e581391a"] ;
382 -> 384 ;
385 [label="mse = 195.859\nsamples = 8\nvalue = 75.875", fillcolor="#e5813917"] ;
384 -> 385 ;
386 [label="mse = 84.49\nsamples = 10\nvalue = 89.1", fillcolor="#e581391b"] ;
384 -> 386 ;
387 [label="season <= 1.5\nmse = 2018.564\nsamples = 53\nvalue = 133.34", fillcolor="#e5813929"] ;
381 -> 387 ;
388 [label="humidity <= 59.5\nmse = 1610.884\nsamples = 41\nvalue = 120.512", fillcolor="#e5813925"] ;
387 -> 388 ;
389 [label="temp <= -0.86\nmse = 707.477\nsamples = 29\nvalue = 138.379", fillcolor="#e581392b"] ;
388 -> 389 ;
390 [label="mse = 164.91\nsamples = 12\nvalue = 113.417", fillcolor="#e5813923"] ;
389 -> 390 ;
391 [label="mse = 340.118\nsamples = 17\nvalue = 156.0", fillcolor="#e5813930"] ;
389 -> 391 ;
392 [label="mse = 1158.222\nsamples = 12\nvalue = 77.333", fillcolor="#e5813918"] ;
388 -> 392 ;
393 [label="hour <= 0.066\nmse = 928.472\nsamples = 12\nvalue = 177.167", fillcolor="#e5813937"] ;
387 -> 393 ;
394 [label="mse = 722.806\nsamples = 6\nvalue = 163.167", fillcolor="#e5813932"] ;
393 -> 394 ;
395 [label="mse = 742.139\nsamples = 6\nvalue = 191.167", fillcolor="#e581393b"] ;
393 -> 395 ;
396 [label="temp <= -1.386\nmse = 548.314\nsamples = 197\nvalue = 69.97", fillcolor="#e5813915"] ;
380 -> 396 ;
397 [label="hour <= 0.572\nmse = 204.817\nsamples = 70\nvalue = 55.2", fillcolor="#e5813911"] ;
396 -> 397 ;
398 [label="temp <= -1.492\nmse = 168.944\nsamples = 64\nvalue = 53.156", fillcolor="#e5813910"] ;
397 -> 398 ;
399 [label="humidity <= 45.5\nmse = 145.785\nsamples = 44\nvalue = 49.818", fillcolor="#e581390f"] ;
398 -> 399 ;
400 [label="mse = 82.66\nsamples = 24\nvalue = 54.917", fillcolor="#e5813911"] ;
399 -> 400 ;
401 [label="mse = 152.91\nsamples = 20\nvalue = 43.7", fillcolor="#e581390d"] ;
399 -> 401 ;
402 [label="humidity <= 42.5\nmse = 141.45\nsamples = 20\nvalue = 60.5", fillcolor="#e5813912"] ;
398 -> 402 ;
403 [label="mse = 128.0\nsamples = 9\nvalue = 64.333", fillcolor="#e5813914"] ;
402 -> 403 ;
404 [label="mse = 130.595\nsamples = 11\nvalue = 57.364", fillcolor="#e5813911"] ;
402 -> 404 ;
405 [label="mse = 67.667\nsamples = 6\nvalue = 77.0", fillcolor="#e5813918"] ;
397 -> 405 ;
406 [label="humidity <= 78.5\nmse = 551.137\nsamples = 127\nvalue = 78.11", fillcolor="#e5813918"] ;
396 -> 406 ;
407 [label="hour <= 0.572\nmse = 445.749\nsamples = 112\nvalue = 81.902", fillcolor="#e5813919"] ;
406 -> 407 ;
408 [label="hour <= -0.006\nmse = 360.087\nsamples = 93\nvalue = 77.903", fillcolor="#e5813918"] ;
407 -> 408 ;
409 [label="mse = 427.878\nsamples = 22\nvalue = 66.409", fillcolor="#e5813914"] ;
408 -> 409 ;
410 [label="mse = 285.46\nsamples = 71\nvalue = 81.465", fillcolor="#e5813919"] ;
408 -> 410 ;
411 [label="temp <= -0.913\nmse = 403.723\nsamples = 19\nvalue = 101.474", fillcolor="#e581391f"] ;
407 -> 411 ;
412 [label="mse = 314.234\nsamples = 8\nvalue = 86.625", fillcolor="#e581391b"] ;
411 -> 412 ;
413 [label="mse = 191.835\nsamples = 11\nvalue = 112.273", fillcolor="#e5813923"] ;
411 -> 413 ;
414 [label="season <= 1.5\nmse = 429.227\nsamples = 15\nvalue = 49.8", fillcolor="#e581390f"] ;
406 -> 414 ;
415 [label="mse = 103.673\nsamples = 7\nvalue = 64.429", fillcolor="#e5813914"] ;
414 -> 415 ;
416 [label="mse = 363.0\nsamples = 8\nvalue = 37.0", fillcolor="#e581390b"] ;
414 -> 416 ;
417 [label="hour <= 1.006\nmse = 3961.036\nsamples = 121\nvalue = 136.851", fillcolor="#e581392a"] ;
345 -> 417 ;
418 [label="workingday <= 0.5\nmse = 4050.587\nsamples = 77\nvalue = 159.519", fillcolor="#e5813931"] ;
417 -> 418 ;
419 [label="windspeed <= 18.0\nmse = 3254.247\nsamples = 20\nvalue = 95.95", fillcolor="#e581391d"] ;
418 -> 419 ;
420 [label="mse = 4489.889\nsamples = 6\nvalue = 130.333", fillcolor="#e5813928"] ;
419 -> 420 ;
421 [label="windspeed <= 23.001\nmse = 2000.883\nsamples = 14\nvalue = 81.214", fillcolor="#e5813919"] ;
419 -> 421 ;
422 [label="mse = 435.234\nsamples = 8\nvalue = 62.625", fillcolor="#e5813913"] ;
421 -> 422 ;
423 [label="mse = 3013.333\nsamples = 6\nvalue = 106.0", fillcolor="#e5813921"] ;
421 -> 423 ;
424 [label="temp <= -0.755\nmse = 2414.566\nsamples = 57\nvalue = 181.825", fillcolor="#e5813938"] ;
418 -> 424 ;
425 [label="humidity <= 78.0\nmse = 1059.615\nsamples = 47\nvalue = 167.957", fillcolor="#e5813934"] ;
424 -> 425 ;
426 [label="temp <= -1.281\nmse = 680.939\nsamples = 41\nvalue = 174.707", fillcolor="#e5813936"] ;
425 -> 426 ;
427 [label="hour <= 0.862\nmse = 248.774\nsamples = 25\nvalue = 160.16", fillcolor="#e5813932"] ;
426 -> 427 ;
428 [label="mse = 179.806\nsamples = 12\nvalue = 168.833", fillcolor="#e5813934"] ;
427 -> 428 ;
429 [label="mse = 178.899\nsamples = 13\nvalue = 152.154", fillcolor="#e581392f"] ;
427 -> 429 ;
430 [label="windspeed <= 16.0\nmse = 508.871\nsamples = 16\nvalue = 197.438", fillcolor="#e581393d"] ;
426 -> 430 ;
431 [label="mse = 296.04\nsamples = 10\nvalue = 209.4", fillcolor="#e5813941"] ;
430 -> 431 ;
432 [label="mse = 227.583\nsamples = 6\nvalue = 177.5", fillcolor="#e5813937"] ;
430 -> 432 ;
433 [label="mse = 1208.472\nsamples = 6\nvalue = 121.833", fillcolor="#e5813926"] ;
425 -> 433 ;
434 [label="mse = 3631.2\nsamples = 10\nvalue = 247.0", fillcolor="#e581394d"] ;
424 -> 434 ;
435 [label="workingday <= 0.5\nmse = 1331.421\nsamples = 44\nvalue = 97.182", fillcolor="#e581391e"] ;
417 -> 435 ;
436 [label="humidity <= 45.0\nmse = 875.846\nsamples = 13\nvalue = 61.0", fillcolor="#e5813913"] ;
435 -> 436 ;
437 [label="mse = 244.571\nsamples = 7\nvalue = 48.0", fillcolor="#e581390f"] ;
436 -> 437 ;
438 [label="mse = 1185.139\nsamples = 6\nvalue = 76.167", fillcolor="#e5813917"] ;
436 -> 438 ;
439 [label="humidity <= 39.0\nmse = 743.261\nsamples = 31\nvalue = 112.355", fillcolor="#e5813923"] ;
435 -> 439 ;
440 [label="mse = 182.0\nsamples = 6\nvalue = 139.0", fillcolor="#e581392b"] ;
439 -> 440 ;
441 [label="temp <= -0.913\nmse = 666.678\nsamples = 25\nvalue = 105.96", fillcolor="#e5813921"] ;
439 -> 441 ;
442 [label="humidity <= 57.5\nmse = 313.141\nsamples = 19\nvalue = 95.737", fillcolor="#e581391d"] ;
441 -> 442 ;
443 [label="windspeed <= 14.0\nmse = 112.576\nsamples = 12\nvalue = 102.083", fillcolor="#e581391f"] ;
442 -> 443 ;
444 [label="mse = 91.583\nsamples = 6\nvalue = 104.5", fillcolor="#e5813920"] ;
443 -> 444 ;
445 [label="mse = 121.889\nsamples = 6\nvalue = 99.667", fillcolor="#e581391f"] ;
443 -> 445 ;
446 [label="mse = 469.551\nsamples = 7\nvalue = 84.857", fillcolor="#e581391a"] ;
442 -> 446 ;
447 [label="mse = 407.222\nsamples = 6\nvalue = 138.333", fillcolor="#e581392b"] ;
441 -> 447 ;
448 [label="hour <= 1.44\nmse = 676.592\nsamples = 185\nvalue = 50.092", fillcolor="#e581390f"] ;
344 -> 448 ;
449 [label="season <= 1.5\nmse = 649.578\nsamples = 89\nvalue = 64.292", fillcolor="#e5813914"] ;
448 -> 449 ;
450 [label="workingday <= 0.5\nmse = 555.387\nsamples = 78\nvalue = 60.846", fillcolor="#e5813913"] ;
449 -> 450 ;
451 [label="temp <= -1.071\nmse = 400.603\nsamples = 22\nvalue = 42.818", fillcolor="#e581390d"] ;
450 -> 451 ;
452 [label="humidity <= 49.0\nmse = 175.87\nsamples = 13\nvalue = 34.231", fillcolor="#e581390a"] ;
451 -> 452 ;
453 [label="mse = 148.917\nsamples = 6\nvalue = 39.5", fillcolor="#e581390c"] ;
452 -> 453 ;
454 [label="mse = 154.776\nsamples = 7\nvalue = 29.714", fillcolor="#e5813909"] ;
452 -> 454 ;
455 [label="mse = 464.84\nsamples = 9\nvalue = 55.222", fillcolor="#e5813911"] ;
451 -> 455 ;
456 [label="hour <= 1.295\nmse = 438.352\nsamples = 56\nvalue = 67.929", fillcolor="#e5813915"] ;
450 -> 456 ;
457 [label="temp <= -1.281\nmse = 400.712\nsamples = 30\nvalue = 77.567", fillcolor="#e5813918"] ;
456 -> 457 ;
458 [label="temp <= -1.492\nmse = 247.647\nsamples = 17\nvalue = 67.0", fillcolor="#e5813914"] ;
457 -> 458 ;
459 [label="mse = 282.364\nsamples = 11\nvalue = 64.0", fillcolor="#e5813914"] ;
458 -> 459 ;
460 [label="mse = 137.25\nsamples = 6\nvalue = 72.5", fillcolor="#e5813916"] ;
458 -> 460 ;
461 [label="humidity <= 47.5\nmse = 263.929\nsamples = 13\nvalue = 91.385", fillcolor="#e581391c"] ;
457 -> 461 ;
462 [label="mse = 382.776\nsamples = 7\nvalue = 97.286", fillcolor="#e581391e"] ;
461 -> 462 ;
463 [label="mse = 37.25\nsamples = 6\nvalue = 84.5", fillcolor="#e581391a"] ;
461 -> 463 ;
464 [label="temp <= -1.281\nmse = 250.925\nsamples = 26\nvalue = 56.808", fillcolor="#e5813911"] ;
456 -> 464 ;
465 [label="humidity <= 59.5\nmse = 218.116\nsamples = 15\nvalue = 53.533", fillcolor="#e5813910"] ;
464 -> 465 ;
466 [label="mse = 95.802\nsamples = 9\nvalue = 55.556", fillcolor="#e5813911"] ;
465 -> 466 ;
467 [label="mse = 386.25\nsamples = 6\nvalue = 50.5", fillcolor="#e581390f"] ;
465 -> 467 ;
468 [label="mse = 261.107\nsamples = 11\nvalue = 61.273", fillcolor="#e5813913"] ;
464 -> 468 ;
469 [label="mse = 636.198\nsamples = 11\nvalue = 88.727", fillcolor="#e581391b"] ;
449 -> 469 ;
470 [label="temp <= -1.281\nmse = 341.38\nsamples = 96\nvalue = 36.927", fillcolor="#e581390b"] ;
448 -> 470 ;
471 [label="workingday <= 0.5\nmse = 162.857\nsamples = 45\nvalue = 28.178", fillcolor="#e5813908"] ;
470 -> 471 ;
472 [label="mse = 154.43\nsamples = 11\nvalue = 18.455", fillcolor="#e5813905"] ;
471 -> 472 ;
473 [label="hour <= 1.585\nmse = 125.101\nsamples = 34\nvalue = 31.324", fillcolor="#e5813909"] ;
471 -> 473 ;
474 [label="temp <= -1.702\nmse = 71.951\nsamples = 18\nvalue = 36.778", fillcolor="#e581390b"] ;
473 -> 474 ;
475 [label="mse = 75.75\nsamples = 8\nvalue = 31.5", fillcolor="#e5813909"] ;
474 -> 475 ;
476 [label="mse = 28.8\nsamples = 10\nvalue = 41.0", fillcolor="#e581390c"] ;
474 -> 476 ;
477 [label="temp <= -1.597\nmse = 113.777\nsamples = 16\nvalue = 25.188", fillcolor="#e5813907"] ;
473 -> 477 ;
478 [label="mse = 148.359\nsamples = 8\nvalue = 27.875", fillcolor="#e5813908"] ;
477 -> 478 ;
479 [label="mse = 64.75\nsamples = 8\nvalue = 22.5", fillcolor="#e5813907"] ;
477 -> 479 ;
480 [label="season <= 1.5\nmse = 371.758\nsamples = 51\nvalue = 44.647", fillcolor="#e581390e"] ;
470 -> 480 ;
481 [label="humidity <= 78.0\nmse = 280.117\nsamples = 37\nvalue = 38.865", fillcolor="#e581390c"] ;
480 -> 481 ;
482 [label="hour <= 1.585\nmse = 281.515\nsamples = 28\nvalue = 41.643", fillcolor="#e581390d"] ;
481 -> 482 ;
483 [label="humidity <= 50.5\nmse = 210.102\nsamples = 14\nvalue = 53.571", fillcolor="#e5813910"] ;
482 -> 483 ;
484 [label="mse = 51.806\nsamples = 6\nvalue = 44.167", fillcolor="#e581390d"] ;
483 -> 484 ;
485 [label="mse = 212.734\nsamples = 8\nvalue = 60.625", fillcolor="#e5813912"] ;
483 -> 485 ;
486 [label="humidity <= 50.5\nmse = 68.347\nsamples = 14\nvalue = 29.714", fillcolor="#e5813909"] ;
482 -> 486 ;
487 [label="mse = 52.734\nsamples = 8\nvalue = 28.375", fillcolor="#e5813908"] ;
486 -> 487 ;
488 [label="mse = 83.583\nsamples = 6\nvalue = 31.5", fillcolor="#e5813909"] ;
486 -> 488 ;
489 [label="mse = 177.062\nsamples = 9\nvalue = 30.222", fillcolor="#e5813909"] ;
481 -> 489 ;
490 [label="hour <= 1.585\nmse = 292.066\nsamples = 14\nvalue = 59.929", fillcolor="#e5813912"] ;
480 -> 490 ;
491 [label="mse = 267.359\nsamples = 8\nvalue = 67.125", fillcolor="#e5813915"] ;
490 -> 491 ;
492 [label="mse = 163.889\nsamples = 6\nvalue = 50.333", fillcolor="#e581390f"] ;
490 -> 492 ;
493 [label="hour <= 1.151\nmse = 8683.34\nsamples = 191\nvalue = 152.01", fillcolor="#e581392f"] ;
343 -> 493 ;
494 [label="humidity <= 91.0\nmse = 9356.572\nsamples = 146\nvalue = 170.644", fillcolor="#e5813935"] ;
493 -> 494 ;
495 [label="humidity <= 8.0\nmse = 8714.709\nsamples = 135\nvalue = 180.711", fillcolor="#e5813938"] ;
494 -> 495 ;
496 [label="mse = 1222.98\nsamples = 7\nvalue = 47.143", fillcolor="#e581390e"] ;
495 -> 496 ;
497 [label="windspeed <= 30.502\nmse = 8095.406\nsamples = 128\nvalue = 188.016", fillcolor="#e581393a"] ;
495 -> 497 ;
498 [label="humidity <= 69.5\nmse = 8119.106\nsamples = 114\nvalue = 196.263", fillcolor="#e581393d"] ;
497 -> 498 ;
499 [label="season <= 1.5\nmse = 7012.716\nsamples = 81\nvalue = 210.272", fillcolor="#e5813941"] ;
498 -> 499 ;
500 [label="temp <= -0.229\nmse = 4356.127\nsamples = 42\nvalue = 185.667", fillcolor="#e5813939"] ;
499 -> 500 ;
501 [label="hour <= 0.717\nmse = 3958.472\nsamples = 18\nvalue = 158.5", fillcolor="#e5813931"] ;
500 -> 501 ;
502 [label="mse = 4251.58\nsamples = 9\nvalue = 134.556", fillcolor="#e581392a"] ;
501 -> 502 ;
503 [label="mse = 2518.691\nsamples = 9\nvalue = 182.444", fillcolor="#e5813938"] ;
501 -> 503 ;
504 [label="workingday <= 0.5\nmse = 3685.707\nsamples = 24\nvalue = 206.042", fillcolor="#e5813940"] ;
500 -> 504 ;
505 [label="mse = 2278.055\nsamples = 17\nvalue = 217.059", fillcolor="#e5813943"] ;
504 -> 505 ;
506 [label="mse = 6093.633\nsamples = 7\nvalue = 179.286", fillcolor="#e5813937"] ;
504 -> 506 ;
507 [label="windspeed <= 8.0\nmse = 8519.562\nsamples = 39\nvalue = 236.769", fillcolor="#e5813949"] ;
499 -> 507 ;
508 [label="mse = 7010.484\nsamples = 8\nvalue = 167.375", fillcolor="#e5813934"] ;
507 -> 508 ;
509 [label="hour <= -0.44\nmse = 7345.573\nsamples = 31\nvalue = 254.677", fillcolor="#e581394f"] ;
507 -> 509 ;
510 [label="mse = 6717.388\nsamples = 7\nvalue = 303.429", fillcolor="#e581395e"] ;
509 -> 510 ;
511 [label="mse = 6633.415\nsamples = 24\nvalue = 240.458", fillcolor="#e581394b"] ;
509 -> 511 ;
512 [label="hour <= -0.44\nmse = 9170.834\nsamples = 33\nvalue = 161.879", fillcolor="#e5813932"] ;
498 -> 512 ;
513 [label="mse = 15834.89\nsamples = 10\nvalue = 214.9", fillcolor="#e5813943"] ;
512 -> 513 ;
514 [label="windspeed <= 16.0\nmse = 4519.709\nsamples = 23\nvalue = 138.826", fillcolor="#e581392b"] ;
512 -> 514 ;
515 [label="mse = 5053.686\nsamples = 11\nvalue = 170.636", fillcolor="#e5813935"] ;
514 -> 515 ;
516 [label="season <= 1.5\nmse = 2252.389\nsamples = 12\nvalue = 109.667", fillcolor="#e5813922"] ;
514 -> 516 ;
517 [label="mse = 652.917\nsamples = 6\nvalue = 82.5", fillcolor="#e5813919"] ;
516 -> 517 ;
518 [label="mse = 2375.806\nsamples = 6\nvalue = 136.833", fillcolor="#e581392a"] ;
516 -> 518 ;
519 [label="hour <= 0.139\nmse = 2838.265\nsamples = 14\nvalue = 120.857", fillcolor="#e5813925"] ;
497 -> 519 ;
520 [label="mse = 1215.667\nsamples = 6\nvalue = 84.0", fillcolor="#e581391a"] ;
519 -> 520 ;
521 [label="mse = 2272.25\nsamples = 8\nvalue = 148.5", fillcolor="#e581392e"] ;
519 -> 521 ;
522 [label="mse = 724.81\nsamples = 11\nvalue = 47.091", fillcolor="#e581390e"] ;
494 -> 522 ;
523 [label="workingday <= 0.5\nmse = 1717.802\nsamples = 45\nvalue = 91.556", fillcolor="#e581391c"] ;
493 -> 523 ;
524 [label="hour <= 1.295\nmse = 894.867\nsamples = 18\nvalue = 67.278", fillcolor="#e5813915"] ;
523 -> 524 ;
525 [label="mse = 521.806\nsamples = 6\nvalue = 87.167", fillcolor="#e581391b"] ;
524 -> 525 ;
526 [label="windspeed <= 12.0\nmse = 784.722\nsamples = 12\nvalue = 57.333", fillcolor="#e5813911"] ;
524 -> 526 ;
527 [label="mse = 1188.806\nsamples = 6\nvalue = 58.167", fillcolor="#e5813912"] ;
526 -> 527 ;
528 [label="mse = 379.25\nsamples = 6\nvalue = 56.5", fillcolor="#e5813911"] ;
526 -> 528 ;
529 [label="hour <= 1.585\nmse = 1611.525\nsamples = 27\nvalue = 107.741", fillcolor="#e5813921"] ;
523 -> 529 ;
530 [label="temp <= -0.334\nmse = 936.532\nsamples = 19\nvalue = 124.684", fillcolor="#e5813926"] ;
529 -> 530 ;
531 [label="mse = 375.959\nsamples = 7\nvalue = 105.571", fillcolor="#e5813920"] ;
530 -> 531 ;
532 [label="windspeed <= 14.0\nmse = 926.139\nsamples = 12\nvalue = 135.833", fillcolor="#e581392a"] ;
530 -> 532 ;
533 [label="mse = 1093.806\nsamples = 6\nvalue = 146.833", fillcolor="#e581392d"] ;
532 -> 533 ;
534 [label="mse = 516.472\nsamples = 6\nvalue = 124.833", fillcolor="#e5813927"] ;
532 -> 534 ;
535 [label="mse = 913.5\nsamples = 8\nvalue = 67.5", fillcolor="#e5813915"] ;
529 -> 535 ;
536 [label="hour <= 1.295\nmse = 12584.589\nsamples = 503\nvalue = 183.958", fillcolor="#e5813939"] ;
342 -> 536 ;
537 [label="humidity <= 93.5\nmse = 12739.943\nsamples = 403\nvalue = 206.983", fillcolor="#e5813940"] ;
536 -> 537 ;
538 [label="hour <= 0.572\nmse = 11963.347\nsamples = 371\nvalue = 214.022", fillcolor="#e5813942"] ;
537 -> 538 ;
539 [label="humidity <= 87.5\nmse = 11791.333\nsamples = 247\nvalue = 200.401", fillcolor="#e581393e"] ;
538 -> 539 ;
540 [label="humidity <= 46.5\nmse = 11166.708\nsamples = 241\nvalue = 196.739", fillcolor="#e581393d"] ;
539 -> 540 ;
541 [label="workingday <= 0.5\nmse = 7122.094\nsamples = 60\nvalue = 233.35", fillcolor="#e5813948"] ;
540 -> 541 ;
542 [label="temp <= -0.544\nmse = 4416.542\nsamples = 33\nvalue = 275.394", fillcolor="#e5813955"] ;
541 -> 542 ;
543 [label="hour <= -0.006\nmse = 2630.174\nsamples = 22\nvalue = 242.909", fillcolor="#e581394b"] ;
542 -> 543 ;
544 [label="mse = 1493.938\nsamples = 8\nvalue = 206.25", fillcolor="#e5813940"] ;
543 -> 544 ;
545 [label="hour <= 0.283\nmse = 2072.694\nsamples = 14\nvalue = 263.857", fillcolor="#e5813952"] ;
543 -> 545 ;
546 [label="mse = 1694.75\nsamples = 8\nvalue = 277.0", fillcolor="#e5813956"] ;
545 -> 546 ;
547 [label="mse = 2039.222\nsamples = 6\nvalue = 246.333", fillcolor="#e581394c"] ;
545 -> 547 ;
548 [label="mse = 1657.686\nsamples = 11\nvalue = 340.364", fillcolor="#e581396a"] ;
542 -> 548 ;
549 [label="hour <= -0.151\nmse = 5627.739\nsamples = 27\nvalue = 181.963", fillcolor="#e5813938"] ;
541 -> 549 ;
550 [label="mse = 12245.0\nsamples = 6\nvalue = 271.0", fillcolor="#e5813954"] ;
549 -> 550 ;
551 [label="temp <= -0.65\nmse = 824.916\nsamples = 21\nvalue = 156.524", fillcolor="#e5813930"] ;
549 -> 551 ;
552 [label="mse = 352.61\nsamples = 10\nvalue = 142.7", fillcolor="#e581392c"] ;
551 -> 552 ;
553 [label="mse = 922.628\nsamples = 11\nvalue = 169.091", fillcolor="#e5813934"] ;
551 -> 553 ;
554 [label="workingday <= 0.5\nmse = 11915.842\nsamples = 181\nvalue = 184.602", fillcolor="#e5813939"] ;
540 -> 554 ;
555 [label="hour <= -0.295\nmse = 11185.454\nsamples = 70\nvalue = 151.943", fillcolor="#e581392f"] ;
554 -> 555 ;
556 [label="hour <= -0.44\nmse = 1788.538\nsamples = 39\nvalue = 71.359", fillcolor="#e5813916"] ;
555 -> 556 ;
557 [label="hour <= -0.584\nmse = 666.257\nsamples = 29\nvalue = 51.138", fillcolor="#e5813910"] ;
556 -> 557 ;
558 [label="mse = 106.862\nsamples = 15\nvalue = 30.733", fillcolor="#e5813909"] ;
557 -> 558 ;
559 [label="mse = 341.571\nsamples = 14\nvalue = 73.0", fillcolor="#e5813916"] ;
557 -> 559 ;
560 [label="mse = 418.6\nsamples = 10\nvalue = 130.0", fillcolor="#e5813928"] ;
556 -> 560 ;
561 [label="hour <= -0.151\nmse = 4559.96\nsamples = 31\nvalue = 253.323", fillcolor="#e581394f"] ;
555 -> 561 ;
562 [label="mse = 2206.321\nsamples = 9\nvalue = 200.889", fillcolor="#e581393e"] ;
561 -> 562 ;
563 [label="windspeed <= 17.001\nmse = 3937.994\nsamples = 22\nvalue = 274.773", fillcolor="#e5813955"] ;
561 -> 563 ;
564 [label="mse = 1891.582\nsamples = 15\nvalue = 303.133", fillcolor="#e581395e"] ;
563 -> 564 ;
565 [label="mse = 2906.286\nsamples = 7\nvalue = 214.0", fillcolor="#e5813942"] ;
563 -> 565 ;
566 [label="hour <= -0.44\nmse = 11279.6\nsamples = 111\nvalue = 205.198", fillcolor="#e5813940"] ;
554 -> 566 ;
567 [label="hour <= -0.584\nmse = 7637.152\nsamples = 32\nvalue = 340.812", fillcolor="#e581396a"] ;
566 -> 567 ;
568 [label="temp <= -0.965\nmse = 1565.062\nsamples = 16\nvalue = 261.75", fillcolor="#e5813951"] ;
567 -> 568 ;
569 [label="mse = 933.472\nsamples = 6\nvalue = 226.167", fillcolor="#e5813946"] ;
568 -> 569 ;
570 [label="mse = 728.49\nsamples = 10\nvalue = 283.1", fillcolor="#e5813958"] ;
568 -> 570 ;
571 [label="temp <= -0.86\nmse = 1207.484\nsamples = 16\nvalue = 419.875", fillcolor="#e5813982"] ;
567 -> 571 ;
572 [label="mse = 1497.347\nsamples = 7\nvalue = 430.286", fillcolor="#e5813986"] ;
571 -> 572 ;
573 [label="mse = 832.173\nsamples = 9\nvalue = 411.778", fillcolor="#e5813980"] ;
571 -> 573 ;
574 [label="temp <= -0.229\nmse = 2287.841\nsamples = 79\nvalue = 150.266", fillcolor="#e581392e"] ;
566 -> 574 ;
575 [label="hour <= -0.295\nmse = 2372.479\nsamples = 62\nvalue = 144.806", fillcolor="#e581392d"] ;
574 -> 575 ;
576 [label="mse = 1455.889\nsamples = 12\nvalue = 219.667", fillcolor="#e5813944"] ;
575 -> 576 ;
577 [label="mse = 924.694\nsamples = 50\nvalue = 126.84", fillcolor="#e5813927"] ;
575 -> 577 ;
578 [label="hour <= -0.151\nmse = 1474.028\nsamples = 17\nvalue = 170.176", fillcolor="#e5813935"] ;
574 -> 578 ;
579 [label="mse = 1429.139\nsamples = 6\nvalue = 200.833", fillcolor="#e581393e"] ;
578 -> 579 ;
580 [label="mse = 706.248\nsamples = 11\nvalue = 153.455", fillcolor="#e581392f"] ;
578 -> 580 ;
581 [label="mse = 14703.583\nsamples = 6\nvalue = 347.5", fillcolor="#e581396c"] ;
539 -> 581 ;
582 [label="hour <= 1.006\nmse = 11200.307\nsamples = 124\nvalue = 241.153", fillcolor="#e581394b"] ;
538 -> 582 ;
583 [label="workingday <= 0.5\nmse = 11164.947\nsamples = 69\nvalue = 290.667", fillcolor="#e581395a"] ;
582 -> 583 ;
584 [label="temp <= -0.544\nmse = 3275.004\nsamples = 28\nvalue = 227.321", fillcolor="#e5813946"] ;
583 -> 584 ;
585 [label="hour <= 0.717\nmse = 2210.881\nsamples = 19\nvalue = 206.526", fillcolor="#e5813940"] ;
584 -> 585 ;
586 [label="mse = 1130.889\nsamples = 6\nvalue = 235.667", fillcolor="#e5813949"] ;
585 -> 586 ;
587 [label="windspeed <= 10.0\nmse = 2136.533\nsamples = 13\nvalue = 193.077", fillcolor="#e581393c"] ;
585 -> 587 ;
588 [label="mse = 839.806\nsamples = 6\nvalue = 205.833", fillcolor="#e5813940"] ;
587 -> 588 ;
589 [label="mse = 2988.98\nsamples = 7\nvalue = 182.143", fillcolor="#e5813938"] ;
587 -> 589 ;
590 [label="mse = 2681.284\nsamples = 9\nvalue = 271.222", fillcolor="#e5813954"] ;
584 -> 590 ;
591 [label="temp <= -0.439\nmse = 11941.434\nsamples = 41\nvalue = 333.927", fillcolor="#e5813968"] ;
583 -> 591 ;
592 [label="hour <= 0.717\nmse = 7247.866\nsamples = 25\nvalue = 300.88", fillcolor="#e581395d"] ;
591 -> 592 ;
593 [label="mse = 2391.506\nsamples = 9\nvalue = 204.222", fillcolor="#e581393f"] ;
592 -> 593 ;
594 [label="temp <= -0.755\nmse = 1768.188\nsamples = 16\nvalue = 355.25", fillcolor="#e581396e"] ;
592 -> 594 ;
595 [label="mse = 1152.469\nsamples = 9\nvalue = 341.556", fillcolor="#e581396a"] ;
594 -> 595 ;
596 [label="mse = 2008.694\nsamples = 7\nvalue = 372.857", fillcolor="#e5813974"] ;
594 -> 596 ;
597 [label="humidity <= 71.5\nmse = 14902.496\nsamples = 16\nvalue = 385.562", fillcolor="#e5813978"] ;
591 -> 597 ;
598 [label="mse = 4955.6\nsamples = 10\nvalue = 451.0", fillcolor="#e581398c"] ;
597 -> 598 ;
599 [label="mse = 12449.25\nsamples = 6\nvalue = 276.5", fillcolor="#e5813956"] ;
597 -> 599 ;
600 [label="workingday <= 0.5\nmse = 4310.544\nsamples = 55\nvalue = 179.036", fillcolor="#e5813937"] ;
582 -> 600 ;
601 [label="hour <= 1.151\nmse = 814.81\nsamples = 17\nvalue = 130.118", fillcolor="#e5813928"] ;
600 -> 601 ;
602 [label="mse = 475.938\nsamples = 8\nvalue = 147.25", fillcolor="#e581392d"] ;
601 -> 602 ;
603 [label="mse = 623.21\nsamples = 9\nvalue = 114.889", fillcolor="#e5813923"] ;
601 -> 603 ;
604 [label="windspeed <= 17.001\nmse = 4324.915\nsamples = 38\nvalue = 200.921", fillcolor="#e581393e"] ;
600 -> 604 ;
605 [label="temp <= -0.439\nmse = 2341.095\nsamples = 31\nvalue = 220.742", fillcolor="#e5813944"] ;
604 -> 605 ;
606 [label="temp <= -0.755\nmse = 1823.341\nsamples = 22\nvalue = 205.5", fillcolor="#e5813940"] ;
605 -> 606 ;
607 [label="hour <= 1.151\nmse = 1399.311\nsamples = 14\nvalue = 195.214", fillcolor="#e581393c"] ;
606 -> 607 ;
608 [label="mse = 494.286\nsamples = 7\nvalue = 227.0", fillcolor="#e5813946"] ;
607 -> 608 ;
609 [label="mse = 283.673\nsamples = 7\nvalue = 163.429", fillcolor="#e5813933"] ;
607 -> 609 ;
610 [label="mse = 2056.25\nsamples = 8\nvalue = 223.5", fillcolor="#e5813945"] ;
606 -> 610 ;
611 [label="mse = 1650.667\nsamples = 9\nvalue = 258.0", fillcolor="#e5813950"] ;
605 -> 611 ;
612 [label="mse = 3665.551\nsamples = 7\nvalue = 113.143", fillcolor="#e5813923"] ;
604 -> 612 ;
613 [label="hour <= -0.44\nmse = 14509.359\nsamples = 32\nvalue = 125.375", fillcolor="#e5813927"] ;
537 -> 613 ;
614 [label="mse = 24572.688\nsamples = 8\nvalue = 229.25", fillcolor="#e5813947"] ;
613 -> 614 ;
615 [label="hour <= 0.717\nmse = 6359.354\nsamples = 24\nvalue = 90.75", fillcolor="#e581391c"] ;
613 -> 615 ;
616 [label="windspeed <= 10.998\nmse = 2332.951\nsamples = 18\nvalue = 64.778", fillcolor="#e5813914"] ;
615 -> 616 ;
617 [label="mse = 3270.05\nsamples = 10\nvalue = 82.5", fillcolor="#e5813919"] ;
616 -> 617 ;
618 [label="mse = 278.234\nsamples = 8\nvalue = 42.625", fillcolor="#e581390d"] ;
616 -> 618 ;
619 [label="mse = 10343.889\nsamples = 6\nvalue = 168.667", fillcolor="#e5813934"] ;
615 -> 619 ;
620 [label="hour <= 1.44\nmse = 1212.461\nsamples = 100\nvalue = 91.17", fillcolor="#e581391c"] ;
536 -> 620 ;
621 [label="workingday <= 0.5\nmse = 1302.333\nsamples = 30\nvalue = 114.0", fillcolor="#e5813923"] ;
620 -> 621 ;
622 [label="humidity <= 63.0\nmse = 310.438\nsamples = 13\nvalue = 92.846", fillcolor="#e581391d"] ;
621 -> 622 ;
623 [label="mse = 205.333\nsamples = 6\nvalue = 100.0", fillcolor="#e581391f"] ;
622 -> 623 ;
624 [label="mse = 319.061\nsamples = 7\nvalue = 86.714", fillcolor="#e581391b"] ;
622 -> 624 ;
625 [label="windspeed <= 12.0\nmse = 1456.969\nsamples = 17\nvalue = 130.176", fillcolor="#e5813928"] ;
621 -> 625 ;
626 [label="mse = 588.612\nsamples = 11\nvalue = 143.455", fillcolor="#e581392c"] ;
625 -> 626 ;
627 [label="mse = 2133.139\nsamples = 6\nvalue = 105.833", fillcolor="#e5813921"] ;
625 -> 627 ;
628 [label="temp <= -1.281\nmse = 854.837\nsamples = 70\nvalue = 81.386", fillcolor="#e5813919"] ;
620 -> 628 ;
629 [label="mse = 581.504\nsamples = 11\nvalue = 49.364", fillcolor="#e581390f"] ;
628 -> 629 ;
630 [label="temp <= -0.65\nmse = 678.975\nsamples = 59\nvalue = 87.356", fillcolor="#e581391b"] ;
628 -> 630 ;
631 [label="hour <= 1.585\nmse = 479.993\nsamples = 37\nvalue = 80.297", fillcolor="#e5813919"] ;
630 -> 631 ;
632 [label="workingday <= 0.5\nmse = 382.96\nsamples = 20\nvalue = 90.8", fillcolor="#e581391c"] ;
631 -> 632 ;
633 [label="mse = 213.222\nsamples = 6\nvalue = 69.333", fillcolor="#e5813915"] ;
632 -> 633 ;
634 [label="humidity <= 67.5\nmse = 173.571\nsamples = 14\nvalue = 100.0", fillcolor="#e581391f"] ;
632 -> 634 ;
635 [label="mse = 65.938\nsamples = 8\nvalue = 97.75", fillcolor="#e581391e"] ;
634 -> 635 ;
636 [label="mse = 301.333\nsamples = 6\nvalue = 103.0", fillcolor="#e5813920"] ;
634 -> 636 ;
637 [label="temp <= -0.755\nmse = 311.702\nsamples = 17\nvalue = 67.941", fillcolor="#e5813915"] ;
631 -> 637 ;
638 [label="mse = 133.884\nsamples = 11\nvalue = 77.455", fillcolor="#e5813918"] ;
637 -> 638 ;
639 [label="mse = 167.583\nsamples = 6\nvalue = 50.5", fillcolor="#e581390f"] ;
637 -> 639 ;
640 [label="workingday <= 0.5\nmse = 788.903\nsamples = 22\nvalue = 99.227", fillcolor="#e581391f"] ;
630 -> 640 ;
641 [label="mse = 562.667\nsamples = 9\nvalue = 109.667", fillcolor="#e5813922"] ;
640 -> 641 ;
642 [label="hour <= 1.585\nmse = 817.846\nsamples = 13\nvalue = 92.0", fillcolor="#e581391c"] ;
640 -> 642 ;
643 [label="mse = 949.918\nsamples = 7\nvalue = 104.714", fillcolor="#e5813920"] ;
642 -> 643 ;
644 [label="mse = 255.139\nsamples = 6\nvalue = 77.167", fillcolor="#e5813918"] ;
642 -> 644 ;
645 [label="hour <= 1.151\nmse = 23619.411\nsamples = 1359\nvalue = 240.763", fillcolor="#e581394b"] ;
341 -> 645 ;
646 [label="season <= 1.5\nmse = 24969.28\nsamples = 1026\nvalue = 275.051", fillcolor="#e5813955"] ;
645 -> 646 ;
647 [label="temp <= -0.86\nmse = 16576.82\nsamples = 515\nvalue = 214.534", fillcolor="#e5813942"] ;
646 -> 647 ;
648 [label="workingday <= 0.5\nmse = 12385.104\nsamples = 304\nvalue = 178.967", fillcolor="#e5813937"] ;
647 -> 648 ;
649 [label="hour <= -0.295\nmse = 6489.318\nsamples = 127\nvalue = 146.142", fillcolor="#e581392d"] ;
648 -> 649 ;
650 [label="hour <= -0.584\nmse = 1683.262\nsamples = 39\nvalue = 62.385", fillcolor="#e5813913"] ;
649 -> 650 ;
651 [label="windspeed <= 10.0\nmse = 83.129\nsamples = 15\nvalue = 22.733", fillcolor="#e5813907"] ;
650 -> 651 ;
652 [label="mse = 59.102\nsamples = 7\nvalue = 26.571", fillcolor="#e5813908"] ;
651 -> 652 ;
653 [label="mse = 79.984\nsamples = 8\nvalue = 19.375", fillcolor="#e5813906"] ;
651 -> 653 ;
654 [label="hour <= -0.44\nmse = 1086.556\nsamples = 24\nvalue = 87.167", fillcolor="#e581391b"] ;
650 -> 654 ;
655 [label="mse = 494.854\nsamples = 12\nvalue = 70.25", fillcolor="#e5813915"] ;
654 -> 655 ;
656 [label="humidity <= 59.0\nmse = 1105.91\nsamples = 12\nvalue = 104.083", fillcolor="#e5813920"] ;
654 -> 656 ;
657 [label="mse = 679.222\nsamples = 6\nvalue = 100.667", fillcolor="#e581391f"] ;
656 -> 657 ;
658 [label="mse = 1509.25\nsamples = 6\nvalue = 107.5", fillcolor="#e5813921"] ;
656 -> 658 ;
659 [label="hour <= 0.862\nmse = 4132.375\nsamples = 88\nvalue = 183.261", fillcolor="#e5813939"] ;
649 -> 659 ;
660 [label="temp <= -1.176\nmse = 3648.414\nsamples = 70\nvalue = 198.986", fillcolor="#e581393e"] ;
659 -> 660 ;
661 [label="temp <= -1.597\nmse = 1642.961\nsamples = 45\nvalue = 175.489", fillcolor="#e5813936"] ;
660 -> 661 ;
662 [label="mse = 1498.576\nsamples = 12\nvalue = 140.583", fillcolor="#e581392b"] ;
661 -> 662 ;
663 [label="hour <= 0.572\nmse = 1091.3\nsamples = 33\nvalue = 188.182", fillcolor="#e581393a"] ;
661 -> 663 ;
664 [label="hour <= -0.006\nmse = 1016.3\nsamples = 22\nvalue = 198.864", fillcolor="#e581393e"] ;
663 -> 664 ;
665 [label="mse = 1127.358\nsamples = 9\nvalue = 177.444", fillcolor="#e5813937"] ;
664 -> 665 ;
666 [label="mse = 401.905\nsamples = 13\nvalue = 213.692", fillcolor="#e5813942"] ;
664 -> 666 ;
667 [label="mse = 556.694\nsamples = 11\nvalue = 166.818", fillcolor="#e5813934"] ;
663 -> 667 ;
668 [label="hour <= -0.006\nmse = 4475.642\nsamples = 25\nvalue = 241.28", fillcolor="#e581394b"] ;
660 -> 668 ;
669 [label="mse = 4620.806\nsamples = 6\nvalue = 204.167", fillcolor="#e581393f"] ;
668 -> 669 ;
670 [label="windspeed <= 16.0\nmse = 3857.474\nsamples = 19\nvalue = 253.0", fillcolor="#e581394e"] ;
668 -> 670 ;
671 [label="mse = 494.988\nsamples = 9\nvalue = 283.889", fillcolor="#e5813958"] ;
670 -> 671 ;
672 [label="mse = 5252.16\nsamples = 10\nvalue = 225.2", fillcolor="#e5813946"] ;
670 -> 672 ;
673 [label="hour <= 1.006\nmse = 1313.543\nsamples = 18\nvalue = 122.111", fillcolor="#e5813926"] ;
659 -> 673 ;
674 [label="mse = 1118.25\nsamples = 8\nvalue = 147.5", fillcolor="#e581392e"] ;
673 -> 674 ;
675 [label="mse = 541.56\nsamples = 10\nvalue = 101.8", fillcolor="#e581391f"] ;
673 -> 675 ;
676 [label="hour <= -0.44\nmse = 15287.56\nsamples = 177\nvalue = 202.52", fillcolor="#e581393f"] ;
648 -> 676 ;
677 [label="hour <= -0.584\nmse = 17303.931\nsamples = 44\nvalue = 335.023", fillcolor="#e5813968"] ;
676 -> 677 ;
678 [label="windspeed <= 10.0\nmse = 2652.748\nsamples = 24\nvalue = 239.458", fillcolor="#e581394a"] ;
677 -> 678 ;
679 [label="humidity <= 67.0\nmse = 800.402\nsamples = 13\nvalue = 255.462", fillcolor="#e581394f"] ;
678 -> 679 ;
680 [label="mse = 928.472\nsamples = 6\nvalue = 259.833", fillcolor="#e5813951"] ;
679 -> 680 ;
681 [label="mse = 660.204\nsamples = 7\nvalue = 251.714", fillcolor="#e581394e"] ;
679 -> 681 ;
682 [label="mse = 4181.521\nsamples = 11\nvalue = 220.545", fillcolor="#e5813944"] ;
678 -> 682 ;
683 [label="temp <= -1.386\nmse = 10775.41\nsamples = 20\nvalue = 449.7", fillcolor="#e581398c"] ;
677 -> 683 ;
684 [label="mse = 3754.444\nsamples = 9\nvalue = 426.333", fillcolor="#e5813984"] ;
683 -> 684 ;
685 [label="mse = 15707.603\nsamples = 11\nvalue = 468.818", fillcolor="#e5813992"] ;
683 -> 685 ;
686 [label="windspeed <= 19.5\nmse = 6890.592\nsamples = 133\nvalue = 158.684", fillcolor="#e5813931"] ;
676 -> 686 ;
687 [label="hour <= -0.295\nmse = 5324.764\nsamples = 88\nvalue = 144.091", fillcolor="#e581392d"] ;
686 -> 687 ;
688 [label="windspeed <= 8.0\nmse = 3452.145\nsamples = 17\nvalue = 230.824", fillcolor="#e5813948"] ;
687 -> 688 ;
689 [label="mse = 1359.551\nsamples = 7\nvalue = 264.143", fillcolor="#e5813952"] ;
688 -> 689 ;
690 [label="mse = 3595.85\nsamples = 10\nvalue = 207.5", fillcolor="#e5813940"] ;
688 -> 690 ;
691 [label="hour <= 0.717\nmse = 3540.698\nsamples = 71\nvalue = 123.324", fillcolor="#e5813926"] ;
687 -> 691 ;
692 [label="humidity <= 72.5\nmse = 1371.947\nsamples = 60\nvalue = 106.45", fillcolor="#e5813921"] ;
691 -> 692 ;
693 [label="temp <= -1.702\nmse = 1088.138\nsamples = 47\nvalue = 117.106", fillcolor="#e5813924"] ;
692 -> 693 ;
694 [label="mse = 349.938\nsamples = 8\nvalue = 79.75", fillcolor="#e5813918"] ;
693 -> 694 ;
695 [label="mse = 894.588\nsamples = 39\nvalue = 124.769", fillcolor="#e5813926"] ;
693 -> 695 ;
696 [label="hour <= 0.139\nmse = 503.148\nsamples = 13\nvalue = 67.923", fillcolor="#e5813915"] ;
692 -> 696 ;
697 [label="mse = 538.204\nsamples = 7\nvalue = 77.714", fillcolor="#e5813918"] ;
696 -> 697 ;
698 [label="mse = 219.917\nsamples = 6\nvalue = 56.5", fillcolor="#e5813911"] ;
696 -> 698 ;
699 [label="mse = 5345.868\nsamples = 11\nvalue = 215.364", fillcolor="#e5813943"] ;
691 -> 699 ;
700 [label="hour <= 0.717\nmse = 8721.773\nsamples = 45\nvalue = 187.222", fillcolor="#e581393a"] ;
686 -> 700 ;
701 [label="temp <= -1.544\nmse = 2363.984\nsamples = 32\nvalue = 139.625", fillcolor="#e581392b"] ;
700 -> 701 ;
702 [label="mse = 513.061\nsamples = 7\nvalue = 84.286", fillcolor="#e581391a"] ;
701 -> 702 ;
703 [label="humidity <= 44.5\nmse = 1784.666\nsamples = 25\nvalue = 155.12", fillcolor="#e5813930"] ;
701 -> 703 ;
704 [label="hour <= 0.428\nmse = 1080.099\nsamples = 18\nvalue = 143.111", fillcolor="#e581392c"] ;
703 -> 704 ;
705 [label="mse = 521.14\nsamples = 11\nvalue = 131.364", fillcolor="#e5813929"] ;
704 -> 705 ;
706 [label="mse = 1400.816\nsamples = 7\nvalue = 161.571", fillcolor="#e5813932"] ;
704 -> 706 ;
707 [label="mse = 2272.0\nsamples = 7\nvalue = 186.0", fillcolor="#e581393a"] ;
703 -> 707 ;
708 [label="windspeed <= 25.001\nmse = 5068.083\nsamples = 13\nvalue = 304.385", fillcolor="#e581395e"] ;
700 -> 708 ;
709 [label="mse = 2934.806\nsamples = 6\nvalue = 337.167", fillcolor="#e5813969"] ;
708 -> 709 ;
710 [label="mse = 5185.918\nsamples = 7\nvalue = 276.286", fillcolor="#e5813956"] ;
708 -> 710 ;
711 [label="hour <= 0.717\nmse = 18167.633\nsamples = 211\nvalue = 265.777", fillcolor="#e5813952"] ;
647 -> 711 ;
712 [label="hour <= -0.44\nmse = 17365.102\nsamples = 157\nvalue = 241.465", fillcolor="#e581394b"] ;
711 -> 712 ;
713 [label="hour <= -0.584\nmse = 47873.333\nsamples = 18\nvalue = 365.667", fillcolor="#e5813972"] ;
712 -> 713 ;
714 [label="mse = 12238.571\nsamples = 7\nvalue = 193.0", fillcolor="#e581393c"] ;
713 -> 714 ;
715 [label="mse = 39504.248\nsamples = 11\nvalue = 475.545", fillcolor="#e5813994"] ;
713 -> 715 ;
716 [label="workingday <= 0.5\nmse = 11158.092\nsamples = 139\nvalue = 225.381", fillcolor="#e5813946"] ;
712 -> 716 ;
717 [label="humidity <= 45.0\nmse = 10981.964\nsamples = 42\nvalue = 332.19", fillcolor="#e5813967"] ;
716 -> 717 ;
718 [label="temp <= -0.439\nmse = 3340.216\nsamples = 23\nvalue = 382.957", fillcolor="#e5813977"] ;
717 -> 718 ;
719 [label="hour <= 0.283\nmse = 1141.929\nsamples = 15\nvalue = 349.267", fillcolor="#e581396c"] ;
718 -> 719 ;
720 [label="mse = 936.0\nsamples = 8\nvalue = 362.0", fillcolor="#e5813970"] ;
719 -> 720 ;
721 [label="mse = 980.204\nsamples = 7\nvalue = 334.714", fillcolor="#e5813968"] ;
719 -> 721 ;
722 [label="mse = 1343.609\nsamples = 8\nvalue = 446.125", fillcolor="#e581398b"] ;
718 -> 722 ;
723 [label="temp <= -0.334\nmse = 13336.194\nsamples = 19\nvalue = 270.737", fillcolor="#e5813954"] ;
717 -> 723 ;
724 [label="windspeed <= 10.0\nmse = 5725.021\nsamples = 12\nvalue = 215.75", fillcolor="#e5813943"] ;
723 -> 724 ;
725 [label="mse = 6507.25\nsamples = 6\nvalue = 190.5", fillcolor="#e581393b"] ;
724 -> 725 ;
726 [label="mse = 3667.667\nsamples = 6\nvalue = 241.0", fillcolor="#e581394b"] ;
724 -> 726 ;
727 [label="mse = 12315.143\nsamples = 7\nvalue = 365.0", fillcolor="#e5813971"] ;
723 -> 727 ;
728 [label="hour <= -0.295\nmse = 4155.91\nsamples = 97\nvalue = 179.134", fillcolor="#e5813937"] ;
716 -> 728 ;
729 [label="mse = 1057.265\nsamples = 7\nvalue = 289.857", fillcolor="#e581395a"] ;
728 -> 729 ;
730 [label="hour <= 0.572\nmse = 3369.227\nsamples = 90\nvalue = 170.522", fillcolor="#e5813935"] ;
728 -> 730 ;
731 [label="temp <= -0.755\nmse = 1863.37\nsamples = 71\nvalue = 156.155", fillcolor="#e5813930"] ;
730 -> 731 ;
732 [label="windspeed <= 9.001\nmse = 1014.076\nsamples = 12\nvalue = 109.417", fillcolor="#e5813922"] ;
731 -> 732 ;
733 [label="mse = 1068.889\nsamples = 6\nvalue = 102.667", fillcolor="#e5813920"] ;
732 -> 733 ;
734 [label="mse = 868.139\nsamples = 6\nvalue = 116.167", fillcolor="#e5813924"] ;
732 -> 734 ;
735 [label="humidity <= 48.5\nmse = 1501.444\nsamples = 59\nvalue = 165.661", fillcolor="#e5813933"] ;
731 -> 735 ;
736 [label="mse = 1239.953\nsamples = 36\nvalue = 175.861", fillcolor="#e5813936"] ;
735 -> 736 ;
737 [label="mse = 1492.994\nsamples = 23\nvalue = 149.696", fillcolor="#e581392e"] ;
735 -> 737 ;
738 [label="humidity <= 56.5\nmse = 5342.587\nsamples = 19\nvalue = 224.211", fillcolor="#e5813945"] ;
730 -> 738 ;
739 [label="temp <= -0.439\nmse = 1695.444\nsamples = 13\nvalue = 257.308", fillcolor="#e5813950"] ;
738 -> 739 ;
740 [label="mse = 1439.139\nsamples = 6\nvalue = 242.167", fillcolor="#e581394b"] ;
739 -> 740 ;
741 [label="mse = 1550.204\nsamples = 7\nvalue = 270.286", fillcolor="#e5813954"] ;
739 -> 741 ;
742 [label="mse = 5728.917\nsamples = 6\nvalue = 152.5", fillcolor="#e581392f"] ;
738 -> 742 ;
743 [label="workingday <= 0.5\nmse = 13785.915\nsamples = 54\nvalue = 336.463", fillcolor="#e5813968"] ;
711 -> 743 ;
744 [label="mse = 7127.0\nsamples = 10\nvalue = 221.0", fillcolor="#e5813944"] ;
743 -> 744 ;
745 [label="humidity <= 76.0\nmse = 11580.754\nsamples = 44\nvalue = 362.705", fillcolor="#e5813971"] ;
743 -> 745 ;
746 [label="hour <= 1.006\nmse = 6921.749\nsamples = 36\nvalue = 391.472", fillcolor="#e581397a"] ;
745 -> 746 ;
747 [label="temp <= -0.439\nmse = 2402.113\nsamples = 23\nvalue = 445.13", fillcolor="#e581398a"] ;
746 -> 747 ;
748 [label="windspeed <= 14.0\nmse = 777.775\nsamples = 13\nvalue = 411.615", fillcolor="#e5813980"] ;
747 -> 748 ;
749 [label="mse = 171.633\nsamples = 7\nvalue = 398.286", fillcolor="#e581397c"] ;
748 -> 749 ;
750 [label="mse = 1035.806\nsamples = 6\nvalue = 427.167", fillcolor="#e5813985"] ;
748 -> 750 ;
751 [label="mse = 1155.21\nsamples = 10\nvalue = 488.7", fillcolor="#e5813998"] ;
747 -> 751 ;
752 [label="windspeed <= 16.0\nmse = 811.633\nsamples = 13\nvalue = 296.538", fillcolor="#e581395c"] ;
746 -> 752 ;
753 [label="mse = 802.204\nsamples = 7\nvalue = 295.714", fillcolor="#e581395c"] ;
752 -> 753 ;
754 [label="mse = 820.917\nsamples = 6\nvalue = 297.5", fillcolor="#e581395c"] ;
752 -> 754 ;
755 [label="mse = 12063.688\nsamples = 8\nvalue = 233.25", fillcolor="#e5813948"] ;
745 -> 755 ;
756 [label="hour <= 0.572\nmse = 26016.666\nsamples = 511\nvalue = 336.041", fillcolor="#e5813968"] ;
646 -> 756 ;
757 [label="hour <= -0.44\nmse = 25509.724\nsamples = 380\nvalue = 307.603", fillcolor="#e581395f"] ;
756 -> 757 ;
758 [label="workingday <= 0.5\nmse = 54739.116\nsamples = 110\nvalue = 369.218", fillcolor="#e5813973"] ;
757 -> 758 ;
759 [label="hour <= -0.584\nmse = 7288.712\nsamples = 36\nvalue = 102.694", fillcolor="#e5813920"] ;
758 -> 759 ;
760 [label="humidity <= 73.0\nmse = 398.756\nsamples = 18\nvalue = 55.722", fillcolor="#e5813911"] ;
759 -> 760 ;
761 [label="mse = 366.222\nsamples = 9\nvalue = 64.333", fillcolor="#e5813914"] ;
760 -> 761 ;
762 [label="mse = 282.988\nsamples = 9\nvalue = 47.111", fillcolor="#e581390e"] ;
760 -> 762 ;
763 [label="humidity <= 79.5\nmse = 9765.889\nsamples = 18\nvalue = 149.667", fillcolor="#e581392e"] ;
759 -> 763 ;
764 [label="windspeed <= 10.998\nmse = 577.521\nsamples = 12\nvalue = 136.75", fillcolor="#e581392a"] ;
763 -> 764 ;
765 [label="mse = 359.583\nsamples = 6\nvalue = 145.5", fillcolor="#e581392d"] ;
764 -> 765 ;
766 [label="mse = 642.333\nsamples = 6\nvalue = 128.0", fillcolor="#e5813927"] ;
764 -> 766 ;
767 [label="mse = 27141.583\nsamples = 6\nvalue = 175.5", fillcolor="#e5813936"] ;
763 -> 767 ;
768 [label="hour <= -0.584\nmse = 26453.81\nsamples = 74\nvalue = 498.878", fillcolor="#e581399b"] ;
758 -> 768 ;
769 [label="temp <= -0.755\nmse = 7411.448\nsamples = 44\nvalue = 382.773", fillcolor="#e5813977"] ;
768 -> 769 ;
770 [label="humidity <= 65.5\nmse = 5690.994\nsamples = 22\nvalue = 337.227", fillcolor="#e5813969"] ;
769 -> 770 ;
771 [label="temp <= -1.071\nmse = 3203.372\nsamples = 14\nvalue = 359.643", fillcolor="#e5813970"] ;
770 -> 771 ;
772 [label="mse = 1407.938\nsamples = 8\nvalue = 370.25", fillcolor="#e5813973"] ;
771 -> 772 ;
773 [label="mse = 5247.25\nsamples = 6\nvalue = 345.5", fillcolor="#e581396b"] ;
771 -> 773 ;
774 [label="mse = 7626.25\nsamples = 8\nvalue = 298.0", fillcolor="#e581395c"] ;
770 -> 774 ;
775 [label="humidity <= 66.5\nmse = 4983.126\nsamples = 22\nvalue = 428.318", fillcolor="#e5813985"] ;
769 -> 775 ;
776 [label="mse = 2043.143\nsamples = 7\nvalue = 390.0", fillcolor="#e5813979"] ;
775 -> 776 ;
777 [label="temp <= -0.439\nmse = 5350.16\nsamples = 15\nvalue = 446.2", fillcolor="#e581398b"] ;
775 -> 777 ;
778 [label="mse = 2082.0\nsamples = 6\nvalue = 383.0", fillcolor="#e5813977"] ;
777 -> 778 ;
779 [label="mse = 3090.889\nsamples = 9\nvalue = 488.333", fillcolor="#e5813998"] ;
777 -> 779 ;
780 [label="season <= 3.0\nmse = 5613.072\nsamples = 30\nvalue = 669.167", fillcolor="#e58139d0"] ;
768 -> 780 ;
781 [label="mse = 2374.727\nsamples = 11\nvalue = 619.0", fillcolor="#e58139c1"] ;
780 -> 781 ;
782 [label="temp <= -0.965\nmse = 5187.324\nsamples = 19\nvalue = 698.211", fillcolor="#e58139d9"] ;
780 -> 782 ;
783 [label="mse = 1188.857\nsamples = 7\nvalue = 644.0", fillcolor="#e58139c8"] ;
782 -> 783 ;
784 [label="humidity <= 66.5\nmse = 4805.472\nsamples = 12\nvalue = 729.833", fillcolor="#e58139e3"] ;
782 -> 784 ;
785 [label="mse = 3069.139\nsamples = 6\nvalue = 748.167", fillcolor="#e58139e9"] ;
784 -> 785 ;
786 [label="mse = 5869.583\nsamples = 6\nvalue = 711.5", fillcolor="#e58139dd"] ;
784 -> 786 ;
787 [label="workingday <= 0.5\nmse = 11424.598\nsamples = 270\nvalue = 282.5", fillcolor="#e5813958"] ;
757 -> 787 ;
788 [label="hour <= -0.151\nmse = 13172.422\nsamples = 91\nvalue = 369.56", fillcolor="#e5813973"] ;
787 -> 788 ;
789 [label="hour <= -0.295\nmse = 5770.242\nsamples = 34\nvalue = 267.588", fillcolor="#e5813953"] ;
788 -> 789 ;
790 [label="humidity <= 84.0\nmse = 4508.139\nsamples = 19\nvalue = 231.579", fillcolor="#e5813948"] ;
789 -> 790 ;
791 [label="windspeed <= 12.0\nmse = 1477.29\nsamples = 13\nvalue = 248.692", fillcolor="#e581394d"] ;
790 -> 791 ;
792 [label="mse = 1282.286\nsamples = 7\nvalue = 264.0", fillcolor="#e5813952"] ;
791 -> 792 ;
793 [label="mse = 1112.472\nsamples = 6\nvalue = 230.833", fillcolor="#e5813948"] ;
791 -> 793 ;
794 [label="mse = 9065.583\nsamples = 6\nvalue = 194.5", fillcolor="#e581393c"] ;
790 -> 794 ;
795 [label="humidity <= 66.5\nmse = 3646.027\nsamples = 15\nvalue = 313.2", fillcolor="#e5813961"] ;
789 -> 795 ;
796 [label="mse = 1415.918\nsamples = 7\nvalue = 340.714", fillcolor="#e581396a"] ;
795 -> 796 ;
797 [label="mse = 4355.359\nsamples = 8\nvalue = 289.125", fillcolor="#e581395a"] ;
795 -> 797 ;
798 [label="humidity <= 60.0\nmse = 7685.5\nsamples = 57\nvalue = 430.386", fillcolor="#e5813986"] ;
788 -> 798 ;
799 [label="temp <= -0.439\nmse = 3299.41\nsamples = 24\nvalue = 483.917", fillcolor="#e5813996"] ;
798 -> 799 ;
800 [label="windspeed <= 14.0\nmse = 675.562\nsamples = 13\nvalue = 461.769", fillcolor="#e5813990"] ;
799 -> 800 ;
801 [label="mse = 876.472\nsamples = 6\nvalue = 458.833", fillcolor="#e581398f"] ;
800 -> 801 ;
802 [label="mse = 489.633\nsamples = 7\nvalue = 464.286", fillcolor="#e5813990"] ;
800 -> 802 ;
803 [label="mse = 5135.537\nsamples = 11\nvalue = 510.091", fillcolor="#e581399f"] ;
799 -> 803 ;
804 [label="temp <= -0.544\nmse = 7275.702\nsamples = 33\nvalue = 391.455", fillcolor="#e581397a"] ;
798 -> 804 ;
805 [label="temp <= -0.755\nmse = 7482.168\nsamples = 14\nvalue = 358.214", fillcolor="#e581396f"] ;
804 -> 805 ;
806 [label="mse = 3805.139\nsamples = 6\nvalue = 435.833", fillcolor="#e5813987"] ;
805 -> 806 ;
807 [label="mse = 2332.5\nsamples = 8\nvalue = 300.0", fillcolor="#e581395d"] ;
805 -> 807 ;
808 [label="windspeed <= 10.0\nmse = 5709.524\nsamples = 19\nvalue = 415.947", fillcolor="#e5813981"] ;
804 -> 808 ;
809 [label="mse = 3634.609\nsamples = 8\nvalue = 370.125", fillcolor="#e5813973"] ;
808 -> 809 ;
810 [label="mse = 4580.926\nsamples = 11\nvalue = 449.273", fillcolor="#e581398c"] ;
808 -> 810 ;
811 [label="hour <= -0.295\nmse = 4723.836\nsamples = 179\nvalue = 238.24", fillcolor="#e581394a"] ;
787 -> 811 ;
812 [label="humidity <= 78.0\nmse = 2368.955\nsamples = 34\nvalue = 313.471", fillcolor="#e5813961"] ;
811 -> 812 ;
813 [label="humidity <= 50.0\nmse = 1260.617\nsamples = 27\nvalue = 322.778", fillcolor="#e5813964"] ;
812 -> 813 ;
814 [label="mse = 1326.816\nsamples = 7\nvalue = 301.429", fillcolor="#e581395e"] ;
813 -> 814 ;
815 [label="windspeed <= 18.0\nmse = 1022.087\nsamples = 20\nvalue = 330.25", fillcolor="#e5813967"] ;
813 -> 815 ;
816 [label="humidity <= 60.5\nmse = 842.899\nsamples = 13\nvalue = 337.154", fillcolor="#e5813969"] ;
815 -> 816 ;
817 [label="mse = 479.959\nsamples = 7\nvalue = 356.429", fillcolor="#e581396f"] ;
816 -> 817 ;
818 [label="mse = 327.222\nsamples = 6\nvalue = 314.667", fillcolor="#e5813962"] ;
816 -> 818 ;
819 [label="mse = 1101.959\nsamples = 7\nvalue = 317.429", fillcolor="#e5813963"] ;
815 -> 819 ;
820 [label="mse = 5021.102\nsamples = 7\nvalue = 277.571", fillcolor="#e5813956"] ;
812 -> 820 ;
821 [label="hour <= -0.006\nmse = 3637.757\nsamples = 145\nvalue = 220.6", fillcolor="#e5813944"] ;
811 -> 821 ;
822 [label="temp <= -0.65\nmse = 1262.974\nsamples = 56\nvalue = 182.911", fillcolor="#e5813939"] ;
821 -> 822 ;
823 [label="humidity <= 45.5\nmse = 792.075\nsamples = 28\nvalue = 168.321", fillcolor="#e5813934"] ;
822 -> 823 ;
824 [label="mse = 718.816\nsamples = 7\nvalue = 187.571", fillcolor="#e581393a"] ;
823 -> 824 ;
825 [label="windspeed <= 14.0\nmse = 651.8\nsamples = 21\nvalue = 161.905", fillcolor="#e5813932"] ;
823 -> 825 ;
826 [label="mse = 565.484\nsamples = 8\nvalue = 174.375", fillcolor="#e5813936"] ;
825 -> 826 ;
827 [label="mse = 550.331\nsamples = 13\nvalue = 154.231", fillcolor="#e5813930"] ;
825 -> 827 ;
828 [label="hour <= -0.151\nmse = 1308.179\nsamples = 28\nvalue = 197.5", fillcolor="#e581393d"] ;
822 -> 828 ;
829 [label="humidity <= 48.5\nmse = 1009.515\nsamples = 14\nvalue = 176.357", fillcolor="#e5813937"] ;
828 -> 829 ;
830 [label="mse = 873.556\nsamples = 6\nvalue = 182.667", fillcolor="#e5813939"] ;
829 -> 830 ;
831 [label="mse = 1059.234\nsamples = 8\nvalue = 171.625", fillcolor="#e5813935"] ;
829 -> 831 ;
832 [label="temp <= -0.229\nmse = 712.801\nsamples = 14\nvalue = 218.643", fillcolor="#e5813944"] ;
828 -> 832 ;
833 [label="mse = 562.984\nsamples = 8\nvalue = 209.375", fillcolor="#e5813941"] ;
832 -> 833 ;
834 [label="mse = 645.333\nsamples = 6\nvalue = 231.0", fillcolor="#e5813948"] ;
832 -> 834 ;
835 [label="humidity <= 51.5\nmse = 3675.834\nsamples = 89\nvalue = 244.315", fillcolor="#e581394c"] ;
821 -> 835 ;
836 [label="humidity <= 38.5\nmse = 2698.843\nsamples = 63\nvalue = 262.825", fillcolor="#e5813952"] ;
835 -> 836 ;
837 [label="season <= 3.0\nmse = 4246.889\nsamples = 24\nvalue = 285.333", fillcolor="#e5813959"] ;
836 -> 837 ;
838 [label="mse = 6074.099\nsamples = 9\nvalue = 323.111", fillcolor="#e5813964"] ;
837 -> 838 ;
839 [label="mse = 1780.489\nsamples = 15\nvalue = 262.667", fillcolor="#e5813951"] ;
837 -> 839 ;
840 [label="temp <= -0.544\nmse = 1242.589\nsamples = 39\nvalue = 248.974", fillcolor="#e581394d"] ;
836 -> 840 ;
841 [label="mse = 828.426\nsamples = 21\nvalue = 238.048", fillcolor="#e581394a"] ;
840 -> 841 ;
842 [label="mse = 1423.978\nsamples = 18\nvalue = 261.722", fillcolor="#e5813951"] ;
840 -> 842 ;
843 [label="temp <= -0.439\nmse = 3201.095\nsamples = 26\nvalue = 199.462", fillcolor="#e581393e"] ;
835 -> 843 ;
844 [label="humidity <= 57.5\nmse = 1188.449\nsamples = 19\nvalue = 211.842", fillcolor="#e5813942"] ;
843 -> 844 ;
845 [label="mse = 931.938\nsamples = 8\nvalue = 192.75", fillcolor="#e581393c"] ;
844 -> 845 ;
846 [label="mse = 917.107\nsamples = 11\nvalue = 225.727", fillcolor="#e5813946"] ;
844 -> 846 ;
847 [label="mse = 7118.694\nsamples = 7\nvalue = 165.857", fillcolor="#e5813933"] ;
843 -> 847 ;
848 [label="workingday <= 0.5\nmse = 18336.066\nsamples = 131\nvalue = 418.534", fillcolor="#e5813982"] ;
756 -> 848 ;
849 [label="hour <= 0.862\nmse = 10858.721\nsamples = 44\nvalue = 315.773", fillcolor="#e5813962"] ;
848 -> 849 ;
850 [label="temp <= -0.544\nmse = 6717.327\nsamples = 20\nvalue = 377.85", fillcolor="#e5813975"] ;
849 -> 850 ;
851 [label="mse = 4346.099\nsamples = 9\nvalue = 334.889", fillcolor="#e5813968"] ;
850 -> 851 ;
852 [label="mse = 5911.818\nsamples = 11\nvalue = 413.0", fillcolor="#e5813980"] ;
850 -> 852 ;
853 [label="humidity <= 81.5\nmse = 8422.457\nsamples = 24\nvalue = 264.042", fillcolor="#e5813952"] ;
849 -> 853 ;
854 [label="temp <= -0.544\nmse = 5624.692\nsamples = 17\nvalue = 299.118", fillcolor="#e581395d"] ;
853 -> 854 ;
855 [label="mse = 562.444\nsamples = 9\nvalue = 258.0", fillcolor="#e5813950"] ;
854 -> 855 ;
856 [label="mse = 7277.984\nsamples = 8\nvalue = 345.375", fillcolor="#e581396b"] ;
854 -> 856 ;
857 [label="mse = 4972.694\nsamples = 7\nvalue = 178.857", fillcolor="#e5813937"] ;
853 -> 857 ;
858 [label="hour <= 0.717\nmse = 14076.02\nsamples = 87\nvalue = 470.506", fillcolor="#e5813992"] ;
848 -> 858 ;
859 [label="humidity <= 41.5\nmse = 3310.019\nsamples = 23\nvalue = 355.739", fillcolor="#e581396e"] ;
858 -> 859 ;
860 [label="mse = 3929.877\nsamples = 9\nvalue = 382.111", fillcolor="#e5813977"] ;
859 -> 860 ;
861 [label="windspeed <= 14.0\nmse = 2177.026\nsamples = 14\nvalue = 338.786", fillcolor="#e5813969"] ;
859 -> 861 ;
862 [label="mse = 1136.984\nsamples = 8\nvalue = 357.625", fillcolor="#e581396f"] ;
861 -> 862 ;
863 [label="mse = 2459.556\nsamples = 6\nvalue = 313.667", fillcolor="#e5813961"] ;
861 -> 863 ;
864 [label="hour <= 1.006\nmse = 11510.5\nsamples = 64\nvalue = 511.75", fillcolor="#e581399f"] ;
858 -> 864 ;
865 [label="humidity <= 44.5\nmse = 4921.098\nsamples = 41\nvalue = 568.78", fillcolor="#e58139b1"] ;
864 -> 865 ;
866 [label="mse = 9475.04\nsamples = 10\nvalue = 613.6", fillcolor="#e58139bf"] ;
865 -> 866 ;
867 [label="humidity <= 68.5\nmse = 2595.057\nsamples = 31\nvalue = 554.323", fillcolor="#e58139ac"] ;
865 -> 867 ;
868 [label="hour <= 0.862\nmse = 2458.207\nsamples = 24\nvalue = 562.958", fillcolor="#e58139af"] ;
867 -> 868 ;
869 [label="mse = 709.69\nsamples = 10\nvalue = 589.1", fillcolor="#e58139b7"] ;
868 -> 869 ;
870 [label="humidity <= 49.5\nmse = 2870.347\nsamples = 14\nvalue = 544.286", fillcolor="#e58139a9"] ;
868 -> 870 ;
871 [label="mse = 1325.667\nsamples = 6\nvalue = 531.0", fillcolor="#e58139a5"] ;
870 -> 871 ;
872 [label="mse = 3797.188\nsamples = 8\nvalue = 554.25", fillcolor="#e58139ac"] ;
870 -> 872 ;
873 [label="mse = 1931.918\nsamples = 7\nvalue = 524.714", fillcolor="#e58139a3"] ;
867 -> 873 ;
874 [label="temp <= -0.439\nmse = 7123.558\nsamples = 23\nvalue = 410.087", fillcolor="#e581397f"] ;
864 -> 874 ;
875 [label="humidity <= 49.5\nmse = 1113.129\nsamples = 15\nvalue = 379.733", fillcolor="#e5813976"] ;
874 -> 875 ;
876 [label="mse = 538.408\nsamples = 7\nvalue = 372.143", fillcolor="#e5813974"] ;
875 -> 876 ;
877 [label="mse = 1521.484\nsamples = 8\nvalue = 386.375", fillcolor="#e5813978"] ;
875 -> 877 ;
878 [label="mse = 13426.5\nsamples = 8\nvalue = 467.0", fillcolor="#e5813991"] ;
874 -> 878 ;
879 [label="hour <= 1.44\nmse = 4677.679\nsamples = 333\nvalue = 135.12", fillcolor="#e581392a"] ;
645 -> 879 ;
880 [label="season <= 1.5\nmse = 4811.73\nsamples = 161\nvalue = 171.944", fillcolor="#e5813935"] ;
879 -> 880 ;
881 [label="workingday <= 0.5\nmse = 2677.41\nsamples = 78\nvalue = 130.641", fillcolor="#e5813928"] ;
880 -> 881 ;
882 [label="temp <= -1.071\nmse = 939.059\nsamples = 26\nvalue = 89.308", fillcolor="#e581391b"] ;
881 -> 882 ;
883 [label="hour <= 1.295\nmse = 391.59\nsamples = 16\nvalue = 72.312", fillcolor="#e5813916"] ;
882 -> 883 ;
884 [label="mse = 219.234\nsamples = 8\nvalue = 82.625", fillcolor="#e5813919"] ;
883 -> 884 ;
885 [label="mse = 351.25\nsamples = 8\nvalue = 62.0", fillcolor="#e5813913"] ;
883 -> 885 ;
886 [label="mse = 613.45\nsamples = 10\nvalue = 116.5", fillcolor="#e5813924"] ;
882 -> 886 ;
887 [label="temp <= -0.439\nmse = 2265.251\nsamples = 52\nvalue = 151.308", fillcolor="#e581392f"] ;
881 -> 887 ;
888 [label="humidity <= 86.5\nmse = 1859.776\nsamples = 45\nvalue = 142.156", fillcolor="#e581392c"] ;
887 -> 888 ;
889 [label="hour <= 1.295\nmse = 1368.552\nsamples = 38\nvalue = 152.026", fillcolor="#e581392f"] ;
888 -> 889 ;
890 [label="temp <= -1.123\nmse = 911.607\nsamples = 19\nvalue = 174.158", fillcolor="#e5813936"] ;
889 -> 890 ;
891 [label="mse = 744.204\nsamples = 7\nvalue = 148.714", fillcolor="#e581392e"] ;
890 -> 891 ;
892 [label="windspeed <= 10.0\nmse = 411.333\nsamples = 12\nvalue = 189.0", fillcolor="#e581393b"] ;
890 -> 892 ;
893 [label="mse = 390.472\nsamples = 6\nvalue = 187.167", fillcolor="#e581393a"] ;
892 -> 893 ;
894 [label="mse = 425.472\nsamples = 6\nvalue = 190.833", fillcolor="#e581393b"] ;
892 -> 894 ;
895 [label="temp <= -1.176\nmse = 845.884\nsamples = 19\nvalue = 129.895", fillcolor="#e5813928"] ;
889 -> 895 ;
896 [label="mse = 358.889\nsamples = 6\nvalue = 100.333", fillcolor="#e581391f"] ;
895 -> 896 ;
897 [label="humidity <= 51.0\nmse = 481.172\nsamples = 13\nvalue = 143.538", fillcolor="#e581392c"] ;
895 -> 897 ;
898 [label="mse = 197.388\nsamples = 7\nvalue = 137.429", fillcolor="#e581392a"] ;
897 -> 898 ;
899 [label="mse = 717.889\nsamples = 6\nvalue = 150.667", fillcolor="#e581392f"] ;
897 -> 899 ;
900 [label="mse = 1126.245\nsamples = 7\nvalue = 88.571", fillcolor="#e581391b"] ;
888 -> 900 ;
901 [label="mse = 871.837\nsamples = 7\nvalue = 210.143", fillcolor="#e5813941"] ;
887 -> 901 ;
902 [label="workingday <= 0.5\nmse = 3707.701\nsamples = 83\nvalue = 210.759", fillcolor="#e5813941"] ;
880 -> 902 ;
903 [label="humidity <= 73.5\nmse = 2212.582\nsamples = 24\nvalue = 162.458", fillcolor="#e5813932"] ;
902 -> 903 ;
904 [label="temp <= -0.597\nmse = 1675.41\nsamples = 12\nvalue = 189.083", fillcolor="#e581393b"] ;
903 -> 904 ;
905 [label="mse = 1434.889\nsamples = 6\nvalue = 160.667", fillcolor="#e5813932"] ;
904 -> 905 ;
906 [label="mse = 300.917\nsamples = 6\nvalue = 217.5", fillcolor="#e5813943"] ;
904 -> 906 ;
907 [label="temp <= -0.65\nmse = 1331.972\nsamples = 12\nvalue = 135.833", fillcolor="#e581392a"] ;
903 -> 907 ;
908 [label="mse = 2060.139\nsamples = 6\nvalue = 145.833", fillcolor="#e581392d"] ;
907 -> 908 ;
909 [label="mse = 403.806\nsamples = 6\nvalue = 125.833", fillcolor="#e5813927"] ;
907 -> 909 ;
910 [label="temp <= -0.65\nmse = 2980.851\nsamples = 59\nvalue = 230.407", fillcolor="#e5813947"] ;
902 -> 910 ;
911 [label="hour <= 1.295\nmse = 1783.312\nsamples = 32\nvalue = 215.469", fillcolor="#e5813943"] ;
910 -> 911 ;
912 [label="temp <= -0.755\nmse = 497.684\nsamples = 16\nvalue = 249.062", fillcolor="#e581394d"] ;
911 -> 912 ;
913 [label="mse = 580.76\nsamples = 10\nvalue = 253.8", fillcolor="#e581394f"] ;
912 -> 913 ;
914 [label="mse = 259.472\nsamples = 6\nvalue = 241.167", fillcolor="#e581394b"] ;
912 -> 914 ;
915 [label="windspeed <= 14.0\nmse = 811.859\nsamples = 16\nvalue = 181.875", fillcolor="#e5813938"] ;
911 -> 915 ;
916 [label="mse = 386.776\nsamples = 7\nvalue = 193.714", fillcolor="#e581393c"] ;
915 -> 916 ;
917 [label="mse = 948.667\nsamples = 9\nvalue = 172.667", fillcolor="#e5813935"] ;
915 -> 917 ;
918 [label="hour <= 1.295\nmse = 3822.247\nsamples = 27\nvalue = 248.111", fillcolor="#e581394d"] ;
910 -> 918 ;
919 [label="windspeed <= 12.0\nmse = 2060.333\nsamples = 12\nvalue = 295.0", fillcolor="#e581395c"] ;
918 -> 919 ;
920 [label="mse = 3123.806\nsamples = 6\nvalue = 308.833", fillcolor="#e5813960"] ;
919 -> 920 ;
921 [label="mse = 614.139\nsamples = 6\nvalue = 281.167", fillcolor="#e5813957"] ;
919 -> 921 ;
922 [label="windspeed <= 10.998\nmse = 2065.84\nsamples = 15\nvalue = 210.6", fillcolor="#e5813941"] ;
918 -> 922 ;
923 [label="mse = 1553.551\nsamples = 7\nvalue = 195.143", fillcolor="#e581393c"] ;
922 -> 923 ;
924 [label="mse = 2122.109\nsamples = 8\nvalue = 224.125", fillcolor="#e5813945"] ;
922 -> 924 ;
925 [label="season <= 1.5\nmse = 2094.809\nsamples = 172\nvalue = 100.651", fillcolor="#e581391f"] ;
879 -> 925 ;
926 [label="hour <= 1.585\nmse = 1068.575\nsamples = 78\nvalue = 73.744", fillcolor="#e5813917"] ;
925 -> 926 ;
927 [label="temp <= -1.386\nmse = 938.08\nsamples = 38\nvalue = 91.158", fillcolor="#e581391c"] ;
926 -> 927 ;
928 [label="mse = 306.531\nsamples = 7\nvalue = 51.571", fillcolor="#e5813910"] ;
927 -> 928 ;
929 [label="temp <= -1.176\nmse = 646.926\nsamples = 31\nvalue = 100.097", fillcolor="#e581391f"] ;
927 -> 929 ;
930 [label="mse = 255.284\nsamples = 9\nvalue = 83.778", fillcolor="#e581391a"] ;
929 -> 930 ;
931 [label="temp <= -0.65\nmse = 653.63\nsamples = 22\nvalue = 106.773", fillcolor="#e5813921"] ;
929 -> 931 ;
932 [label="humidity <= 61.0\nmse = 443.352\nsamples = 14\nvalue = 101.071", fillcolor="#e581391f"] ;
931 -> 932 ;
933 [label="mse = 224.688\nsamples = 8\nvalue = 108.25", fillcolor="#e5813921"] ;
932 -> 933 ;
934 [label="mse = 574.583\nsamples = 6\nvalue = 91.5", fillcolor="#e581391c"] ;
932 -> 934 ;
935 [label="mse = 865.188\nsamples = 8\nvalue = 116.75", fillcolor="#e5813924"] ;
931 -> 935 ;
936 [label="temp <= -1.386\nmse = 630.76\nsamples = 40\nvalue = 57.2", fillcolor="#e5813911"] ;
926 -> 936 ;
937 [label="mse = 318.926\nsamples = 11\nvalue = 37.727", fillcolor="#e581390b"] ;
936 -> 937 ;
938 [label="windspeed <= 8.0\nmse = 550.656\nsamples = 29\nvalue = 64.586", fillcolor="#e5813914"] ;
936 -> 938 ;
939 [label="mse = 552.44\nsamples = 10\nvalue = 74.4", fillcolor="#e5813917"] ;
938 -> 939 ;
940 [label="humidity <= 50.5\nmse = 472.349\nsamples = 19\nvalue = 59.421", fillcolor="#e5813912"] ;
938 -> 940 ;
941 [label="mse = 170.734\nsamples = 8\nvalue = 72.375", fillcolor="#e5813916"] ;
940 -> 941 ;
942 [label="mse = 480.909\nsamples = 11\nvalue = 50.0", fillcolor="#e581390f"] ;
940 -> 942 ;
943 [label="hour <= 1.585\nmse = 1847.063\nsamples = 94\nvalue = 122.979", fillcolor="#e5813926"] ;
925 -> 943 ;
944 [label="temp <= -0.965\nmse = 1354.154\nsamples = 44\nvalue = 144.568", fillcolor="#e581392d"] ;
943 -> 944 ;
945 [label="mse = 1089.728\nsamples = 9\nvalue = 120.778", fillcolor="#e5813925"] ;
944 -> 945 ;
946 [label="humidity <= 74.0\nmse = 1239.187\nsamples = 35\nvalue = 150.686", fillcolor="#e581392f"] ;
944 -> 946 ;
947 [label="humidity <= 61.5\nmse = 736.806\nsamples = 25\nvalue = 157.44", fillcolor="#e5813931"] ;
946 -> 947 ;
948 [label="season <= 3.0\nmse = 529.801\nsamples = 14\nvalue = 148.357", fillcolor="#e581392e"] ;
947 -> 948 ;
949 [label="mse = 555.102\nsamples = 7\nvalue = 143.571", fillcolor="#e581392c"] ;
948 -> 949 ;
950 [label="mse = 458.694\nsamples = 7\nvalue = 153.143", fillcolor="#e581392f"] ;
948 -> 950 ;
951 [label="mse = 761.636\nsamples = 11\nvalue = 169.0", fillcolor="#e5813934"] ;
947 -> 951 ;
952 [label="mse = 2095.96\nsamples = 10\nvalue = 133.8", fillcolor="#e5813929"] ;
946 -> 952 ;
953 [label="windspeed <= 8.0\nmse = 1509.7\nsamples = 50\nvalue = 103.98", fillcolor="#e5813920"] ;
943 -> 953 ;
954 [label="temp <= -0.597\nmse = 1729.951\nsamples = 18\nvalue = 126.778", fillcolor="#e5813927"] ;
953 -> 954 ;
955 [label="mse = 724.75\nsamples = 8\nvalue = 119.0", fillcolor="#e5813925"] ;
954 -> 955 ;
956 [label="mse = 2447.0\nsamples = 10\nvalue = 133.0", fillcolor="#e5813929"] ;
954 -> 956 ;
957 [label="humidity <= 76.5\nmse = 929.007\nsamples = 32\nvalue = 91.156", fillcolor="#e581391c"] ;
953 -> 957 ;
958 [label="workingday <= 0.5\nmse = 774.846\nsamples = 26\nvalue = 98.0", fillcolor="#e581391e"] ;
957 -> 958 ;
959 [label="mse = 1038.806\nsamples = 6\nvalue = 119.833", fillcolor="#e5813925"] ;
958 -> 959 ;
960 [label="temp <= -0.965\nmse = 509.747\nsamples = 20\nvalue = 91.45", fillcolor="#e581391c"] ;
958 -> 960 ;
961 [label="mse = 165.633\nsamples = 7\nvalue = 76.286", fillcolor="#e5813917"] ;
960 -> 961 ;
962 [label="humidity <= 55.0\nmse = 504.544\nsamples = 13\nvalue = 99.615", fillcolor="#e581391f"] ;
960 -> 962 ;
963 [label="mse = 568.816\nsamples = 7\nvalue = 95.571", fillcolor="#e581391d"] ;
962 -> 963 ;
