digraph Tree {
node [shape=box, style="filled", color="black"] ;
0 [label="hour <= -0.729\nmse = 32845.234\nsamples = 8708\nvalue = 192.235", fillcolor="#e5813952"] ;
1 [label="hour <= -0.874\nmse = 1630.596\nsamples = 2511\nvalue = 32.959", fillcolor="#e581390d"] ;
0 -> 1 [labeldistance=2.5, labelangle=45, headlabel="True"] ;
2 [label="hour <= -1.597\nmse = 990.639\nsamples = 2137\nvalue = 25.349", fillcolor="#e581390a"] ;
1 -> 2 ;
3 [label="workingday <= 0.5\nmse = 2050.553\nsamples = 366\nvalue = 56.781", fillcolor="#e5813917"] ;
2 -> 3 ;
4 [label="temp <= 0.087\nmse = 2388.211\nsamples = 121\nvalue = 95.934", fillcolor="#e5813929"] ;
3 -> 4 ;
5 [label="season <= 2.5\nmse = 1560.032\nsamples = 73\nvalue = 71.904", fillcolor="#e581391e"] ;
4 -> 5 ;
6 [label="mse = 844.948\nsamples = 41\nvalue = 52.317", fillcolor="#e5813915"] ;
5 -> 6 ;
7 [label="mse = 1354.875\nsamples = 32\nvalue = 97.0", fillcolor="#e5813929"] ;
5 -> 7 ;
8 [label="year <= 2011.5\nmse = 1434.0\nsamples = 48\nvalue = 132.479", fillcolor="#e5813938"] ;
4 -> 8 ;
9 [label="mse = 650.127\nsamples = 19\nvalue = 109.368", fillcolor="#e581392e"] ;
8 -> 9 ;
10 [label="mse = 1368.373\nsamples = 29\nvalue = 147.621", fillcolor="#e581393f"] ;
8 -> 10 ;
11 [label="season <= 1.5\nmse = 752.818\nsamples = 245\nvalue = 37.445", fillcolor="#e581390f"] ;
3 -> 11 ;
12 [label="temp <= -0.334\nmse = 194.116\nsamples = 60\nvalue = 19.983", fillcolor="#e5813907"] ;
11 -> 12 ;
13 [label="mse = 107.028\nsamples = 50\nvalue = 16.18", fillcolor="#e5813906"] ;
12 -> 13 ;
14 [label="mse = 195.6\nsamples = 10\nvalue = 39.0", fillcolor="#e5813910"] ;
12 -> 14 ;
15 [label="year <= 2011.5\nmse = 803.059\nsamples = 185\nvalue = 43.108", fillcolor="#e5813911"] ;
11 -> 15 ;
16 [label="mse = 439.857\nsamples = 90\nvalue = 34.144", fillcolor="#e581390e"] ;
15 -> 16 ;
17 [label="mse = 998.914\nsamples = 95\nvalue = 51.6", fillcolor="#e5813915"] ;
15 -> 17 ;
18 [label="workingday <= 0.5\nmse = 525.216\nsamples = 1771\nvalue = 18.853", fillcolor="#e5813907"] ;
2 -> 18 ;
19 [label="hour <= -1.307\nmse = 1034.914\nsamples = 572\nvalue = 33.481", fillcolor="#e581390d"] ;
18 -> 19 ;
20 [label="temp <= -0.018\nmse = 975.799\nsamples = 225\nvalue = 62.809", fillcolor="#e581391a"] ;
19 -> 20 ;
21 [label="mse = 750.761\nsamples = 137\nvalue = 50.204", fillcolor="#e5813915"] ;
20 -> 21 ;
22 [label="mse = 693.745\nsamples = 88\nvalue = 82.432", fillcolor="#e5813923"] ;
20 -> 22 ;
23 [label="hour <= -1.163\nmse = 153.88\nsamples = 347\nvalue = 14.464", fillcolor="#e5813905"] ;
19 -> 23 ;
24 [label="mse = 182.957\nsamples = 114\nvalue = 26.184", fillcolor="#e581390a"] ;
23 -> 24 ;
25 [label="mse = 39.562\nsamples = 233\nvalue = 8.73", fillcolor="#e5813902"] ;
23 -> 25 ;
26 [label="hour <= -1.018\nmse = 131.285\nsamples = 1199\nvalue = 11.875", fillcolor="#e5813904"] ;
18 -> 26 ;
27 [label="hour <= -1.452\nmse = 76.45\nsamples = 956\nvalue = 8.641", fillcolor="#e5813902"] ;
26 -> 27 ;
28 [label="mse = 160.373\nsamples = 246\nvalue = 15.581", fillcolor="#e5813905"] ;
27 -> 28 ;
29 [label="mse = 24.902\nsamples = 710\nvalue = 6.237", fillcolor="#e5813901"] ;
27 -> 29 ;
30 [label="year <= 2011.5\nmse = 144.035\nsamples = 243\nvalue = 24.597", fillcolor="#e5813909"] ;
26 -> 30 ;
31 [label="mse = 88.164\nsamples = 119\nvalue = 17.361", fillcolor="#e5813906"] ;
30 -> 31 ;
32 [label="mse = 99.2\nsamples = 124\nvalue = 31.54", fillcolor="#e581390c"] ;
30 -> 32 ;
33 [label="workingday <= 0.5\nmse = 3065.418\nsamples = 374\nvalue = 76.444", fillcolor="#e5813920"] ;
1 -> 33 ;
34 [label="season <= 1.5\nmse = 314.461\nsamples = 124\nvalue = 20.218", fillcolor="#e5813908"] ;
33 -> 34 ;
35 [label="temp <= -0.439\nmse = 32.407\nsamples = 29\nvalue = 6.276", fillcolor="#e5813901"] ;
34 -> 35 ;
36 [label="year <= 2011.5\nmse = 12.467\nsamples = 26\nvalue = 5.385", fillcolor="#e5813901"] ;
35 -> 36 ;
37 [label="mse = 3.091\nsamples = 11\nvalue = 3.0", fillcolor="#e5813900"] ;
36 -> 37 ;
38 [label="mse = 12.116\nsamples = 15\nvalue = 7.133", fillcolor="#e5813902"] ;
36 -> 38 ;
39 [label="windspeed <= 18.499\nmse = 138.667\nsamples = 3\nvalue = 14.0", fillcolor="#e5813905"] ;
35 -> 39 ;
40 [label="mse = 0.0\nsamples = 1\nvalue = 30.0", fillcolor="#e581390c"] ;
39 -> 40 ;
41 [label="mse = 16.0\nsamples = 2\nvalue = 6.0", fillcolor="#e5813901"] ;
39 -> 41 ;
42 [label="year <= 2011.5\nmse = 323.112\nsamples = 95\nvalue = 24.474", fillcolor="#e5813909"] ;
34 -> 42 ;
43 [label="temp <= -1.281\nmse = 136.977\nsamples = 47\nvalue = 19.043", fillcolor="#e5813907"] ;
42 -> 43 ;
44 [label="mse = 11.347\nsamples = 7\nvalue = 8.286", fillcolor="#e5813902"] ;
43 -> 44 ;
45 [label="mse = 135.169\nsamples = 40\nvalue = 20.925", fillcolor="#e5813908"] ;
43 -> 45 ;
46 [label="season <= 2.5\nmse = 448.207\nsamples = 48\nvalue = 29.792", fillcolor="#e581390c"] ;
42 -> 46 ;
47 [label="mse = 867.716\nsamples = 15\nvalue = 40.133", fillcolor="#e5813910"] ;
46 -> 47 ;
48 [label="mse = 186.81\nsamples = 33\nvalue = 25.091", fillcolor="#e581390a"] ;
46 -> 48 ;
49 [label="year <= 2011.5\nmse = 2084.102\nsamples = 250\nvalue = 104.332", fillcolor="#e581392c"] ;
33 -> 49 ;
50 [label="season <= 1.5\nmse = 1198.312\nsamples = 126\nvalue = 79.54", fillcolor="#e5813921"] ;
49 -> 50 ;
51 [label="humidity <= 16.0\nmse = 89.408\nsamples = 28\nvalue = 33.143", fillcolor="#e581390d"] ;
50 -> 51 ;
52 [label="mse = 0.0\nsamples = 1\nvalue = 12.0", fillcolor="#e5813904"] ;
51 -> 52 ;
53 [label="mse = 75.55\nsamples = 27\nvalue = 33.926", fillcolor="#e581390d"] ;
51 -> 53 ;
54 [label="temp <= -0.018\nmse = 724.367\nsamples = 98\nvalue = 92.796", fillcolor="#e5813927"] ;
50 -> 54 ;
55 [label="mse = 737.076\nsamples = 43\nvalue = 78.395", fillcolor="#e5813921"] ;
54 -> 55 ;
56 [label="mse = 425.542\nsamples = 55\nvalue = 104.055", fillcolor="#e581392c"] ;
54 -> 56 ;
57 [label="season <= 1.5\nmse = 1724.959\nsamples = 124\nvalue = 129.524", fillcolor="#e5813937"] ;
49 -> 57 ;
58 [label="temp <= -0.439\nmse = 230.628\nsamples = 29\nvalue = 86.69", fillcolor="#e5813924"] ;
57 -> 58 ;
59 [label="mse = 146.87\nsamples = 25\nvalue = 82.64", fillcolor="#e5813923"] ;
58 -> 59 ;
60 [label="mse = 11.0\nsamples = 4\nvalue = 112.0", fillcolor="#e5813930"] ;
58 -> 60 ;
61 [label="temp <= -0.65\nmse = 1450.051\nsamples = 95\nvalue = 142.6", fillcolor="#e581393d"] ;
57 -> 61 ;
62 [label="mse = 527.418\nsamples = 27\nvalue = 118.63", fillcolor="#e5813932"] ;
61 -> 62 ;
63 [label="mse = 1497.663\nsamples = 68\nvalue = 152.118", fillcolor="#e5813941"] ;
61 -> 63 ;
64 [label="temp <= -0.018\nmse = 31048.766\nsamples = 6197\nvalue = 256.773", fillcolor="#e581396f"] ;
0 -> 64 [labeldistance=2.5, labelangle=-45, headlabel="False"] ;
65 [label="year <= 2011.5\nmse = 19269.868\nsamples = 2800\nvalue = 184.169", fillcolor="#e581394f"] ;
64 -> 65 ;
66 [label="season <= 2.5\nmse = 9298.453\nsamples = 1441\nvalue = 130.795", fillcolor="#e5813938"] ;
65 -> 66 ;
67 [label="temp <= -0.439\nmse = 5207.94\nsamples = 938\nvalue = 102.287", fillcolor="#e581392b"] ;
66 -> 67 ;
68 [label="hour <= 1.151\nmse = 3525.498\nsamples = 747\nvalue = 89.573", fillcolor="#e5813926"] ;
67 -> 68 ;
69 [label="mse = 3781.284\nsamples = 562\nvalue = 102.569", fillcolor="#e581392b"] ;
68 -> 69 ;
70 [label="mse = 676.592\nsamples = 185\nvalue = 50.092", fillcolor="#e5813915"] ;
68 -> 70 ;
71 [label="hour <= 1.151\nmse = 8683.34\nsamples = 191\nvalue = 152.01", fillcolor="#e5813941"] ;
67 -> 71 ;
72 [label="mse = 9356.572\nsamples = 146\nvalue = 170.644", fillcolor="#e5813949"] ;
71 -> 72 ;
73 [label="mse = 1717.802\nsamples = 45\nvalue = 91.556", fillcolor="#e5813927"] ;
71 -> 73 ;
74 [label="hour <= 1.295\nmse = 12584.589\nsamples = 503\nvalue = 183.958", fillcolor="#e581394f"] ;
66 -> 74 ;
75 [label="humidity <= 93.5\nmse = 12739.943\nsamples = 403\nvalue = 206.983", fillcolor="#e5813959"] ;
74 -> 75 ;
76 [label="mse = 11963.347\nsamples = 371\nvalue = 214.022", fillcolor="#e581395c"] ;
75 -> 76 ;
77 [label="mse = 14509.359\nsamples = 32\nvalue = 125.375", fillcolor="#e5813935"] ;
75 -> 77 ;
78 [label="hour <= 1.44\nmse = 1212.461\nsamples = 100\nvalue = 91.17", fillcolor="#e5813926"] ;
74 -> 78 ;
79 [label="mse = 1302.333\nsamples = 30\nvalue = 114.0", fillcolor="#e5813930"] ;
78 -> 79 ;
80 [label="mse = 854.837\nsamples = 70\nvalue = 81.386", fillcolor="#e5813922"] ;
78 -> 80 ;
81 [label="hour <= 1.151\nmse = 23619.411\nsamples = 1359\nvalue = 240.763", fillcolor="#e5813968"] ;
65 -> 81 ;
82 [label="season <= 1.5\nmse = 24969.28\nsamples = 1026\nvalue = 275.051", fillcolor="#e5813977"] ;
81 -> 82 ;
83 [label="temp <= -0.86\nmse = 16576.82\nsamples = 515\nvalue = 214.534", fillcolor="#e581395c"] ;
82 -> 83 ;
84 [label="mse = 12385.104\nsamples = 304\nvalue = 178.967", fillcolor="#e581394d"] ;
83 -> 84 ;
85 [label="mse = 18167.633\nsamples = 211\nvalue = 265.777", fillcolor="#e5813973"] ;
83 -> 85 ;
86 [label="hour <= 0.572\nmse = 26016.666\nsamples = 511\nvalue = 336.041", fillcolor="#e5813991"] ;
82 -> 86 ;
87 [label="mse = 25509.724\nsamples = 380\nvalue = 307.603", fillcolor="#e5813985"] ;
86 -> 87 ;
88 [label="mse = 18336.066\nsamples = 131\nvalue = 418.534", fillcolor="#e58139b5"] ;
86 -> 88 ;
89 [label="hour <= 1.44\nmse = 4677.679\nsamples = 333\nvalue = 135.12", fillcolor="#e581393a"] ;
81 -> 89 ;
90 [label="season <= 1.5\nmse = 4811.73\nsamples = 161\nvalue = 171.944", fillcolor="#e581394a"] ;
89 -> 90 ;
91 [label="mse = 2677.41\nsamples = 78\nvalue = 130.641", fillcolor="#e5813938"] ;
90 -> 91 ;
92 [label="mse = 3707.701\nsamples = 83\nvalue = 210.759", fillcolor="#e581395b"] ;
90 -> 92 ;
93 [label="season <= 1.5\nmse = 2094.809\nsamples = 172\nvalue = 100.651", fillcolor="#e581392b"] ;
89 -> 93 ;
94 [label="mse = 1068.575\nsamples = 78\nvalue = 73.744", fillcolor="#e581391f"] ;
93 -> 94 ;
95 [label="mse = 1847.063\nsamples = 94\nvalue = 122.979", fillcolor="#e5813934"] ;
93 -> 95 ;
96 [label="year <= 2011.5\nmse = 32831.208\nsamples = 3397\nvalue = 316.618", fillcolor="#e5813989"] ;
64 -> 96 ;
97 [label="hour <= 1.295\nmse = 17054.092\nsamples = 1619\nvalue = 247.805", fillcolor="#e581396b"] ;
96 -> 97 ;
98 [label="hour <= 0.572\nmse = 17039.679\nsamples = 1361\nvalue = 268.091", fillcolor="#e5813974"] ;
97 -> 98 ;
99 [label="workingday <= 0.5\nmse = 11981.258\nsamples = 845\nvalue = 223.446", fillcolor="#e5813960"] ;
98 -> 99 ;
100 [label="mse = 13903.575\nsamples = 248\nvalue = 292.194", fillcolor="#e581397e"] ;
99 -> 100 ;
101 [label="mse = 8403.812\nsamples = 597\nvalue = 194.888", fillcolor="#e5813954"] ;
99 -> 101 ;
102 [label="hour <= 1.006\nmse = 16714.184\nsamples = 516\nvalue = 341.202", fillcolor="#e5813993"] ;
98 -> 102 ;
103 [label="mse = 18216.532\nsamples = 318\nvalue = 382.525", fillcolor="#e58139a5"] ;
102 -> 103 ;
104 [label="mse = 7154.008\nsamples = 198\nvalue = 274.833", fillcolor="#e5813976"] ;
102 -> 104 ;
105 [label="hour <= 1.585\nmse = 3507.181\nsamples = 258\nvalue = 140.791", fillcolor="#e581393c"] ;
97 -> 105 ;
106 [label="humidity <= 83.5\nmse = 3175.798\nsamples = 176\nvalue = 161.642", fillcolor="#e5813945"] ;
105 -> 106 ;
107 [label="mse = 2764.173\nsamples = 146\nvalue = 172.137", fillcolor="#e581394a"] ;
106 -> 107 ;
108 [label="mse = 2034.312\nsamples = 30\nvalue = 110.567", fillcolor="#e581392f"] ;
106 -> 108 ;
109 [label="temp <= 0.613\nmse = 1282.328\nsamples = 82\nvalue = 96.037", fillcolor="#e5813929"] ;
105 -> 109 ;
110 [label="mse = 1047.18\nsamples = 34\nvalue = 78.235", fillcolor="#e5813921"] ;
109 -> 110 ;
111 [label="mse = 1065.437\nsamples = 48\nvalue = 108.646", fillcolor="#e581392e"] ;
109 -> 111 ;
112 [label="hour <= 1.295\nmse = 38959.382\nsamples = 1778\nvalue = 379.278", fillcolor="#e58139a4"] ;
96 -> 112 ;
113 [label="hour <= 0.572\nmse = 38008.637\nsamples = 1492\nvalue = 413.248", fillcolor="#e58139b3"] ;
112 -> 113 ;
114 [label="workingday <= 0.5\nmse = 27039.865\nsamples = 899\nvalue = 341.75", fillcolor="#e5813994"] ;
113 -> 114 ;
115 [label="mse = 37362.355\nsamples = 266\nvalue = 413.526", fillcolor="#e58139b3"] ;
114 -> 115 ;
116 [label="mse = 19627.459\nsamples = 633\nvalue = 311.588", fillcolor="#e5813986"] ;
114 -> 116 ;
117 [label="hour <= 1.006\nmse = 35138.615\nsamples = 593\nvalue = 521.641", fillcolor="#e58139e2"] ;
113 -> 117 ;
118 [label="mse = 34986.895\nsamples = 374\nvalue = 588.139", fillcolor="#e58139ff"] ;
117 -> 118 ;
119 [label="mse = 14949.368\nsamples = 219\nvalue = 408.078", fillcolor="#e58139b1"] ;
117 -> 119 ;
120 [label="hour <= 1.44\nmse = 6494.073\nsamples = 286\nvalue = 202.063", fillcolor="#e5813957"] ;
112 -> 120 ;
121 [label="humidity <= 75.0\nmse = 5660.089\nsamples = 96\nvalue = 260.125", fillcolor="#e5813970"] ;
120 -> 121 ;
122 [label="mse = 4375.691\nsamples = 76\nvalue = 274.421", fillcolor="#e5813976"] ;
121 -> 122 ;
123 [label="mse = 6812.96\nsamples = 20\nvalue = 205.8", fillcolor="#e5813958"] ;
121 -> 123 ;
124 [label="hour <= 1.585\nmse = 4351.472\nsamples = 190\nvalue = 172.726", fillcolor="#e581394a"] ;
120 -> 124 ;
125 [label="mse = 3920.385\nsamples = 103\nvalue = 200.534", fillcolor="#e5813956"] ;
124 -> 125 ;
126 [label="mse = 2862.525\nsamples = 87\nvalue = 139.805", fillcolor="#e581393c"] ;
124 -> 126 ;
}